tree
version=v3
num_class=1
num_tree_per_iteration=1
label_index=0
max_feature_idx=13
objective=binary sigmoid:1
feature_names=Column_0 Column_1 Column_2 Column_3 Column_4 Column_5 Column_6 Column_7 Column_8 Column_9 Column_10 Column_11 Column_12 Column_13
feature_infos=[-0.5969396695480903:32.022001421799111] [-6.3834388503256427:0.70719795691406639] [-0.33719121185251899:31.31397821116823] [-0.44427005860727703:4.5774711902072349] [-0.77881624492102097:1.2839999249134935] [-1.6391168875163782:1.0554834338832448] [-1.013676295520261:27.175446798067469] [-8.4025663885252193:0.49426926526881099] [-0.70276248622179127:1.4229558629064338] [-0.50327913323584184:1.9869689282972698] [-0.93660515143068834:1.0676857782305322] [-0.65913805300901218:1.5171328607640366] none [-1.4885202651591185:0.67180811938297869]
tree_sizes=6854 6932 6712 6816 6603 6909 6391 6812 6613 6502 6722 6831 6498 6925 6610 6807 6918 6405 6390 6629 6714 7038 6809 7041 6737 6843 6738 6832 6520 6736 6746 6763 6933 6947 7062 6744 6857 6613 6631 6749 6721 6951 6960 6507 6720 6856 7069 6968 6872 6418 6854 7091 6862 6974 6647 7190 6862 6994 6662 6989 7292 6892 6448 6985 6461 6768 6341 6762 6875 6986 7081 6997 6885 6791 7078 7008 7294 6985 6634 6972 6866 6345 6773 6216 6993 6455 6676 7312 6670 6767 6882 6454 6660 6787 6764 6668 6312 7304 6971 6240 6898 6754 6450 6778 6160 6379 6118 6451 5788 6452 5365 6253 6781 6377 5691 6157 6776 6481 6136 6588 5921 6020 5588 5698 6696 5579 5823 6028 6461 5154 6270 5151 5353 5051 6251 6156 4944 6353 4832 5400 3080 6148 5057 5376 5154 5933 3647 4724 3526 4172 3637 5831 5930 6020 3532 5388 3637 5498 4946 3294 5389 3301 5378 5068 5273 5914 5832 4954 5066 3744 1977 5473 3739 5385 5276 3298 4721 5280 4508 4509 1979 4371 6152 4833 6144 3621 4507 5037 5240 3426 4959 4938 3317 6027 5278 3839 3319 5933 3738 4516 6250 5159 5607 5720 5054 1977 3859 3420 1974 4285 6033 3407 4409 5285 1975 3427 4401 3407 3295 4630 1971 3866 3949 4068 1981 3644 3088 1981 5840 4075 4307 1987 3420 6136 3861 6024 3853 1981 3764 3524 2532 5825 2972 3968 3744 6060 5061 2863 4620 3416 3640 5508 3420 3304 3197 2753 4297 2426 2089 4189 3961 3303 3414 4620 2091 5933 4087 3754 2087 3640 2426 3411 1755 4291 1758 3955 3861 3298 3305 3970 4946 2618 1980 2642 3078 2421 5065 1760 3300 3519 4296 3096 2306 3759 2204 3517 2184 3414 3182 4406 2856 4425 5069 3421 6251 1867 6042 1877 1976 5812 1974 2753 2985 1760 4294 3083 1978 4082 2879 4524 3208 4294 3733 2648 3309 2651 4074 2652 3632 3648 2532 2093 4639 6476 4082 3431 2090 2092 2390 3513 2310 4081 4518 2525 3303 3086 1539 3759 1972 5165 4596 3192 4080 3953 5383 3179 4508 3085 6013 3186 5491 3394 4170 4625 3974 5492 3422 2757 1874 4911 2522 2648 1987 4416 3429 5690 4647 3876 2981 2984 4825 3422 1869 5165 3325 3301 3319 3945 2985 3986 3961 3517 2541 2982 3411 2094 2539 3962 3762 3523 3761 3865 2967 5061 3877 3084 1651 4301 5501 3412 4842 3310 3303 3535 4077 2968 3079 3530 5070 1658 2100 3425 2092 4059 2091

Tree=0
num_leaves=63
num_cat=0
split_feature=7 9 7 11 13 3 4 13 9 2 0 3 5 4 5 4 4 5 5 2 0 0 4 8 4 0 0 0 8 3 4 5 4 3 5 8 5 5 0 5 9 3 5 8 3 1 8 1 5 1 6 0 6 3 8 6 1 0 1 6 8 6
split_gain=5665.83 3399.98 2095.45 924.257 638.632 426.591 286.156 282.893 234.371 216.634 210.463 200.05 175.795 157.02 134.631 114.255 111.95 106.648 242.172 96.986 143.642 85.7332 83.6296 82.8935 67.5381 66.8668 63.4481 62.2714 60.0889 61.2164 55.4085 50.3649 45.7098 39.2458 38.3653 35.4528 33.4692 87.8684 27.5239 27.446 23.7885 34.1051 23.7014 23.0701 22.245 18.8705 17.4707 16.5014 13.9894 9.83472 9.55121 8.59286 4.24884 3.46723 2.68249 2.49558 2.1022 2.06292 1.25266 0.815009 0.504084 0.180704
threshold=0.38305881959638605 1.0000000180025095e-35 -1.6187292025072715 1.0000000180025095e-35 1.0000000180025095e-35 -0.43171570548524069 1.0000000180025095e-35 1.0000000180025095e-35 1.0000000180025095e-35 -0.31458323369321833 -0.46646390518270142 1.2053719416282906 1.0420104322762469 1.0000000180025095e-35 -0.95738300620227357 1.0000000180025095e-35 1.0000000180025095e-35 1.0420104322762469 -1.5852248810883856 -0.31458323369321833 -0.46646390518270142 -0.46646390518270142 1.0000000180025095e-35 1.0000000180025095e-35 1.0000000180025095e-35 -0.46646390518270142 -0.20551237645192386 -0.46646390518270142 1.0000000180025095e-35 -0.33630262175776499 1.0000000180025095e-35 0.82240050608217763 1.0000000180025095e-35 -0.43171570548524069 0.77928690093978359 1.0000000180025095e-35 1.0420104322762469 -1.3346270511982208 -0.20551237645192386 0.77928690093978359 1.0000000180025095e-35 0.21106717436301689 0.63108388326280429 1.0000000180025095e-35 -0.25595476177673276 0.61856499682357047 1.0000000180025095e-35 0.61856499682357047 -0.23927202054927407 -0.090498683900401194 -0.46113725873926387 -0.46646390518270142 -0.27374684055997162 0.15582802062605725 1.0000000180025095e-35 -0.23521796953245364 0.26403315646158459 -0.20551237645192386 1.0000000180025095e-35 0.067759061729392486 1.0000000180025095e-35 -0.41735445075344796
decision_type=2 2 2 2 2 2 2 2 2 2 2 2 2 2 2 2 2 2 2 2 2 2 2 2 2 2 2 2 2 2 2 2 2 2 2 2 2 2 2 2 2 2 2 2 2 2 2 2 2 2 2 2 2 2 2 2 2 2 2 2 2 2
left_child=2 4 16 5 27 12 10 22 15 21 35 23 14 19 -4 28 25 18 58 20 -9 43 -3 32 45 -1 31 39 29 -5 -25 -23 40 -17 -27 42 37 60 56 54 41 -7 -6 -8 -20 49 -41 -39 -26 -16 -37 -15 -50 61 -2 -14 -19 59 -12 -38 -29 -34
right_child=1 7 3 8 6 11 9 13 -10 -11 17 -13 55 51 24 33 -18 38 44 -21 -22 26 -24 30 48 34 -28 36 -30 -31 -32 -33 53 -35 -36 50 57 47 -40 46 -42 -43 -44 -45 -46 -47 -48 -49 52 -51 -52 -53 -54 -55 -56 -57 -58 -59 -60 -61 -62 -63
leaf_value=-0.62402091722864717 -0.64036892560320224 -0.61751139904842833 -0.60068103083828706 -0.61943207541177414 -0.61133504507925518 -0.55645163518860818 -0.60432483070068965 -0.57810786738674358 -0.56996590819598281 -0.58578398077584848 -0.65845700415280928 -0.58777335218437643 -0.60404186598187048 -0.56063012454591599 -0.57973944035012781 -0.6028099135161975 -0.61254651117530901 -0.66194403577844352 -0.62648020000453608 -0.57047291448769533 -0.6109702213267032 -0.6268933495578628 -0.58959322616538412 -0.57783014599267557 -0.57168141515661464 -0.6373843514038422 -0.6176008075986178 -0.66278756877563783 -0.63045744478447641 -0.59375319158311213 -0.5589541334760999 -0.65064674612914875 -0.54489592358833128 -0.58220710130980891 -0.65919615322834668 -0.63730008329218657 -0.66280046356061284 -0.63394659630660555 -0.64411423472115759 -0.64399480331337455 -0.55104201986417178 -0.57317374609131444 -0.62529181641221743 -0.61912755063195768 -0.61177485224026129 -0.58769187443808635 -0.65939694614120192 -0.6480506477548813 -0.55835802501024145 -0.57049294839128928 -0.62692046160532378 -0.5688264118370765 -0.5648333622275381 -0.55043919354848447 -0.634417868222373 -0.59840407077060642 -0.65696934506037896 -0.65959116196406453 -0.65435938803386584 -0.66619935064925662 -0.66577744224059976 -0.54720594948157553
leaf_weight=197.48155649006367 145.77275747060776 261.51828253269196 167.26283496618271 199.43309870362282 229.18517826497555 300.85143259167671 198.73023697733879 232.81838315725327 188.10181246697903 173.57179917395115 146.29318106174469 211.15491850674152 146.06451663374901 209.93163318932056 239.51182124018669 182.57260476052761 237.92313539981842 168.05665363371372 216.38129617273808 208.19469323754311 246.75055383145809 165.15196776390076 153.23742532730103 238.19353918731213 171.44686980545521 173.66627165675163 221.3290054500103 156.59267109632492 170.13535670936108 143.97175139188766 343.44483168423176 156.69469891488552 201.86990909278393 153.73473577201366 125.12175354361534 130.35568654537201 180.35417430102825 157.08295045793056 153.90610302984715 146.72792102396488 246.67418330907822 175.24792641401291 209.36947023868561 181.71569135785103 161.633619338274 163.30623103678226 122.19896571338177 143.23092797398567 214.1852695941925 189.66158759593964 206.88669568300247 274.55864651501179 180.51402354240417 327.87397120893002 132.38412353396416 146.28992764651775 159.71046358346939 129.89229799807072 150.92601802945137 134.89176900684834 121.26164199411869 209.77432809770107
leaf_count=729 575 939 557 722 801 796 673 694 537 538 618 661 494 569 720 614 836 719 807 596 861 617 484 709 494 677 795 672 645 464 922 643 498 468 530 508 774 604 616 587 632 509 777 657 566 511 518 582 573 543 773 779 501 837 510 482 671 551 628 586 526 525
internal_value=-0.623878 -0.623753 -0.582191 -0.575125 -0.636815 -0.568387 -0.628767 -0.585891 -0.600268 -0.616532 -0.635714 -0.559952 -0.580145 -0.578356 -0.5755 -0.606979 -0.629461 -0.643821 -0.636123 -0.58758 -0.595012 -0.622313 -0.607192 -0.557079 -0.571867 -0.637574 -0.62996 -0.652341 -0.615885 -0.608661 -0.566679 -0.638464 -0.553262 -0.593385 -0.646525 -0.623626 -0.656712 -0.651939 -0.654607 -0.644162 -0.558651 -0.562601 -0.618001 -0.611391 -0.620196 -0.578963 -0.651002 -0.64068 -0.564447 -0.575647 -0.630937 -0.565269 -0.561312 -0.547999 -0.637543 -0.601214 -0.659527 -0.662905 -0.656384 -0.664263 -0.664102 -0.546064
internal_weight=0 6187.3 5645.47 4911.28 4600.29 3873.33 3029.9 1587.01 1037.95 1097.19 1932.7 2255.09 1618.24 1172.25 1325.89 849.848 734.193 1156.91 675.234 687.764 479.569 923.622 414.756 2043.93 1158.63 496.27 543.176 1570.39 513.54 343.405 581.638 321.847 1462.29 336.307 298.788 775.797 1023.31 578.168 481.673 547.084 722.774 476.099 438.555 380.446 378.015 592.48 268.927 300.314 566.146 429.173 337.242 484.49 394.699 739.518 278.157 292.354 327.767 445.138 297.219 315.246 277.854 411.644
internal_count=40000 22814 17186 14414 17892 10964 11407 4922 3450 3923 7484 6089 4875 3499 3899 2913 2772 4625 2619 2151 1555 3385 1423 5428 3342 1936 2055 6485 1831 1186 1631 1260 3797 1082 1207 2859 4295 2384 2006 2190 1937 1305 1578 1330 1373 1774 1105 1186 1568 1263 1281 1348 1074 1860 1085 976 1390 1911 1246 1360 1198 1023
shrinkage=1


Tree=1
num_leaves=63
num_cat=0
split_feature=7 9 7 11 13 3 4 13 9 2 0 3 5 4 5 4 4 5 5 2 0 0 4 8 0 4 0 0 8 3 4 5 4 5 3 8 5 5 0 5 5 8 9 3 3 6 8 1 6 5 6 0 6 3 8 6 1 0 1 6 8 2
split_gain=5234.43 3175.31 1922.91 837.702 609.669 382.895 270.048 258.408 214.442 200.974 200.025 179.378 159.91 141.798 122.16 105.728 105.608 102.339 230.835 88.1209 131.679 80.479 77.3408 73.7714 63.6433 60.7237 60.1343 59.9735 56.2533 56.7388 49.6554 48.0537 40.487 36.9258 35.9138 33.3678 32.5049 84.9453 26.6207 26.3278 22.1858 21.4644 21.1322 28.6546 20.8466 17.2484 16.8763 15.7767 14.408 12.5078 9.0525 7.67248 3.77579 3.04247 2.55547 2.29767 2.04654 2.01418 1.21539 0.797724 0.493342 0.196781
threshold=0.38305881959638605 1.0000000180025095e-35 -1.6187292025072715 1.0000000180025095e-35 1.0000000180025095e-35 -0.43171570548524069 1.0000000180025095e-35 1.0000000180025095e-35 1.0000000180025095e-35 -0.31458323369321833 -0.46646390518270142 1.2053719416282906 1.0420104322762469 1.0000000180025095e-35 -0.95738300620227357 1.0000000180025095e-35 1.0000000180025095e-35 1.0420104322762469 -1.5852248810883856 -0.31458323369321833 -0.46646390518270142 -0.46646390518270142 1.0000000180025095e-35 1.0000000180025095e-35 -0.46646390518270142 1.0000000180025095e-35 -0.46646390518270142 -0.20551237645192386 1.0000000180025095e-35 -0.33630262175776499 1.0000000180025095e-35 0.82240050608217763 1.0000000180025095e-35 0.77928690093978359 -0.43171570548524069 1.0000000180025095e-35 1.0420104322762469 -1.3346270511982208 -0.20551237645192386 0.77928690093978359 0.63108388326280429 1.0000000180025095e-35 1.0000000180025095e-35 0.045349713152137948 -0.25595476177673276 -0.52768712687770403 1.0000000180025095e-35 0.61856499682357047 -0.17217072603287872 -0.23927202054927407 -0.46113725873926387 -0.46646390518270142 -0.27374684055997162 0.15582802062605725 1.0000000180025095e-35 -0.23521796953245364 0.26403315646158459 -0.20551237645192386 1.0000000180025095e-35 0.067759061729392486 1.0000000180025095e-35 -0.13371940841881397
decision_type=2 2 2 2 2 2 2 2 2 2 2 2 2 2 2 2 2 2 2 2 2 2 2 2 2 2 2 2 2 2 2 2 2 2 2 2 2 2 2 2 2 2 2 2 2 2 2 2 2 2 2 2 2 2 2 2 2 2 2 2 2 2
left_child=2 4 16 5 26 12 10 22 15 21 35 23 14 19 -4 28 24 18 58 20 -9 41 -3 32 -1 45 39 31 29 -5 -25 -23 42 -26 -17 40 37 60 56 54 -6 -8 43 -7 -20 -16 -41 -39 -47 -27 -37 -15 -51 61 -2 -14 -19 59 -12 -38 -28 -34
right_child=1 7 3 8 6 11 9 13 -10 -11 17 -13 55 51 25 34 -18 38 44 -21 -22 27 -24 30 33 49 36 -29 -30 -31 -32 -33 53 -35 -36 50 57 47 -40 46 -42 -43 -44 -45 -46 48 -48 -49 -50 52 -52 -53 -54 -55 -56 -57 -58 -59 -60 -61 -62 -63
leaf_value=-0.00013874340710819433 -0.016078538627047723 0.0061635192531542772 0.022344251836499057 0.0043066010296837903 0.012120308354935758 0.066443294333423233 0.018854752970316521 0.043799040905549619 0.051471366049286142 0.036534085972738051 -0.033908939781600068 0.034646095602318426 0.019126038613421461 0.060226959911831218 0.035631379277125487 0.020306424281717628 0.010953649233249381 -0.03737048394458968 -0.0025262717502775632 0.050994569164564414 0.012471467284350671 -0.0029277241756328972 0.032917207215219228 0.044061301122344944 -0.013156285507702056 0.049857695182022724 -0.038209064021064179 0.0060771322183293232 -0.0063951631399244606 0.028958332798778713 0.061794028309988328 -0.026184356041062028 0.074903471990969875 -0.034642048738672028 0.039923325707374058 -0.013073878446857253 -0.038221870157423697 -0.0097971458203935102 -0.019753468789288114 -0.019636150264956471 -0.0013721093018575143 0.0046011619840311876 0.06917418791880825 0.051713867919983718 0.0116968847168903 0.051429476664089972 -0.034841260108529247 -0.023625413779614971 0.039894505953487452 0.062351267732713357 -0.0029540684088847006 0.052542293833416777 0.056290410193660122 0.069735130210700214 -0.010257221830593667 0.024521032114309883 -0.032434551154085306 -0.035033958815166522 -0.029851370365488766 -0.041605587384905489 -0.04118516808120358 0.072647765478565926
leaf_weight=197.47301942110062 145.03915160894394 262.0195107460022 168.41884571313858 199.70032981038094 230.04731516540051 219.19880747795105 199.89060771465302 235.94820636510849 191.0646406263113 175.52341324090958 144.73322635889053 213.40796986222267 146.92956405878067 213.78716431558132 195.52636237442493 183.72014316916466 238.73228931427002 166.08001621067524 216.2108713388443 211.44423815608025 247.70555260777473 165.00120118260384 154.79186654090881 241.41447287797928 172.95171576738358 174.06435579061508 154.70915675163269 221.74726635217667 169.795743227005 145.25836956501007 349.91237358748913 155.40699894726276 213.78323169052601 123.75846713781357 155.62129129469395 129.82270336151123 178.18412032723427 156.60210959613323 152.95357258617878 145.82524438202381 209.27993941307068 181.97581163048744 251.85803329944611 265.37614700198174 162.22047904133797 233.01934993267059 120.85979831218719 142.16961252689362 171.74778234958649 218.25410276651382 206.69613155722618 278.97138649225235 183.61755877733231 334.81844303011894 131.95980021357536 147.39865534007549 158.08209103345871 128.46087887883186 149.51068341732025 133.12360753118992 119.68836265802383 207.0708310008049
leaf_count=729 575 939 557 722 801 561 673 694 537 538 618 661 494 569 600 614 836 719 807 596 861 617 484 709 677 494 672 795 645 464 922 643 516 530 468 508 774 604 616 587 777 657 632 744 566 658 518 582 516 573 773 779 501 837 510 482 671 551 628 586 526 507
internal_value=0 0.000116473 0.039941 0.0466168 -0.0126027 0.052957 -0.00475214 0.036434 0.0227391 0.00710865 -0.0115254 0.0608631 0.0418757 0.043566 0.0462609 0.0163085 -0.00542673 -0.0194677 -0.0119258 0.0348309 0.027759 0.00151667 0.016104 0.0635474 -0.0133428 0.0496836 -0.0278585 -0.00591196 0.00773405 0.0146927 0.0545593 -0.0142135 0.0671074 -0.0221252 0.0293094 0.000243444 -0.0321809 -0.0274619 -0.0300967 -0.0198016 0.00569015 0.0120668 0.062078 0.0583831 0.00356744 0.0429921 -0.0265352 -0.0163835 0.0465416 0.0566533 -0.00686301 0.0558824 0.0595896 0.0720045 -0.0133117 0.0218346 -0.0349707 -0.0383262 -0.031855 -0.0396769 -0.0395163 0.0738018
internal_weight=0 6186.47 5713.89 4980.98 4581.8 3935.82 3025.18 1604.67 1045.16 1099.55 1925.64 2296.84 1638.98 1187.86 1344.65 854.096 732.915 1149.79 672.675 695.098 483.654 924.022 416.811 2083.43 494.183 1176.23 1556.62 542.155 514.754 344.959 591.327 320.408 1492.11 296.71 339.341 775.846 1012.94 573.169 477.116 543.684 439.327 381.866 736.433 484.575 378.431 600.293 266.685 298.772 404.767 575.936 336.519 492.759 401.872 755.673 276.999 294.328 324.162 439.769 294.244 311.308 274.398 420.854
internal_count=40000 22814 17186 14414 17892 10964 11407 4922 3450 3923 7484 6089 4875 3499 3899 2913 2772 4625 2619 2151 1555 3385 1423 5428 1936 3342 6485 2055 1831 1186 1631 1260 3797 1207 1082 2859 4295 2384 2006 2190 1578 1330 1937 1305 1373 1774 1105 1186 1174 1568 1281 1348 1074 1860 1085 976 1390 1911 1246 1360 1198 1023
shrinkage=0.03


Tree=2
num_leaves=61
num_cat=0
split_feature=7 9 7 11 13 5 4 13 3 9 0 2 4 3 5 4 5 5 4 2 0 0 4 0 0 5 5 8 8 3 8 4 4 5 3 3 8 4 0 5 7 5 8 3 4 8 5 5 5 9 6 0 6 8 3 6 6 6 1 1
split_gain=4846.67 2968.68 1770.11 763.463 582.174 353.495 254.884 236.966 212.114 196.914 190.149 186.695 128.861 128.608 111.429 99.6356 98.2415 220.097 97.9801 80.4519 121.083 75.5611 71.6384 60.5858 58.1397 57.1885 169.408 55.4726 52.682 52.6548 48.2334 44.09 40.3884 35.57 32.974 32.0338 31.4066 29.9803 25.7793 25.2694 22.2148 20.7726 19.9851 19.5401 19.3312 16.3209 16.3152 51.2764 12.749 9.21428 8.57943 6.92217 3.75279 2.43465 2.23528 2.0202 1.78304 4.73144 1.18139 0.27567
threshold=0.38305881959638605 1.0000000180025095e-35 -1.6187292025072715 1.0000000180025095e-35 1.0000000180025095e-35 1.0420104322762469 1.0000000180025095e-35 1.0000000180025095e-35 -0.43171570548524069 1.0000000180025095e-35 -0.46646390518270142 -0.31458323369321833 1.0000000180025095e-35 0.79358915922550055 -0.95738300620227357 1.0000000180025095e-35 1.0420104322762469 -1.5852248810883856 1.0000000180025095e-35 -0.31458323369321833 -0.46646390518270142 -0.46646390518270142 1.0000000180025095e-35 -0.46646390518270142 -0.46646390518270142 -0.90079639945288148 1.0420104322762469 1.0000000180025095e-35 1.0000000180025095e-35 -0.33630262175776499 1.0000000180025095e-35 1.0000000180025095e-35 1.0000000180025095e-35 0.77928690093978359 -0.43171570548524069 -0.2208025730350312 1.0000000180025095e-35 1.0000000180025095e-35 -0.20551237645192386 0.77928690093978359 1.0000000180025095e-35 0.63108388326280429 1.0000000180025095e-35 -0.25595476177673276 1.0000000180025095e-35 1.0000000180025095e-35 0.77928690093978359 -1.2969026466986258 -0.25813422279907139 1.0000000180025095e-35 -0.46113725873926387 -0.46646390518270142 -0.35605851957330564 1.0000000180025095e-35 -0.024954664331265208 0.4583017089628707 0.1308063052289675 -0.46113725873926387 1.0000000180025095e-35 1.0000000180025095e-35
decision_type=2 2 2 2 2 2 2 2 2 2 2 2 2 2 2 2 2 2 2 2 2 2 2 2 2 2 2 2 2 2 2 2 2 2 2 2 2 2 2 2 2 2 2 2 2 2 2 2 2 2 2 2 2 2 2 2 2 2 2 2
left_child=2 4 15 5 24 8 10 22 14 18 36 21 19 30 -4 23 17 58 28 20 -9 42 -3 -1 39 -23 -27 31 29 -5 44 48 -7 -25 -20 46 41 -32 55 53 -15 -6 -8 -19 49 -41 47 59 -16 -10 -38 -14 -33 -2 -46 -18 57 -48 -12 -26
right_child=1 7 3 9 6 32 11 12 13 -11 16 -13 51 40 27 -17 38 43 34 -21 -22 25 -24 33 35 26 -28 -29 -30 -31 37 52 -34 -35 -36 -37 50 -39 -40 45 -42 -43 -44 -45 54 -47 56 -49 -50 -51 -52 -53 -54 -55 -56 -57 -58 -59 -60 -61
leaf_value=-0.00013458686442354456 -0.015676240317295906 0.0059674968681070967 0.021533601599413595 0.0041719562897551089 0.011714321101643764 0.015258265418988332 0.018188286129696526 0.04197588898841334 0.059366011761426349 0.049239087032642619 -0.033262368788334169 0.035076718960990204 0.057501427703832063 0.036320958467214511 0.037900050065830422 0.010590327350500363 -0.032544506353571923 -0.0024524030265123155 0.019580722998097336 0.048788339318286064 0.012052489097274448 -0.022715096482221246 0.031633511461001962 -0.012814833777902908 -0.038521668071913914 0.022331518431065844 -0.016818058910446826 0.035454191486802282 -0.0062157005202300572 0.027857948363446076 0.045538692794555663 0.061270173198942887 0.034321328249271234 -0.03399033898705757 0.038298129266477236 -0.019952646940650416 -0.012734243059143013 0.0605497196182785 -0.019282705336762931 -0.019167436862715142 0.050903808934637737 -0.001331515571651256 0.0044569192929673805 0.011306489831495702 0.071307609186912133 -0.034188221837045077 -0.040596320016649805 -0.01897539758882252 0.048259948933502203 0.067211699912791675 -0.0028680758338008499 0.050251031228453542 0.055440584357366492 -0.0099816679898953597 0.067580142309357633 -0.037750335611780116 -0.040968937986175978 -0.031975857012548556 -0.029240514341318968 -0.041207193100530067
leaf_weight=197.46474306285381 144.3103643655777 262.50104704499245 169.50047039985657 199.95781299471855 230.86774469912052 218.11005643010139 200.98268690705299 238.76694792509079 440.49701231718063 193.6943640857935 143.14492499828339 177.30465169250965 217.15060779452324 194.64776542782784 161.80765691399574 239.50376486778259 211.82578258216381 216.0449083596468 184.79752664268017 214.33110249042511 248.61383853852749 134.34434698522091 156.21983790397644 172.24484118819237 115.43906070291996 173.26899728178978 233.4996038377285 266.11151629686356 169.46309633553028 146.44858002662659 197.14563095569611 190.86833240091801 185.4896896481514 122.36904838681221 157.33256758749485 177.17344023287296 129.29551839828491 311.80465753376484 152.00235392153263 144.92394724488258 184.87938347458839 209.19290900230408 182.22632986307144 162.77933913469315 287.77650465071201 119.49460387229919 130.33164894580841 202.35278435051441 330.08516710996628 203.61235462129116 206.51043030619621 282.87988595664501 242.99618841707706 131.5418156683445 405.24201044440269 108.65983745455742 160.16603408753872 108.3738025277853 148.07744833827019 108.51613827049732
leaf_count=729 575 939 557 722 801 733 673 694 1143 537 618 538 569 582 481 836 913 807 614 596 861 543 484 677 510 578 934 795 645 464 562 490 568 530 468 724 508 801 616 587 509 777 657 566 682 518 579 817 928 498 773 779 648 510 987 477 714 467 628 484
internal_value=0 0.000109065 0.0383316 0.0446587 -0.012279 0.0506518 -0.00461948 0.0349899 0.0536472 0.0219163 -0.0112241 0.00688074 0.0417623 0.0593555 0.0443131 -0.00527496 -0.0190072 -0.0116158 0.0157452 0.0334617 0.0267163 0.00146974 0.015548 -0.0129999 -0.0272729 -0.0057467 -0.000137914 0.0475509 0.00748475 0.014191 0.0626277 0.0510255 0.0240246 -0.0216173 0.0281946 -0.0315513 0.000235627 0.0547407 -0.0294848 -0.0193315 0.0434316 0.00550983 0.0116631 0.00345646 0.0656276 -0.0259637 -0.0340391 -0.0299384 0.0448573 0.0618511 -0.00667174 0.0534055 0.0580122 -0.0129671 0.0691328 -0.034317 -0.038416 -0.0366926 -0.0312252 -0.0398341
internal_weight=0 6183.11 5773.85 5042.27 4562.65 3990.57 3020.03 1620.46 3586.97 1051.69 1918.4 1101.63 1201.74 2225.61 1361.37 731.582 1142.53 670.047 858 701.712 487.381 924.322 418.721 492.079 1542.62 541.113 406.769 1191.87 515.869 346.406 1846.08 925.757 403.6 294.614 342.13 1002.35 775.867 508.95 472.488 540.271 379.527 440.061 383.209 378.824 1337.13 264.419 825.179 426.308 491.893 644.109 335.806 500.03 433.865 275.852 693.019 320.486 398.871 238.705 291.222 223.955
internal_count=40000 22814 17186 14414 17892 10964 11407 4922 9663 3450 7484 3923 3499 5764 3899 2772 4625 2619 2913 2151 1555 3385 1423 1936 6485 2055 1512 3342 1831 1186 4673 2547 1301 1207 1082 4295 2859 1363 2006 2190 1091 1578 1330 1373 3310 1105 3571 1811 1409 1641 1281 1348 1138 1085 1669 1390 1760 1046 1246 994
shrinkage=0.03


Tree=3
num_leaves=62
num_cat=0
split_feature=7 9 7 11 13 5 4 13 3 9 0 2 4 3 5 5 5 4 4 2 0 0 4 0 0 0 4 8 3 5 8 4 5 3 6 6 3 4 0 5 3 8 3 4 1 5 5 8 5 5 1 9 5 6 8 1 3 6 6 1 1
split_gain=4496.47 2778.18 1633.94 699.168 556.014 323.234 240.591 218.072 193.343 181.404 180.798 173.648 117.77 117.055 102.115 94.3386 209.917 94.0097 90.9204 73.7694 111.651 70.9632 66.4531 57.6838 56.26 55.1023 51.5479 49.3545 48.9214 44.6716 43.8915 37.2558 34.2897 31.0806 30.5661 36.9322 30.3664 27.3305 24.9921 24.2655 21.707 18.6207 18.3191 17.6184 16.6235 15.9348 49.8358 15.8003 13.8194 11.2998 8.66213 8.39195 6.65938 3.2843 2.31965 2.03421 2.01793 1.75192 4.62784 1.15024 0.271317
threshold=0.38305881959638605 1.0000000180025095e-35 -1.6187292025072715 1.0000000180025095e-35 1.0000000180025095e-35 1.0420104322762469 1.0000000180025095e-35 1.0000000180025095e-35 -0.43171570548524069 1.0000000180025095e-35 -0.46646390518270142 -0.31458323369321833 1.0000000180025095e-35 0.79358915922550055 -0.95738300620227357 1.0420104322762469 -1.5852248810883856 1.0000000180025095e-35 1.0000000180025095e-35 -0.31458323369321833 -0.46646390518270142 -0.46646390518270142 1.0000000180025095e-35 -0.46646390518270142 -0.46646390518270142 -0.20551237645192386 1.0000000180025095e-35 1.0000000180025095e-35 -0.33630262175776499 0.82240050608217763 1.0000000180025095e-35 1.0000000180025095e-35 0.77928690093978359 -0.2208025730350312 -0.65728423851571915 0.55287257421223301 -0.43171570548524069 1.0000000180025095e-35 -0.20551237645192386 0.77928690093978359 1.2053719416282906 1.0000000180025095e-35 -0.25595476177673276 1.0000000180025095e-35 0.61856499682357047 0.77928690093978359 -1.2969026466986258 1.0000000180025095e-35 1.0420104322762469 -0.23927202054927407 -0.090498683900401194 1.0000000180025095e-35 1.0420104322762469 -0.28425471447656747 1.0000000180025095e-35 0.26403315646158459 -0.024954664331265208 0.1308063052289675 -0.46113725873926387 1.0000000180025095e-35 1.0000000180025095e-35
decision_type=2 2 2 2 2 2 2 2 2 2 2 2 2 2 2 2 2 2 2 2 2 2 2 2 2 2 2 2 2 2 2 2 2 2 2 2 2 2 2 2 2 2 2 2 2 2 2 2 2 2 2 2 2 2 2 2 2 2 2 2 2
left_child=2 4 17 5 24 8 10 22 14 18 34 21 19 30 -4 16 59 23 27 20 -9 41 -3 -1 39 29 44 28 -5 -23 43 -7 -25 45 -6 48 -20 -32 55 54 -15 -8 -18 51 50 46 60 -41 -36 -28 -16 -10 -14 -51 -2 -17 -45 58 -47 -12 -26
right_child=1 7 3 9 6 31 11 12 13 -11 15 -13 52 40 26 38 42 -19 36 -21 -22 25 -24 32 33 -27 49 -29 -30 -31 37 -33 -34 -35 35 -37 -38 -39 -40 47 -42 -43 -44 56 -46 57 -48 -49 -50 53 -52 -53 -54 -55 -56 -57 -58 -59 -60 -61 -62
leaf_value=-0.00013055632810082544 -0.015283786029820773 0.00577815056704571 0.020761841983648908 0.0040417249489615031 -0.011937344952219721 0.014738711465164015 0.017551563328441305 0.040283127815043167 0.056784538451438903 0.047187526307132945 -0.032637609120221379 0.033711215642586292 0.053820388534879554 0.048838900090793676 0.038759363872227351 -0.036105462361484549 -0.0023806505381965765 0.010240709422516366 0.018888404310235554 0.046759391929921311 0.01164984135211683 -0.002738247937622756 0.030425537669093981 -0.012481848035053329 -0.037875775399127905 0.0058714981164336962 0.045538773386400888 -0.0060410457824458356 0.026817778707650612 -0.025253907753101427 0.04366478046377905 0.032986199340031205 -0.033361252108544757 -0.019484252466912079 0.011799260234212785 -0.0091194218970078473 0.03678169794895466 0.057910967854902781 -0.01882355214128232 -0.018710269236841923 0.034507254567636161 0.0043174263483848688 0.010931059030384839 0.068100919659754997 0.03142213880776068 -0.039942398626990588 -0.018520624315859428 -0.033558028330916791 0.0012508334367042561 0.057273729852435756 0.047275579239190207 0.064221818179766577 0.046567351317405796 0.051704518072797759 -0.0097131235618605379 -0.031133986075985401 0.064576409839804561 -0.040318433779609551 -0.031364082934888356 -0.028647634539131824 -0.040555831239945675
leaf_weight=197.45670931041241 143.58726096153259 262.96376931667328 170.51232916116714 200.20595425367355 149.8886950314045 219.01162442564964 202.01055437326431 241.29751312732697 446.61042205989361 196.01645694673061 141.53353536128998 178.92753867805004 319.10718336701393 191.62539546191692 248.15425615012646 162.14283262193203 215.88332958519459 240.23948180675507 185.80902986228466 216.88296857476234 249.47788988053799 164.65509966015816 157.53002941608429 171.54622411727905 113.90907840430737 222.15480449795723 178.66024339199066 169.13742385804653 147.54879587888718 153.25988809764385 199.40354669094086 187.18203416466713 120.95821759104729 176.00815559923649 272.82208929955959 163.25339445471764 158.88119918107986 316.16350288689137 151.05398614704609 144.02549658715725 191.98865783214569 182.4676428437233 163.31165799498558 292.21721510589123 168.82833448052406 128.51933631300926 201.12144188582897 118.10805621743202 189.89687851071358 219.10509647428989 196.9705552905798 206.6514555811882 187.27667759358883 194.00384007394314 131.13034442067146 154.60930314660072 411.27339200675488 157.90240795910358 107.19159008562565 146.63037359714508 106.97501464188099
leaf_count=729 575 939 557 722 583 733 673 694 1143 537 618 538 837 517 720 719 807 836 614 596 861 617 484 677 510 795 494 645 464 643 562 568 530 724 952 624 468 801 616 587 574 657 566 682 511 579 817 518 700 559 543 498 511 515 510 671 987 714 467 628 484
internal_value=0 0.000102169 0.0368404 0.0428543 -0.0119652 0.0485413 -0.00449123 0.0336424 0.0513799 0.0211371 -0.0109317 0.00666123 0.040092 0.0567886 0.042512 -0.0185602 -0.0113151 -0.00512782 0.0152075 0.0321802 0.0257322 0.00142388 0.0150166 -0.0126664 -0.0267044 -0.00558698 0.0455862 0.0072449 0.0137108 -0.0135982 0.0598842 0.0231526 -0.0211232 -0.0309418 0.000228075 0.00314371 0.0271425 0.0524064 -0.0288915 -0.0188735 0.041673 0.0112752 0.00334915 0.0627236 0.039482 -0.0334119 -0.0293419 -0.0254083 0.0074736 0.0519146 0.0425337 0.059142 0.0511435 0.0546654 -0.0126311 -0.0336862 0.0660451 -0.0377695 -0.0360514 -0.0306152 -0.039185
internal_weight=0 6177.52 5826.16 5095.96 4542.98 4038.36 3014.5 1634.54 3632.17 1057.6 1911.03 1103.48 1214.04 2255.93 1376.23 1135.17 667.359 730.201 861.582 707.658 490.775 924.548 420.494 489.961 1528.48 540.07 1205.72 516.892 347.755 317.915 1872.32 406.194 292.504 991.627 775.861 625.972 344.69 515.567 467.806 536.851 383.614 384.478 379.195 1356.75 613.953 815.619 422.006 262.134 462.719 591.769 445.125 653.262 506.384 413.109 274.718 316.752 703.491 393.613 235.711 288.164 220.884
internal_count=40000 22814 17186 14414 17892 10964 11407 4922 9663 3450 7484 3923 3499 5764 3899 4625 2619 2772 2913 2151 1555 3385 1423 1936 6485 2055 3342 1831 1186 1260 4673 1301 1207 4295 2859 2276 1082 1363 2006 2190 1091 1330 1373 3310 1774 3571 1811 1105 1652 1568 1263 1641 1348 1074 1085 1390 1669 1760 1046 1246 994
shrinkage=0.03


Tree=4
num_leaves=60
num_cat=0
split_feature=7 9 7 11 13 5 4 13 5 0 9 2 3 4 5 5 13 4 0 8 2 0 0 4 5 5 0 8 4 8 3 4 4 4 5 5 8 3 3 0 5 5 6 8 1 8 5 6 0 6 6 9 8 1 0 5 1 6 8
split_gain=4179.21 2602.14 1512.08 643.182 531.146 297.165 227.132 201.321 178.8 171.942 167.606 161.688 126.317 108.17 90.6177 200.257 89.4077 84.4727 71.7987 69.4268 67.9077 103.214 66.6493 61.7255 55.3073 155.206 54.4913 53.0321 47.4223 46.252 45.5012 39.4289 34.44 33.8541 30.3504 79.0216 29.7654 28.5934 28.0421 24.2539 23.3116 18.6455 17.7081 17.3605 15.3168 15.3105 13.7295 7.84544 6.41948 5.02153 4.93734 3.17147 2.21013 1.99017 1.97764 1.29767 1.12158 0.746295 0.518094
threshold=0.38305881959638605 1.0000000180025095e-35 -1.6187292025072715 1.0000000180025095e-35 1.0000000180025095e-35 1.0420104322762469 1.0000000180025095e-35 1.0000000180025095e-35 -1.0894184219508549 -0.46646390518270142 1.0000000180025095e-35 -0.31458323369321833 -0.43171570548524069 1.0000000180025095e-35 1.0420104322762469 -1.5852248810883856 1.0000000180025095e-35 1.0000000180025095e-35 -0.46646390518270142 1.0000000180025095e-35 -0.31458323369321833 -0.46646390518270142 -0.46646390518270142 1.0000000180025095e-35 -0.90079639945288148 1.0420104322762469 -0.46646390518270142 1.0000000180025095e-35 1.0000000180025095e-35 1.0000000180025095e-35 -0.33630262175776499 1.0000000180025095e-35 1.0000000180025095e-35 1.0000000180025095e-35 1.0420104322762469 -1.3346270511982208 1.0000000180025095e-35 0.50232816679425862 -0.43171570548524069 -0.20551237645192386 0.77928690093978359 0.63108388326280429 -0.44187282322550486 1.0000000180025095e-35 0.61856499682357047 1.0000000180025095e-35 -0.28508022601306765 -0.46113725873926387 -0.46646390518270142 -0.45238069714210066 -0.20719697242153148 1.0000000180025095e-35 1.0000000180025095e-35 0.26403315646158459 -0.20551237645192386 0.10563682058987771 1.0000000180025095e-35 0.067759061729392486 1.0000000180025095e-35
decision_type=2 2 2 2 2 2 2 2 2 2 2 2 2 2 2 2 2 2 2 2 2 2 2 2 2 2 2 2 2 2 2 2 2 2 2 2 2 2 2 2 2 2 2 2 2 2 2 2 2 2 2 2 2 2 2 2 2 2 2
left_child=2 4 16 5 26 8 9 23 -4 36 17 22 27 20 15 56 55 29 -18 33 21 -9 43 -3 -24 -26 40 31 -21 30 -5 46 -7 37 35 58 41 -14 -19 53 52 -6 -17 -8 -37 -42 -10 -38 -15 -20 -33 -35 -2 -16 57 -1 -11 -36 -28
right_child=1 7 3 10 6 32 11 13 12 14 -12 -13 19 48 39 42 18 38 49 28 -22 -23 24 -25 25 -27 34 -29 -30 -31 -32 50 -34 51 54 44 47 -39 -40 -41 45 -43 -44 -45 -46 -47 -48 -49 -50 -51 -52 -53 -54 -55 -56 -57 -58 -59 -60
leaf_value=-0.01769606973087284 -0.014900860389074589 0.0055952167054520814 0.024688964421981603 0.0039157389618667852 0.011202669996458421 0.014240362642499789 0.016942690336460061 0.038705967798268112 0.03454695321476603 -0.032033045680575099 0.04529375850111797 0.032428407852381276 0.05803083405535138 0.052961378093140707 -0.035486370898560798 -0.0049377380047711666 0.015166628920683416 0.018227245247853161 -0.012349722367809197 0.037337173636601939 0.044885389845682654 0.011262696031162849 -0.022185906982134039 0.02928627630474874 0.021432035438999183 -0.016046403423783408 -0.036308428627751965 0.032109162664744118 0.05418000927488828 -0.0058710800002003899 0.025832720555199647 0.056044218606565104 0.031731066320429151 0.061622681066164788 -0.036350852187282172 -0.0084917133830039165 -0.012332179017323495 0.045050781343011673 0.035362501471259897 -0.018375534880599561 -0.018264191086353854 -0.0011499923219778635 0.0083744416755307718 0.0041825122599427455 -0.022237400365676153 -0.032948956487232228 0.044803670369216321 -0.0028825827462309788 0.04606536757453001 -0.0041345966006621493 0.049581885991868732 0.065700603560774645 -0.0094514112782259681 -0.030539657512844869 -0.03310535789517971 -0.022234532301975533 -0.028071536303500639 -0.03969113381840482 -0.039375621441224279
leaf_weight=118.91144274175167 142.8706197142601 263.40851286053658 247.95473350584507 200.44511914253235 231.88433519005775 219.86347962915897 202.97802031040192 243.56118273735046 183.35556136071682 139.90388399362564 198.05452314019203 180.40326857566833 553.22235561907291 222.34910200536251 160.05461105704308 146.1317412853241 218.40786434710026 186.7586367726326 125.59354454278946 264.0656718313694 219.12546461820602 250.3000590056181 133.39718180894852 158.73055016994476 174.52933703362942 231.08305105566978 148.91451400518417 284.00511333346367 353.29369500279427 168.81866879761219 148.56501686573029 262.97137482464314 188.72533170878887 447.9177542924881 171.62590682506561 154.22332173585892 128.6586627215147 213.62883777916431 160.27891962230206 150.10990566015244 143.13123287260532 208.80075877904892 233.41310179233551 182.70013269782066 139.33090868592262 116.70444221794605 338.92790481448174 206.53850893676281 289.5533841997385 145.02463726699352 194.63621513545513 326.96655806899071 130.72555214166641 152.91591835021973 123.92350377142429 120.8393991291523 145.17320176959038 127.64510178565979 115.10175465047359
leaf_count=473 575 939 769 722 801 733 673 694 538 618 537 538 1361 569 719 547 749 614 498 757 596 861 543 484 578 934 672 835 895 645 464 662 568 1064 774 604 508 579 468 616 587 777 826 657 582 518 932 773 779 555 512 759 510 671 551 497 628 586 526
internal_value=0 9.58495e-05 0.0354549 0.0411862 -0.0116608 0.0466021 -0.00436684 0.032381 0.0493038 -0.0106474 0.0203978 0.0064506 0.0510862 0.0385391 -0.018126 -0.0110233 -0.0049851 0.0146937 0.00236993 0.0554988 0.0309773 0.0248013 0.00138009 0.0145081 -0.00543105 7.69769e-05 -0.0261524 0.043546 0.04698 0.00701401 0.0132506 0.0468584 0.0223243 0.0589082 -0.0303521 -0.0257429 0.00022074 0.0544185 0.0261474 -0.0283157 -0.0184272 0.005347 0.00324535 0.0109024 -0.0150221 -0.024868 0.0412076 -0.0065145 0.0490662 -0.00795326 0.0533018 0.0633475 -0.0123034 -0.0330768 -0.0364194 -0.0199917 -0.0300235 -0.0377838 -0.0376549
internal_weight=0 6169.9 5871.23 5142.46 4522.87 4079.53 3008.68 1647.03 3670.95 1903.58 1062.92 1105.09 3422.99 1224.89 1127.7 664.622 728.777 864.866 489.026 2159.09 712.987 493.861 924.688 422.139 539.01 405.612 1514.2 1263.9 617.359 517.829 349.01 979.891 408.589 1541.74 980.765 557.57 775.882 766.851 347.038 463.08 533.432 440.685 379.545 385.678 293.554 259.836 522.283 335.197 511.902 270.618 457.608 774.884 273.596 312.971 423.195 239.751 285.077 299.271 264.016
internal_count=40000 22814 17186 14414 17892 10964 11407 4922 9663 7484 3450 3923 8894 3499 4625 2619 2772 2913 1802 5415 2151 1555 3385 1423 2055 1512 6485 3479 1652 1831 1186 2644 1301 3763 4295 2384 2859 1940 1082 2006 2190 1578 1373 1330 1186 1105 1470 1281 1348 1053 1174 1823 1085 1390 1911 970 1246 1360 1198
shrinkage=0.03


Tree=5
num_leaves=63
num_cat=0
split_feature=7 9 7 11 13 3 4 13 0 9 2 3 5 4 5 4 5 5 5 5 2 0 0 4 4 0 0 8 5 5 8 4 4 5 3 4 2 3 0 5 6 6 9 3 1 8 5 5 8 5 5 6 5 8 3 6 6 6 6 1 1 6
split_gain=3890.28 2439.21 1402.62 593.955 507.481 274.669 214.44 186.401 163.534 155.27 150.707 134.49 117.939 99.818 89.3434 88.2501 87.0722 191.087 82.3087 74.7887 62.7338 95.6353 62.6144 57.4047 55.1475 52.8294 52.7422 52.7022 52.4947 145.855 46.3198 35.5216 34.2128 33.117 29.9959 28.7079 28.4209 24.9829 23.5589 22.4035 21.7781 28.2301 17.7966 23.8361 17.6086 16.1952 15.175 47.029 14.8482 11.0663 6.11827 2.98374 2.85718 2.10579 2.06986 2.0422 1.91937 1.72489 4.61193 1.09511 0.277701 0.20425
threshold=0.38305881959638605 1.0000000180025095e-35 -1.6187292025072715 1.0000000180025095e-35 1.0000000180025095e-35 -0.43171570548524069 1.0000000180025095e-35 1.0000000180025095e-35 -0.46646390518270142 1.0000000180025095e-35 -0.31458323369321833 1.2053719416282906 1.0420104322762469 1.0000000180025095e-35 -0.95738300620227357 1.0000000180025095e-35 1.0420104322762469 -1.5852248810883856 0.80353830383238012 -0.73238387936540505 -0.31458323369321833 -0.46646390518270142 -0.46646390518270142 1.0000000180025095e-35 1.0000000180025095e-35 -0.46646390518270142 -0.46646390518270142 1.0000000180025095e-35 -0.90079639945288148 1.0420104322762469 1.0000000180025095e-35 1.0000000180025095e-35 1.0000000180025095e-35 0.77928690093978359 -0.2208025730350312 1.0000000180025095e-35 -0.26936727737461724 -0.41665048173879721 -0.20551237645192386 0.77928690093978359 -0.55220549934976093 0.58089357132315522 1.0000000180025095e-35 0.035306230654508913 0.61856499682357047 1.0000000180025095e-35 0.77928690093978359 -1.2969026466986258 1.0000000180025095e-35 0.16087612717857011 1.0420104322762469 -0.35605851957330564 0.71731109354759237 1.0000000180025095e-35 0.15582802062605725 0.4583017089628707 -0.23521796953245364 0.1308063052289675 -0.46113725873926387 1.0000000180025095e-35 1.0000000180025095e-35 -0.41735445075344796
decision_type=2 2 2 2 2 2 2 2 2 2 2 2 2 2 2 2 2 2 2 2 2 2 2 2 2 2 2 2 2 2 2 2 2 2 2 2 2 2 2 2 2 2 2 2 2 2 2 2 2 2 2 2 2 2 2 2 2 2 2 2 2 2
left_child=2 4 15 5 25 12 8 23 36 18 22 27 14 20 -4 26 17 59 19 -5 21 -9 45 -3 37 39 -1 35 -24 -30 32 -29 49 -28 46 42 40 -21 55 53 -6 52 43 -7 -19 -8 47 60 -41 -16 -15 -34 -42 -2 61 -18 -14 58 -48 -10 -27 -37
right_child=1 7 3 9 6 11 10 13 16 -11 -12 -13 56 50 30 -17 38 44 -20 24 -22 -23 28 -25 -26 34 33 31 29 -31 -32 -33 51 -35 -36 54 -38 -39 -40 48 41 -43 -44 -45 -46 -47 57 -49 -50 -51 -52 -53 -54 -55 -56 -57 -58 -59 -60 -61 -62 -63
leaf_value=-0.00024324731986700323 -0.014527155303971306 0.0054184467862747809 0.019023571380011626 -0.00073199837544747246 -0.011766175704313184 0.056296569526702395 0.016359948386639216 0.03723182611918123 -0.031447204184516457 0.043538596141868433 0.031220373540851647 0.029024900684349927 0.016108664467606976 0.049689543048543366 0.036235964419593196 0.010009861945712897 -0.030678853084665593 0.0089046842838886517 -0.0066236732217391887 0.006577981060869471 0.043147603412842336 0.010890283394328305 -0.02167506890202494 0.028209598850465711 0.034175587589976575 -0.036656688021882808 -0.011854292416785697 0.037422885696000059 0.020661196838156815 -0.0156498615452456 0.031168103845926016 0.052098169772066584 0.054109989181246508 -0.032508623611317275 -0.01844691258400815 0.063003888039002184 0.011992164096634731 0.022958153693683807 -0.017938218366401786 -0.017828768028656829 0.0084977673109185442 -0.010257500396603085 0.058711448978509356 0.04317913806593026 -0.0040933945204161513 0.004052014899109866 -0.038780383231255537 -0.017711848946566858 -0.032359429333319222 0.045382450467546798 0.042808352725859582 0.04898915726995863 0.0027484427172095823 -0.0091963523312814602 0.058676279933622871 -0.035996035491635964 0.020977872168928907 -0.039129412085520232 -0.030110388791944505 -0.027511128777878549 -0.039374672698909194 0.060960085910251975
leaf_weight=197.66874125599861 142.16113838553429 263.83604970574379 172.71480549871922 147.81822444498539 169.56532579660416 227.86982807517052 203.88866502046585 245.57776194810867 138.26043409109116 199.83044551312923 181.74227695167065 221.45835883915424 150.42732614278793 325.71630807220936 307.03817296028137 240.71074226498604 204.45428089797497 211.65667729079723 142.61795210838318 156.92633701860905 221.08239442110062 251.08255690336227 132.45985579490662 159.82899129390717 239.89078910648823 110.76551023125648 170.20433017611504 251.32941940426826 175.59393885731697 229.84982863068581 273.07572560012341 367.78922878205776 197.70687362551689 118.93654341995716 173.30684362351894 218.00545936822891 148.97997097671032 180.61884512007236 149.17138963937759 142.24235016107559 168.76561087369919 142.46290639042854 264.93596512079239 281.08309805393219 168.24974146485329 182.92415463924408 124.98542447388172 198.85711874067783 115.28770758211613 199.41518445312977 190.91596834361553 251.2444471269846 146.0721991956234 130.32757544517517 353.01265136897564 104.69820240139961 151.30355198681355 153.3460550904274 104.61451694369316 143.70938590168953 103.89606453478336 226.46304343640804
leaf_count=729 575 939 557 532 662 554 673 694 618 537 538 661 494 837 873 836 913 746 529 561 596 861 543 484 708 510 677 709 578 934 795 922 490 530 724 498 520 583 616 587 593 549 632 751 627 657 579 817 518 536 511 648 535 510 837 477 482 714 467 628 484 525
internal_value=0 8.98976e-05 0.0341602 0.039636 -0.0113657 0.0448096 -0.00424653 0.0311972 -0.0103713 0.0196951 0.00624774 0.051324 0.0355814 0.0370909 0.039246 -0.00484515 -0.0177035 -0.0107393 0.0142022 0.0182995 0.0298454 0.0239192 0.00133735 0.0140211 0.0231736 -0.0256165 -0.0121935 0.0535774 -0.00528075 7.30268e-05 0.0420875 0.046145 0.045206 -0.0203575 -0.0297815 0.0565041 0.000213668 0.0153482 -0.0277563 -0.0179921 -0.00258378 0.000818484 0.0523664 0.0490576 0.00314466 0.0105438 -0.0322454 -0.0282404 -0.0243419 0.0398424 0.0471518 0.0512506 0.00583522 -0.0119838 0.0605156 -0.0324872 0.0185567 -0.0365642 -0.0348402 -0.029449 -0.0379836 0.0619696
internal_weight=0 6160.34 5910.1 5182.58 4502.3 4114.87 3002.5 1658.04 1896.05 1067.7 1106.46 2411.95 1702.93 1234.37 1401.2 727.52 1120.2 661.876 867.872 725.254 717.743 496.66 924.716 423.665 577.436 1499.79 486.81 2190.49 537.904 405.444 1228.48 619.119 955.405 289.141 969.772 1571.37 775.846 337.545 458.324 530.019 626.866 457.301 773.889 508.953 379.906 386.813 796.465 413.519 257.53 506.453 516.632 448.951 314.838 272.489 797.481 309.152 301.731 382.946 229.6 281.97 214.662 444.469
internal_count=40000 22814 17186 14414 17892 10964 11407 4922 7484 3450 3923 6089 4875 3499 3899 2772 4625 2619 2913 2384 2151 1555 3385 1423 1852 6485 1936 5428 2055 1512 3342 1631 2547 1207 4295 3797 2859 1144 2006 2190 2339 1677 1937 1305 1373 1330 3571 1811 1105 1409 1348 1138 1128 1085 1860 1390 976 1760 1046 1246 994 1023
shrinkage=0.03


Tree=6
num_leaves=58
num_cat=0
split_feature=7 9 7 11 13 5 4 11 4 0 8 2 5 4 2 0 13 5 5 9 0 1 4 5 5 3 4 3 0 0 4 3 8 6 0 8 5 5 3 3 5 4 5 5 8 6 6 6 9 3 8 1 6 6 5 1 1
split_gain=3626.82 2288.09 1303.55 550.837 484.918 258.405 202.471 173.107 157.211 155.561 145.309 140.602 128.268 104.821 94.3223 106.4 84.472 83.6831 182.373 77.7037 64.8373 62.0781 60.8585 60.2776 146.126 57.4221 57.1471 56.5615 53.8101 51.2466 31.6462 29.1907 28.1836 24.4037 22.9015 21.5984 21.5376 21.2367 17.3071 17.1642 16.8765 15.4637 14.8833 45.869 14.4105 7.12943 4.73338 3.02055 2.56961 4.77557 2.00633 1.99117 1.71224 4.57483 1.13815 1.07055 0.275674
threshold=0.38305881959638605 1.0000000180025095e-35 -1.6187292025072715 1.0000000180025095e-35 1.0000000180025095e-35 1.0420104322762469 1.0000000180025095e-35 1.0000000180025095e-35 1.0000000180025095e-35 -0.46646390518270142 1.0000000180025095e-35 -0.31458323369321833 -0.95738300620227357 1.0000000180025095e-35 -0.31458323369321833 -0.46646390518270142 1.0000000180025095e-35 1.0420104322762469 -1.5852248810883856 1.0000000180025095e-35 -0.46646390518270142 0.61856499682357047 1.0000000180025095e-35 -1.3346270511982208 1.0420104322762469 -0.43171570548524069 1.0000000180025095e-35 -0.33630262175776499 -0.46646390518270142 -0.46646390518270142 1.0000000180025095e-35 -0.2208025730350312 1.0000000180025095e-35 -0.61525274284933584 -0.20551237645192386 1.0000000180025095e-35 0.77928690093978359 -0.28508022601306765 -0.35136784550420846 -0.25595476177673276 0.63108388326280429 1.0000000180025095e-35 0.77928690093978359 -1.2969026466986258 1.0000000180025095e-35 -0.46113725873926387 -0.45238069714210066 -0.36656639348990144 1.0000000180025095e-35 -0.024954664331265208 1.0000000180025095e-35 0.26403315646158459 0.067759061729392486 -0.51542794064167563 0.10563682058987771 1.0000000180025095e-35 1.0000000180025095e-35
decision_type=2 2 2 2 2 2 2 2 2 2 2 2 2 2 2 2 2 2 2 2 2 2 2 2 2 2 2 2 2 2 2 2 2 2 2 2 2 2 2 2 2 2 2 2 2 2 2 2 2 2 2 2 2 2 2 2 2
left_child=2 4 16 5 29 8 9 14 12 32 13 23 -4 27 15 41 54 18 55 21 -18 33 -17 -8 -25 37 -9 -5 -26 36 -7 42 40 -14 51 48 50 -10 -12 -20 -6 -3 43 56 -38 -34 -22 -39 49 -27 -2 -19 53 -44 -1 -11 -31
right_child=1 7 3 10 6 30 11 26 25 17 38 -13 19 -15 -16 22 20 34 39 -21 46 -23 -24 24 28 35 -28 -29 -30 31 -32 -33 45 -35 -36 -37 44 47 -40 -41 -42 -43 52 -45 -46 -47 -48 -49 -50 -51 -52 -53 -54 -55 -56 -57 -58
leaf_value=-0.017220352860469357 -0.014162389057360746 0.035953031506174342 0.016674164566646166 0.0069210795829954515 0.010739468567807451 0.012913082432470671 -0.01279138890937029 0.0046185062725304354 0.037851611872102779 -0.030878738292595055 -0.0062766312620056251 0.030080176036475927 0.032192460813672621 0.039080998061575001 0.048545231726966731 0.010397160287046176 0.014519389662105945 -0.034355042096442627 -0.0025012193258435252 0.05433667653600343 -0.011739824068866766 0.025832761535317238 0.032614157419543231 0.022852579390809945 0.0056422008639686102 0.060409365637027444 0.027635655481282783 0.028279307025367056 -0.015262768006594728 -0.036083794455129291 0.029583378462460702 -0.018014164088412988 -0.011923746296141301 0.044287600664966509 -0.017511210192178238 0.049746858895900053 -0.017403606541272567 0.051816596821605498 0.0081155260564392678 0.010363021913583445 -0.0010061484803503191 0.047378354814299903 -0.038613522809739335 -0.017287421326931986 -0.031788019151541932 -0.0029007535159132304 -0.0037368304567045856 0.046546042109377274 0.060515762948095901 0.054185685141739236 -0.0089477762014945079 -0.029352621540632905 -0.038449377141778672 -0.029789929219743081 -0.021501044546767469 -0.026965426219031967 -0.038806342916466396
leaf_weight=118.1722114533186 141.4594438970089 249.76771999895573 199.29273580014706 246.33298474550247 232.78605249524117 222.01693841814995 210.91196495294571 258.7544329315424 253.49014003574848 136.60725384950638 141.27952954173088 182.95431199669838 185.09378060698509 319.59361027181149 362.67757177352905 253.40351170301437 219.59731204807758 155.96650402247906 216.15063858032227 367.81070916354656 124.54855562746525 268.52918480336666 197.80464041233063 270.20130135118961 214.88612139225006 209.79366052150726 155.54005268216133 204.36051933467388 228.6283206641674 109.17298990488052 191.18232396245003 172.164217248559 127.99902009963989 827.31020802259445 148.23960654437542 380.66936491429806 141.35995264351368 187.31890407204628 160.6294841915369 164.10373051464558 208.48351958394051 189.75567129254341 108.26809902489185 197.64639207720757 113.86147418618202 206.56981013715267 144.2911636531353 239.74283930659294 345.74556344747543 266.504907310009 129.93652054667473 149.34382684528828 159.40429839491844 109.79686091840267 119.45952212810516 142.24204710125923 102.2800227701664
leaf_count=473 575 701 631 858 801 733 824 922 704 618 528 538 524 899 928 867 749 719 807 896 498 792 554 875 752 476 467 611 934 510 568 724 508 2180 616 951 587 463 554 566 777 483 510 817 518 773 555 617 791 638 510 671 753 497 497 628 484
internal_value=0 8.43805e-05 0.0329493 0.0381911 -0.011079 0.0431498 -0.0041299 0.0300828 0.0456429 -0.0101026 0.019022 0.00605269 0.0394219 0.0259361 0.0356403 0.0303829 -0.00471056 -0.0172923 -0.0104633 0.0421703 0.0024244 0.0386746 0.0201414 0.00129615 0.00546148 0.0517462 0.0132646 0.0166099 -0.00513129 -0.0250945 0.0206311 -0.0292269 0.000206834 0.0420786 -0.027212 0.0556935 -0.0175675 0.0447661 0.00137609 0.0030472 0.00518723 0.0408916 -0.0316786 -0.0276947 -0.0238291 -0.00635763 -0.00745049 0.0488643 0.0584438 0.0569333 -0.0116721 -0.0319156 -0.0359903 -0.0341816 -0.0193804 -0.0288904 -0.0374122
internal_weight=0 6149.13 5942.77 5216.7 4481.42 4144.5 2996.07 1667.7 3731.3 1888.49 1072.2 1107.58 1848.04 770.287 1253.41 890.732 726.069 1112.65 659.104 1648.74 488.437 1280.93 451.208 924.628 713.716 1883.27 414.294 450.694 443.514 1485.35 413.199 958.733 775.838 1012.4 453.55 1202.71 526.617 680.552 301.909 380.254 441.27 439.523 786.569 409.099 255.221 334.569 268.84 427.062 822.044 476.299 271.396 305.31 377.469 218.065 237.632 278.849 211.453
internal_count=40000 22814 17186 14414 17892 10964 11407 4922 9663 7484 3450 3923 5023 2368 3533 2605 2772 4625 2619 4392 1802 3496 1421 3385 2561 4640 1389 1469 1686 6485 1301 4295 2859 2704 2006 2856 2190 1784 1082 1373 1578 1184 3571 1811 1105 1281 1053 1080 1905 1114 1085 1390 1760 1007 970 1246 994
shrinkage=0.03


Tree=7
num_leaves=62
num_cat=0
split_feature=7 9 7 11 13 3 4 13 0 9 2 3 5 4 4 5 5 5 8 0 3 5 5 0 4 5 5 0 8 8 5 4 4 5 5 6 6 4 0 5 6 3 3 9 8 1 8 5 5 5 7 6 0 1 8 3 6 1 6 8 6
split_gain=3385.14 2147.7 1213.72 512.589 463.415 244.508 191.189 161.209 147.993 139.763 131.289 122.1 101.761 88.0567 82.8584 80.4362 174.083 75.613 71.8029 57.4143 57.2287 56.8014 79.8341 49.7429 49.6703 48.532 128.192 48.2365 47.493 42.8222 32.0164 31.0848 31.0065 28.6322 74.0956 27.0333 33.2963 23.4004 22.279 20.7105 16.6039 16.2717 15.235 19.0821 15.0532 14.8725 13.9947 11.4525 10.0307 5.60171 4.93677 2.68018 1.96593 1.95514 1.91149 1.90857 1.72897 1.04766 0.712728 0.546046 0.198273
threshold=0.38305881959638605 1.0000000180025095e-35 -1.6187292025072715 1.0000000180025095e-35 1.0000000180025095e-35 -0.43171570548524069 1.0000000180025095e-35 1.0000000180025095e-35 -0.46646390518270142 1.0000000180025095e-35 -0.31458323369321833 1.2053719416282906 1.0420104322762469 1.0000000180025095e-35 1.0000000180025095e-35 1.0420104322762469 -1.5852248810883856 -0.9169640013812792 1.0000000180025095e-35 -0.46646390518270142 -0.43171570548524069 1.0420104322762469 -0.9169640013812792 -0.46646390518270142 1.0000000180025095e-35 -0.90079639945288148 1.0420104322762469 -0.46646390518270142 1.0000000180025095e-35 1.0000000180025095e-35 0.77928690093978359 1.0000000180025095e-35 1.0000000180025095e-35 1.0420104322762469 -1.3346270511982208 -0.65728423851571915 0.55287257421223301 1.0000000180025095e-35 -0.20551237645192386 0.77928690093978359 -0.44187282322550486 -0.35136784550420846 0.010197524410436342 1.0000000180025095e-35 1.0000000180025095e-35 0.61856499682357047 1.0000000180025095e-35 1.0420104322762469 0.16087612717857011 1.0420104322762469 -0.28420385443816681 -0.35605851957330564 -0.20551237645192386 0.26403315646158459 1.0000000180025095e-35 0.15582802062605725 -0.23521796953245364 1.0000000180025095e-35 0.067759061729392486 1.0000000180025095e-35 -0.41735445075344796
decision_type=2 2 2 2 2 2 2 2 2 2 2 2 2 2 2 2 2 2 2 2 2 2 2 2 2 2 2 2 2 2 2 2 2 2 2 2 2 2 2 2 2 2 2 2 2 2 2 2 2 2 2 2 2 2 2 2 2 2 2 2 2
left_child=2 4 14 5 23 12 8 24 35 18 19 28 17 21 27 16 57 -4 20 44 50 22 -9 39 -3 -21 -27 -1 37 31 -29 48 -30 34 59 -6 47 42 53 54 -18 -20 -7 -44 -8 -36 -41 -37 -19 -15 -5 -33 58 -17 -2 60 -14 -10 -35 -25 -39
right_child=1 7 3 9 6 11 10 13 15 -11 -12 -13 56 49 -16 38 40 29 41 25 -22 -23 -24 33 -26 26 -28 30 32 -31 -32 51 -34 52 45 36 -38 55 -40 46 -42 -43 43 -45 -46 -47 -48 -49 -50 -51 -52 -53 -54 -55 -56 -57 -58 -59 -60 -61 -62
leaf_value=-0.00034749450237491191 -0.013806296706240806 0.0050842393803744949 0.018020756748802085 0.0073867308927813994 -0.011297221789642091 0.054499774167129811 0.015628715691105154 0.018347126283039295 -0.030326425388056997 0.040851046342695124 0.029001766116239711 0.026602170828596571 0.014888557167317757 0.046257444487872383 0.0097823495178879626 -0.033796295879429283 -0.0049754060676834161 0.03343848860327589 -0.00609951363930533 -0.020966812498996439 0.030332410032376734 0.017089436089729248 0.044430009608813881 -0.034614408007144611 0.026193459888803106 0.019123323003208015 -0.014884828453708785 -0.011254904881747237 0.034737421995436273 0.028508240486030359 -0.031698907614646492 0.05036950655502094 0.048356200517810644 -0.03468473999861018 -0.0072831908381865637 0.010934254503925409 -0.008751719042903193 0.058577509913056269 -0.017094137669134726 -0.016988339072794751 0.007903698386385289 0.0078552605363928409 0.040980736086064042 0.053021495768153883 0.0037853431617811931 -0.020947587556504967 -0.03123341851927432 0.0013419180262065342 0.042085177764951964 0.039718193025211644 0.014802230863907605 0.045535763494500288 -0.031360839353567274 -0.028808347162135872 -0.0087055208872133943 0.054448675884568427 0.019489806530000826 -0.026433532567389863 -0.038017597104457047 -0.03779023581063698 0.056618706260430023
leaf_weight=197.84065413475037 140.76609569787979 264.63708086311817 178.01925764977932 160.21309854090214 148.69265648722649 282.26042945683002 205.00239355862141 172.51531894505024 134.94808495044708 202.27892631292343 184.04845833778381 224.45646919310093 151.74477553367615 330.33137272298336 241.15172933042049 153.82175596058369 146.17464523017406 310.75267507135868 141.02528676390648 131.11234249174595 246.40247213840485 279.90981605648994 273.50261567533016 142.89366091787815 161.77462385594845 177.65942510962486 227.41966369748116 168.89249758422375 254.74278679490089 276.25527033209801 116.90145881474018 199.36500860750675 372.99309808015823 164.83983796834946 151.93274462223053 274.81196953356266 162.56142403185368 220.83127070963383 147.31560622155666 140.48501800000668 234.38501754403114 160.96869306266308 304.31560757756233 197.3788193911314 183.37351936101913 136.52080217003822 112.42906905710697 189.7093859910965 202.52275905013084 193.44213873147964 165.52750232815742 253.6723310649395 119.23394429683685 147.62708273530006 129.55246460437775 357.84366716444492 152.81617894768715 140.77407309412956 121.89900575578213 110.32400499284267 229.39638558030128
leaf_count=729 575 939 566 554 583 668 673 535 618 537 538 661 494 837 836 719 547 871 528 543 723 882 734 672 484 578 934 677 709 794 530 487 922 774 604 952 624 498 616 587 826 554 799 470 657 582 518 700 536 511 554 645 551 671 510 837 482 628 586 526 525
internal_value=0 7.92179e-05 0.0318088 0.0368365 -0.0108003 0.0416018 -0.00401676 0.0290314 -0.00984169 0.0183772 0.00586428 0.0477069 0.0329505 0.0344667 -0.00457851 -0.0168925 -0.0101954 0.0363251 0.0131739 0.00125618 0.0194205 0.0276951 0.0343463 -0.0245861 0.0130972 -0.00510452 2.73054e-05 -0.0117422 0.0498399 0.038946 -0.0196245 0.0419276 0.0428336 -0.028688 -0.0241623 0.000200208 0.00292906 0.0526008 -0.0266822 -0.0171532 0.00295312 0.00133408 0.0488869 0.0457233 0.0100411 -0.0137566 -0.023329 0.00702008 0.036855 0.0438473 0.0111602 0.047669 -0.0347209 -0.0313611 -0.011368 0.0562004 0.0172034 -0.0283468 -0.03611 -0.0360076 0.0575862
internal_weight=0 6136.43 5970.57 5245.78 4460.31 4169.37 2989.44 1676.11 1880.82 1076.42 1108.62 2444.22 1725.15 1249.7 724.786 1105.05 656.282 1420.59 874.137 924.567 572.143 725.928 446.018 1470.88 426.412 536.191 405.079 483.635 2219.76 1242.57 285.794 966.313 627.736 947.644 541.671 775.775 627.083 1592.03 448.764 523.233 380.56 301.994 783.955 501.694 388.376 288.454 252.914 464.521 513.275 523.774 325.741 453.037 405.973 301.449 270.319 808.071 304.561 275.722 286.739 253.218 450.228
internal_count=40000 22814 17186 14414 17892 10964 11407 4922 7484 3450 3923 6089 4875 3499 2772 4625 2619 3899 2913 3385 1831 2151 1269 6485 1423 2055 1512 1936 5428 3333 1207 2539 1631 4295 2384 2859 2276 3797 2006 2190 1373 1082 1937 1269 1330 1186 1105 1652 1407 1348 1108 1132 1911 1390 1085 1860 976 1246 1360 1198 1023
shrinkage=0.03


Tree=8
num_leaves=60
num_cat=0
split_feature=7 9 7 11 13 3 4 13 0 5 2 3 8 9 5 4 4 13 5 5 5 0 5 5 0 0 0 0 5 8 4 3 4 3 8 4 0 5 1 5 3 5 5 8 0 6 0 3 6 6 1 9 3 8 6 6 8 5 1
split_gain=3164.03 2016.73 1131.97 478.404 442.917 229.226 180.546 150.173 140.803 130.529 122.684 114.353 106.823 97.3816 128.106 89.8099 82.3121 79.8084 77.3321 166.197 63.0094 58.5472 54.7858 130.941 54.5397 56.8484 48.3194 47.4784 47.0875 44.7946 41.1712 32.4029 29.1184 28.3097 26.717 22.2911 21.687 19.9195 16.4804 15.1417 14.7632 14.2709 43.5286 13.5986 8.99446 6.51326 5.55547 5.31526 5.21647 4.46098 1.92227 1.89941 4.71693 1.82103 1.70244 4.58658 1.03498 0.996604 0.284968
threshold=0.38305881959638605 1.0000000180025095e-35 -1.6187292025072715 1.0000000180025095e-35 1.0000000180025095e-35 -0.43171570548524069 1.0000000180025095e-35 1.0000000180025095e-35 -0.46646390518270142 0.97329812408055649 -0.31458323369321833 1.2053719416282906 1.0000000180025095e-35 1.0000000180025095e-35 1.0420104322762469 1.0000000180025095e-35 1.0000000180025095e-35 1.0000000180025095e-35 1.0420104322762469 -1.5852248810883856 -0.73238387936540505 -0.46646390518270142 -1.3346270511982208 1.0420104322762469 -0.46646390518270142 -0.20551237645192386 -0.46646390518270142 -0.46646390518270142 1.0420104322762469 1.0000000180025095e-35 1.0000000180025095e-35 -0.33630262175776499 1.0000000180025095e-35 -0.2208025730350312 1.0000000180025095e-35 1.0000000180025095e-35 -0.20551237645192386 0.77928690093978359 0.61856499682357047 0.63108388326280429 0.46717597805255712 0.77928690093978359 -1.2969026466986258 1.0000000180025095e-35 0.31639068100963136 -0.46113725873926387 -0.46646390518270142 0.010197524410436342 -0.36656639348990144 -0.45238069714210066 0.26403315646158459 1.0000000180025095e-35 -0.024954664331265208 1.0000000180025095e-35 0.067759061729392486 -0.51542794064167563 1.0000000180025095e-35 0.10563682058987771 1.0000000180025095e-35
decision_type=2 2 2 2 2 2 2 2 2 2 2 2 2 2 2 2 2 2 2 2 2 2 2 2 2 2 2 2 2 2 2 2 2 2 2 2 2 2 2 2 2 2 2 2 2 2 2 2 2 2 2 2 2 2 2 2 2 2 2
left_child=2 4 17 5 26 13 8 28 34 12 22 29 15 14 20 31 24 57 19 56 -4 -19 -8 -24 -9 -26 37 -25 -3 35 44 -5 -31 41 39 40 50 53 -21 -6 47 42 58 -39 -22 -36 -18 -7 -32 -23 -20 52 -37 -2 55 -43 -10 -1 -28
right_child=1 7 3 9 6 11 10 16 18 -11 -12 -13 -14 -15 -16 -17 46 21 36 38 30 49 23 27 25 -27 33 -29 -30 32 48 -33 -34 -35 45 51 -38 43 -40 -41 -42 54 -44 -45 -46 -47 -48 -49 -50 -51 -52 -53 -54 -55 -56 -57 -58 -59 -60
leaf_value=-0.016761137893367407 -0.013458628240950597 0.021629006591478463 0.018570819796992773 0.010424206850466331 0.010277540887089527 0.052590003014931531 -0.012271452476969584 0.035711786026187964 -0.026037064001232776 -0.0082491366162288846 0.027979810446092154 0.025681054335321033 0.0053681501495711579 0.047634287539280541 0.0086495290415155388 0.041084751048580774 0.045873166260834319 0.013904994273748217 -0.033255204405434981 0.0084166799041457685 0.026636506947299451 -0.011158031700426981 0.021515188597440855 0.0051505836116586051 0.0068497303522311245 0.029629740305537212 -0.034993419232887395 -0.014515761669997884 0.0016007219598405686 0.033507007109691241 0.045784933515705152 0.02766136147316401 0.046670452185984125 -0.017046234512427608 -0.011546185732907444 0.056340408846428804 -0.016686655805936861 -0.016582628657054538 -0.0041449370535109322 -0.00084286995902793237 0.040043541617201174 -0.037595154757897639 -0.016537974064269417 -0.030694431304108885 0.035026993426768432 -0.0029080435403709961 0.039553089551998273 0.046767369054434051 0.039368227197166754 -0.0033626808036342432 -0.028278114573599918 0.056138872831447729 0.050183382915699723 -0.0084694321437253431 -0.037402105799880708 -0.028641374196111392 -0.029942294153716981 -0.020796858841072449 -0.037769533795415866
leaf_weight=117.43930302560329 140.08158239722252 236.20543800294399 232.45543360710144 200.01495815813541 233.66245929896832 283.71260620653629 209.47451816499233 331.84499862790108 148.90511207282543 149.48617246747017 185.03318926692009 225.51630783081055 254.45893162488937 291.27553601562977 241.30708661675453 282.64212743937969 228.66607636213303 220.70591570436954 151.66801664233208 212.55782520771027 302.10517258942127 123.51874017715454 272.83520552515984 215.75993704795837 181.76406741142273 215.9964899122715 105.94028586149216 226.22486305236816 191.41698405146599 256.15305538475513 215.314119130373 193.48560360074043 374.84290045499802 169.50010876357555 127.37472333014011 216.76328164339066 146.40033826231956 139.61844342947006 168.31978541612625 208.12147796154022 198.31803594529629 105.04509902000427 195.44525420665741 110.99352969229221 189.64617510139942 206.57167513668537 297.90424111485481 305.88379809260368 261.50094603002071 143.57744131982327 145.91001288592815 335.7424653917551 258.69903318583965 129.17548477649689 154.46216112375259 107.0034217685461 123.68933148682117 118.07496908307076 99.099282369017601
leaf_count=473 575 752 720 680 801 668 824 907 677 547 538 661 892 745 800 764 569 749 719 746 869 498 875 752 610 634 510 934 671 709 538 567 922 724 508 488 616 587 627 777 514 510 817 518 519 773 779 755 684 555 671 760 612 510 753 497 569 497 484
internal_value=0 7.43356e-05 0.0307386 0.0355693 -0.0105298 0.0401595 -0.00390711 0.0280297 -0.00958755 0.0177639 0.00568346 0.0460574 0.0219441 0.0318038 0.028605 0.0281798 0.0332577 -0.00445151 -0.0165026 -0.00993432 0.032613 0.00247029 0.00121777 0.00517299 0.0267265 0.0192247 -0.0240911 -0.00491254 0.0126677 0.048117 0.035981 0.0189047 0.0413307 -0.0281649 0.000193778 0.0507932 -0.0261657 -0.0167487 0.00286182 0.00503591 0.0471784 -0.0306195 -0.026685 -0.0228409 0.029877 -0.00620769 0.0423026 0.0495739 0.0422712 -0.00697365 -0.0308224 0.0543007 0.0529965 -0.0110714 -0.0349126 -0.0330879 -0.0278171 -0.0187926 -0.0363469
internal_weight=0 6122.67 5992.64 5269.32 4438.87 4189.24 2982.51 1683.8 1873.18 1080.09 1109.33 2455.63 930.602 1733.6 1442.33 676.143 1256.18 723.316 1097.45 653.472 1201.02 487.802 924.295 714.82 729.606 397.761 1456.36 441.985 427.622 2230.12 968.566 393.501 630.996 936.496 775.73 1599.12 443.978 519.869 380.878 441.784 787.914 766.996 400.485 250.612 491.751 333.946 526.57 589.596 476.815 267.096 297.578 811.205 475.462 269.257 366.511 212.049 272.594 235.514 205.04
internal_count=40000 22814 17186 14414 17892 10964 11407 4922 7484 3450 3923 6089 2903 4875 4130 2011 3499 2772 4625 2619 3330 1802 3385 2561 2151 1244 6485 1686 1423 5428 2610 1247 1631 4295 2859 3797 2006 2190 1373 1578 1937 3571 1811 1105 1388 1281 1348 1423 1222 1053 1390 1860 1100 1085 1760 1007 1246 970 994
shrinkage=0.03


Tree=9
num_leaves=59
num_cat=0
split_feature=7 9 7 11 13 5 4 11 5 0 9 2 9 4 2 0 4 5 5 4 1 0 4 4 0 0 0 8 5 3 5 4 3 3 6 2 3 0 5 6 6 3 5 5 8 8 4 3 5 4 5 1 8 6 6 1 1 1
split_gain=2960.34 1894.69 1057.41 447.83 423.342 216.824 170.506 140.533 137.932 133.967 127.156 114.728 99.0801 85.6391 85.493 95.3514 77.8086 74.3577 158.685 67.5365 60.1355 52.7259 50.2687 49.6041 46.9498 45.0489 44.125 36.8016 36.3357 32.8957 30.9767 29.1582 28.3379 27.6065 26.7571 25.9629 22.9185 21.1224 19.1619 19.1486 25.188 16.092 14.0402 42.5651 14.0059 13.2201 12.0551 10.9923 10.4379 5.41066 2.03997 1.89215 1.73472 1.69074 4.54204 1.18986 1.052 0.284639
threshold=0.38305881959638605 1.0000000180025095e-35 -1.6187292025072715 1.0000000180025095e-35 1.0000000180025095e-35 1.0420104322762469 1.0000000180025095e-35 1.0000000180025095e-35 -1.0894184219508549 -0.46646390518270142 1.0000000180025095e-35 -0.31458323369321833 1.0000000180025095e-35 1.0000000180025095e-35 -0.31458323369321833 -0.46646390518270142 1.0000000180025095e-35 1.0420104322762469 -1.5852248810883856 1.0000000180025095e-35 0.61856499682357047 -0.46646390518270142 1.0000000180025095e-35 1.0000000180025095e-35 -0.46646390518270142 -0.20551237645192386 -0.46646390518270142 1.0000000180025095e-35 0.82240050608217763 -0.33630262175776499 0.77928690093978359 1.0000000180025095e-35 -0.41665048173879721 -0.2208025730350312 -0.61875536748820115 -0.26936727737461724 -0.43171570548524069 -0.20551237645192386 0.77928690093978359 -0.55220549934976093 0.58089357132315522 -0.25595476177673276 0.77928690093978359 -1.2969026466986258 1.0000000180025095e-35 1.0000000180025095e-35 1.0000000180025095e-35 -0.070150335570595829 -0.17729621315708269 1.0000000180025095e-35 0.71731109354759237 0.26403315646158459 1.0000000180025095e-35 0.1308063052289675 -0.46113725873926387 0.4412990766425775 1.0000000180025095e-35 1.0000000180025095e-35
decision_type=2 2 2 2 2 2 2 2 2 2 2 2 2 2 2 2 2 2 2 2 2 2 2 2 2 2 2 2 2 2 2 2 2 2 2 2 2 2 2 2 2 2 2 2 2 2 2 2 2 2 2 2 2 2 2 2 2 2
left_child=2 4 16 5 24 8 9 14 -4 35 19 21 13 20 15 46 26 18 56 27 34 44 -17 -9 38 28 -1 29 -23 -5 -28 -7 48 42 -10 39 -21 51 52 -6 50 -20 43 57 -8 -40 -3 -34 -15 -14 -41 -19 -2 54 -44 -51 -11 -26
right_child=1 7 3 10 6 31 11 23 12 17 -12 -13 49 32 -16 22 -18 37 41 36 -22 25 -24 -25 33 -27 30 -29 -30 -31 -32 -33 47 -35 -36 -37 -38 -39 45 40 -42 -43 53 -45 -46 -47 -48 -49 -50 55 -52 -53 -54 -55 -56 -57 -58 -59
leaf_value=-0.00044380580176219312 -0.013119146567453038 0.03260755865374259 0.019736277999580942 0.0029205331681529272 -0.011149421418223501 0.010955314502039855 0.014943980783470309 0.0039323476794924789 0.027486518241569082 -0.029303980018786518 0.038511753537381885 0.02700960378621621 0.049012990029573995 0.033918456763033414 0.044225948308572557 0.0086419266126913762 0.0095582860857959511 -0.0327304681443304 -0.002601304170251405 0.015228332942078688 0.022214441274490453 -0.0025608837027642798 0.028687399509828026 0.025263015120295152 -0.034478000168489668 0.0053639754959232001 -0.010682282376081631 -0.0061295121824251272 -0.023085062333284619 0.021373257702506757 -0.030927711821824626 0.026847169235833274 0.053683726861302634 -0.016645143852968867 0.039972996600570278 0.011412563269719001 0.030539111841463455 -0.016288443727251991 -0.016186153608491159 0.0076376873068847856 -0.0098199577701959095 0.0098367124513914096 -0.036688072152390117 -0.016140760229447808 0.0035395074041027182 -0.030169967371942139 0.042625677620779484 0.046212258263123251 0.042815840752152348 0.052364669975879699 0.0027826505217011088 -0.027761019001268403 -0.0082393520573385403 -0.03701593557189508 -0.027852323608085903 0.055786849453568224 -0.02536734608105359 -0.037266804891883866
leaf_weight=197.97608627378941 139.40634402632713 253.62890370190144 254.64404125511646 202.29430820047855 168.224858507514 224.91736513376236 206.0086345821619 260.35286074876785 189.08577843010426 131.74734905362129 204.06459921598434 185.91642579436302 382.26642088592052 185.02003006637096 368.42217090725899 256.92929545044899 241.56411147117615 149.5098275244236 216.36358517408371 190.70536351203918 285.29839439690113 163.83147180080414 200.82640461623669 157.63379104435444 104.32325223088264 222.61715978384018 167.61352197825909 169.27437548339367 147.83023558557034 152.74931457638741 114.86349411308765 193.9147752225399 267.45072954893112 168.3945667296648 871.20944179594517 149.67490683495998 164.44039197266102 145.494643881917 138.76101545989513 169.99545267224312 141.73040592670441 164.81962543725967 117.57775937020779 194.26616443693638 183.77362483739853 109.55764505267143 192.67743887007236 558.24124319851398 346.43822851777077 236.07775986194611 146.01786762475967 144.19565334916115 128.80562782287598 143.86479359865189 99.503506764769554 210.35318338871002 137.72805097699165 97.448457628488541
leaf_count=729 575 701 769 722 662 733 673 922 531 618 537 538 919 500 928 867 836 719 807 614 832 617 554 467 510 795 677 645 643 464 530 568 609 724 2262 520 468 616 587 593 549 566 579 817 657 518 483 1350 871 545 535 671 510 714 467 475 628 484
internal_value=0 6.97899e-05 0.0297261 0.0343756 -0.0102663 0.0388074 -0.00380059 0.0270797 0.0410735 -0.00934032 0.0171748 0.0055086 0.0426116 0.0398257 0.0320379 0.0270682 -0.00432686 -0.0161224 -0.00968021 0.0122213 0.0344563 0.00118051 0.0174405 0.0119812 -0.0236075 -0.00493851 -0.0113111 0.00537526 -0.0123018 0.0108644 -0.0189219 0.0183177 0.0451474 -0.0276544 0.0377483 0.000187568 0.0223233 -0.0256618 -0.0163536 -0.0024946 0.00068357 0.00277344 -0.0301009 -0.0261807 0.00957124 -0.0223641 0.0369381 0.0486358 0.0397229 0.0516942 0.00539921 -0.0302983 -0.010782 -0.0343959 -0.0326486 0.0539837 -0.0273 -0.0358368
internal_weight=0 6107.86 6010.46 5288.45 4417.39 4204.92 2975.48 1690.47 3786.09 1865.5 1083.53 1109.98 3531.44 2702.74 1272.48 904.062 722.017 1089.86 650.659 879.464 1345.59 924.061 457.756 417.987 1441.91 534.279 480.453 524.318 311.662 355.044 282.477 418.832 1357.15 925.379 1060.3 775.643 355.146 439.2 516.531 625.969 457.744 381.183 756.984 396.038 389.782 248.319 446.306 825.692 531.458 828.697 316.013 293.705 268.212 360.946 217.081 446.431 269.475 201.772
internal_count=40000 22814 17186 14414 17892 10964 11407 4922 9663 7484 3450 3923 8894 6955 3533 2605 2772 4625 2619 2913 3625 3385 1421 1389 6485 2055 1936 1831 1260 1186 1207 1301 3330 4295 2793 2859 1082 2006 2190 2339 1677 1373 3571 1811 1330 1105 1184 1959 1371 1939 1128 1390 1085 1760 1046 1020 1246 994
shrinkage=0.03


Tree=10
num_leaves=61
num_cat=0
split_feature=7 9 7 11 13 3 4 11 0 9 2 3 9 5 2 0 13 5 5 5 5 5 5 5 5 5 4 4 0 8 4 0 5 5 4 4 8 4 0 4 3 5 6 1 3 5 8 4 6 3 0 1 3 8 1 1 5 6 8 6
split_gain=2772.61 1781.2 988.985 419.79 404.668 209.603 161.034 131.511 127.477 118.849 107.36 106.076 86.9023 114.15 79.8078 89.0902 75.4007 71.4987 151.529 64.8977 66.2148 57.3266 56.0504 96.0421 52.253 120.518 47.1201 46.3393 45.6383 42.2435 42.1361 41.977 27.2133 69.8681 26.2105 25.8965 25.3025 23.8157 20.5821 19.6833 19.0217 18.4354 15.5765 14.4358 13.9408 13.7048 12.8574 11.4175 5.91305 5.06607 1.97189 1.86443 1.77327 1.65235 1.08972 1.03116 0.870759 0.693989 0.576768 0.211263
threshold=0.38305881959638605 1.0000000180025095e-35 -1.6187292025072715 1.0000000180025095e-35 1.0000000180025095e-35 -0.43171570548524069 1.0000000180025095e-35 1.0000000180025095e-35 -0.46646390518270142 1.0000000180025095e-35 -0.31458323369321833 1.2053719416282906 1.0000000180025095e-35 1.0420104322762469 -0.31458323369321833 -0.46646390518270142 1.0000000180025095e-35 1.0420104322762469 -1.5852248810883856 0.78871800206468234 -0.73238387936540505 -0.28508022601306765 1.0420104322762469 -1.0894184219508549 -1.3346270511982208 1.0420104322762469 1.0000000180025095e-35 1.0000000180025095e-35 -0.46646390518270142 1.0000000180025095e-35 1.0000000180025095e-35 -0.46646390518270142 1.0420104322762469 -1.3346270511982208 1.0000000180025095e-35 1.0000000180025095e-35 1.0000000180025095e-35 1.0000000180025095e-35 -0.20551237645192386 1.0000000180025095e-35 -0.41665048173879721 0.77928690093978359 -0.44187282322550486 0.61856499682357047 0.46717597805255712 0.63108388326280429 1.0000000180025095e-35 1.0000000180025095e-35 -0.46113725873926387 0.010197524410436342 -0.20551237645192386 0.26403315646158459 0.15582802062605725 1.0000000180025095e-35 1.0000000180025095e-35 1.0000000180025095e-35 0.10563682058987771 0.067759061729392486 1.0000000180025095e-35 -0.41735445075344796
decision_type=2 2 2 2 2 2 2 2 2 2 2 2 2 2 2 2 2 2 2 2 2 2 2 2 2 2 2 2 2 2 2 2 2 2 2 2 2 2 2 2 2 2 2 2 2 2 2 2 2 2 2 2 2 2 2 2 2 2 2 2
left_child=2 4 16 5 28 12 8 14 36 19 24 29 13 21 15 47 56 18 55 20 -5 37 23 -18 -8 -26 -17 -9 41 39 40 -27 33 58 54 -31 45 -4 51 44 -22 53 -20 -35 49 -6 -43 -3 -38 -7 57 -19 59 -2 -23 -10 -1 -34 -30 -41
right_child=1 7 3 9 6 11 10 27 17 -11 -12 -13 -14 -15 -16 26 22 38 42 -21 30 34 -24 -25 25 31 -28 -29 32 35 -32 -33 50 43 -36 -37 48 -39 -40 52 -42 46 -44 -45 -46 -47 -48 -49 -50 -51 -52 -53 -54 -55 -56 -57 -58 -59 -60 -61
leaf_value=-0.016317515628270413 -0.012787629523895784 0.031490305995314265 0.016602027574369203 -0.0023675052660057849 0.0098594530338160045 0.049612567394350625 -0.012053295731618069 0.0038102056689793204 -0.028792857477721878 0.037197776451810029 0.026086985316936973 0.023630962383740531 0.044452125442362406 0.0077794711534451408 0.042721288117580823 0.0083648962984449165 -0.0067196716303904421 -0.032220892299209603 -0.0049961895798904003 -0.0065240391125495146 0.005506158275374172 0.031691891502281688 -0.0096783980920650495 0.02798289956561768 0.020600596602741689 0.0046915706686389176 0.027748810035996163 0.024394419775050625 -0.033083731972003753 0.031238366362460364 0.029482217132348748 -0.013829805542131418 -0.033179028463543175 -0.0061646890949412858 0.041520419712234392 0.043605527204607523 -0.011162895991912506 0.029891787793530286 -0.01589920747952342 0.053329284652388342 0.019716011283118024 -0.015798628930129215 0.0074689033126371408 -0.019744254287146181 0.037446152191637105 -0.00071546815458081617 -0.029659032520873565 0.041223299779977261 -0.0029185570794984304 0.043947494433547118 -0.029762211188499234 -0.027256227449249271 0.049359153079574086 -0.0080151391134156962 0.028206589801706587 -0.024873097549751439 -0.020119668913906676 -0.036537123584678637 -0.036383757783303917 0.051419614196608787
leaf_weight=116.71420748531818 138.7407623231411 254.7321674823761 276.47973662614822 149.62873753905296 234.43818216025829 285.16157811880112 208.85980096459389 260.63458982110023 130.08926397562027 204.9220911860466 186.70554855465889 227.59848539531231 294.38709612190723 242.69913519918919 369.93282474577427 257.46774703264236 140.43038810789585 147.35135175287724 146.18741585314274 144.7965849339962 157.70037236809731 185.42893716692924 200.0370289683342 146.66323395073414 274.58758494257927 216.55661427974701 201.38278612494469 158.3390715867281 136.78583367168903 258.40876427292824 244.95506501197815 223.88518214225769 157.96884763240814 149.7496155500412 357.41074322164059 377.1667540371418 126.73058587312698 217.64236123859882 144.59928417205811 222.10340614616871 184.26477162539959 137.91345763206482 235.26131901144981 133.76986637711525 199.61157377064228 207.82883688807487 108.12394887208939 193.24683882296085 206.57739175856113 307.73622378706932 114.49572056531906 142.48676459491253 360.66924369335175 128.44292414188385 173.68784214556217 136.27363038063049 116.6922213435173 116.03804285824299 105.46709133684635 230.80249345302582
leaf_count=473 575 701 841 532 801 668 824 922 618 537 538 661 745 800 928 867 533 719 547 533 560 505 789 480 875 752 554 467 672 709 706 934 774 604 895 922 508 604 616 498 582 587 826 582 514 777 518 483 773 755 551 671 837 510 485 628 497 586 526 525
internal_value=0 6.55965e-05 0.0287692 0.0332498 -0.0100096 0.0375339 -0.00369694 0.0261845 -0.00909964 0.0166166 0.00533955 0.0431624 0.0295804 0.0265663 0.030971 0.0261749 -0.00420697 -0.015752 -0.00943328 0.0118287 0.0154386 0.0303311 0.00250825 0.0110045 0.0011446 0.00500196 0.0168764 0.0115939 -0.0231353 0.0451445 0.0199803 -0.00472033 -0.0271567 -0.0226966 0.0357561 0.0385811 0.000181577 0.0224599 -0.0251697 0.0477402 0.0131681 -0.0159677 0.00268808 -0.012578 0.044355 0.00488724 -0.0218981 0.0356943 -0.00605808 0.0466767 -0.033187 -0.0297879 0.0510345 -0.0104996 0.0300124 -0.0267955 -0.0182266 -0.0346098 -0.0345302 0.0523624
internal_weight=0 6091.65 6023.8 5303.26 4395.91 4216.99 2968.42 1695.74 1857.82 1086.27 1110.59 2469.26 1747.74 1453.35 1276.76 906.83 720.537 1082.25 647.812 881.346 736.549 1210.65 487.131 287.094 923.889 715.029 458.851 418.974 1427.5 2241.66 586.92 440.442 914.275 525.772 716.528 635.576 775.575 494.122 434.437 1606.08 341.965 513.221 381.449 283.519 792.509 442.267 246.037 447.979 333.308 592.898 388.503 289.838 813.575 267.184 359.117 266.363 233.406 274.007 242.253 452.906
internal_count=40000 22814 17186 14414 17892 10964 11407 4922 7484 3450 3923 6089 4875 4130 3533 2605 2772 4625 2619 2913 2380 3330 1802 1013 3385 2561 1421 1389 6485 5428 1848 1686 4295 2384 1885 1631 2859 1445 2006 3797 1142 2190 1373 1186 1937 1578 1105 1184 1281 1423 1911 1390 1860 1085 990 1246 970 1360 1198 1023
shrinkage=0.03


Tree=11
num_leaves=62
num_cat=0
split_feature=7 9 7 11 13 3 4 13 0 8 3 2 8 4 5 5 0 4 5 5 4 5 5 0 5 4 0 3 0 6 8 5 3 2 7 0 4 6 6 5 6 4 1 5 5 8 7 4 2 9 3 3 6 1 5 6 6 8 8 1 6
split_gain=2599.07 1675.28 926.483 394.658 386.835 198.551 152.092 123.424 121.297 111.648 100.983 100.524 84.2855 83.7435 73.0639 118.256 80.5278 73.0175 68.7584 144.71 57.5331 49.2743 112.825 44.3882 43.4311 42.9403 42.3668 42.2093 39.7054 31.4291 30.4898 28.9755 26.8637 24.2259 23.3339 20.0637 19.6241 17.7756 23.7782 17.738 16.4593 15.9476 15.4325 13.5297 40.554 12.5091 10.9512 9.60692 8.15792 7.15135 8.38153 2.68605 2.20222 1.83879 1.7425 1.70129 4.58156 1.57374 1.04776 0.296136 0.199559
threshold=0.38305881959638605 1.0000000180025095e-35 -1.6187292025072715 1.0000000180025095e-35 1.0000000180025095e-35 -0.43171570548524069 1.0000000180025095e-35 1.0000000180025095e-35 -0.46646390518270142 1.0000000180025095e-35 0.79358915922550055 -0.31458323369321833 1.0000000180025095e-35 1.0000000180025095e-35 -1.5852248810883856 1.0420104322762469 -0.46646390518270142 1.0000000180025095e-35 1.0420104322762469 -1.5852248810883856 1.0000000180025095e-35 -1.3346270511982208 1.0420104322762469 -0.46646390518270142 1.0420104322762469 1.0000000180025095e-35 -0.46646390518270142 -0.33630262175776499 -0.46646390518270142 -0.60474486893274004 1.0000000180025095e-35 0.77928690093978359 -0.2208025730350312 -0.26936727737461724 1.0000000180025095e-35 -0.20551237645192386 1.0000000180025095e-35 -0.55220549934976093 0.55287257421223301 0.77928690093978359 -0.17217072603287872 1.0000000180025095e-35 0.61856499682357047 0.77928690093978359 -1.2969026466986258 1.0000000180025095e-35 -0.50662474578301775 1.0000000180025095e-35 -0.31458323369321833 1.0000000180025095e-35 0.035306230654508913 0.15582802062605725 -0.20719697242153148 0.26403315646158459 0.71731109354759237 0.067759061729392486 -0.51542794064167563 1.0000000180025095e-35 1.0000000180025095e-35 1.0000000180025095e-35 -0.41735445075344796
decision_type=2 2 2 2 2 2 2 2 2 2 2 2 2 2 2 2 2 2 2 2 2 2 2 2 2 2 2 2 2 2 2 2 2 2 2 2 2 2 2 2 2 2 2 2 2 2 2 2 2 2 2 2 2 2 2 2 2 2 2 2 2
left_child=2 4 17 5 23 12 8 24 33 13 30 21 20 27 -9 48 -17 26 19 58 29 -8 -23 39 -3 -14 -1 -5 -24 -4 47 -28 43 37 -12 53 -11 -6 54 57 -31 -32 -21 44 59 -41 -22 49 -16 50 -7 60 -48 -20 -39 56 -45 -2 -10 -25 -49
right_child=1 7 3 9 6 10 11 14 18 36 34 -13 25 -15 15 16 -18 -19 35 42 46 22 28 32 -26 -27 31 -29 -30 40 41 -33 -34 -35 -36 -37 -38 38 -40 45 -42 -43 -44 55 -46 -47 52 51 -50 -51 -52 -53 -54 -55 -56 -57 -58 -59 -60 -61 -62
leaf_value=-0.00025091773031858124 -0.012463865987933288 0.020007530455184355 0.015229801778521497 0.0054026501089590876 -0.010785338164212661 0.046438034555630989 -0.011737741915463288 0.014502416716838454 -0.024488127614886855 -0.0061659220605369781 0.022205877612612834 0.025208247193953291 0.0063898329590593933 0.033637950727001223 0.039248777029304217 0.033379043867349911 0.008636904933314796 0.0093316210293205634 -0.03172538759011765 0.0079651063045615977 0.033176251848388516 0.019883549939340352 0.0045453155390209558 -0.03348930438166587 0.00084245486275082322 0.025611783638393785 -0.010457877683071033 0.023696006956486892 -0.013485203946925395 0.034491338131916703 0.032351103588955543 -0.030160431164057772 -0.01573837773261624 0.010995801244890331 0.036020514896160649 -0.015518669848274644 0.0091935710601200697 0.0073892266037543014 -0.0093305688666024261 -0.015419774009286048 0.023911788281208317 0.042753448279236342 -0.0041796884272276846 -0.036183537380341572 -0.015445037140668567 -0.029160704815944766 0.043901548963293124 0.051781913780130924 0.046557734199690233 0.048838378484711918 0.038452370612234617 0.047028803511762765 0.039346419828885267 -0.026762984617825971 0.0028623749267132617 -0.035968739192263351 -0.027043631910768438 -0.0077966469462991163 -0.028471770069148927 -0.036344815747997958 0.049916331423820244
leaf_weight=197.54893308877945 138.08516532182693 238.56832665205002 169.49482834339142 248.84045153856277 167.42830127477646 233.63482782244682 208.05362133681774 224.47092594206333 143.89217393100262 169.3168872743845 230.8930359184742 187.40746146440506 190.98775362968445 327.42778255045414 298.37075260281563 267.77141797542572 212.57372678816319 241.9854631125927 145.19637662172318 213.37169018387794 196.2732507288456 275.93507339060307 216.81594435870647 101.06835196912289 192.38984812796116 231.89130505919456 167.07600703835487 209.13773885369301 222.73654046654701 316.4700334072113 219.945253059268 112.75111974775791 165.79553644359112 150.18238741159439 212.17292341589928 143.71494890749454 134.13526490330696 169.12573353946209 146.43748174607754 137.07638484239578 230.3304830044508 342.9837894141674 168.35598142445087 100.08890384435654 192.14603032171726 106.69475790858269 227.35474796593189 221.88164199888706 265.92636469006538 228.47081273794174 250.59736512601376 301.16564345359802 189.94724732637405 140.78585289418697 142.29365621507168 146.95450678467751 102.87792392075062 128.08740028738976 119.37273597717285 94.235630065202713 230.62357184290886
leaf_count=729 575 752 515 858 662 554 824 677 677 645 661 538 613 899 787 710 683 836 719 746 523 875 752 510 671 656 677 611 934 853 594 530 724 520 555 616 437 588 568 587 666 834 627 510 817 518 562 498 642 530 636 702 487 671 521 753 497 510 569 484 525
internal_value=0 6.1602e-05 0.0278611 0.0321865 -0.0097602 0.0363371 -0.00359652 0.0253333 -0.00886528 0.0160788 0.0418144 0.00517674 0.0286098 0.0220498 0.0300443 0.0333821 0.0224336 -0.00408904 -0.0153902 -0.00919245 0.0323208 0.00110974 0.00484787 -0.0226746 0.0114556 0.0169347 -0.0108951 0.0137604 -0.00458848 0.0265373 0.044649 -0.0184039 -0.0266722 0.000175756 0.0288264 -0.0246888 0.000619082 -0.00242118 0.000634847 -0.0155905 0.0300389 0.0386934 0.00260524 -0.0291281 -0.0252468 -0.0214423 0.0390686 0.0469335 0.0426977 0.044407 0.0423107 0.0493191 0.0418343 -0.0292902 0.00532574 -0.0334194 -0.031562 -0.0102242 -0.0263026 -0.0348793 0.0508373
internal_weight=0 6074.29 6033.34 5313.98 4374.22 4225.12 2961.11 1700.07 1850.16 1088.86 2472.37 1110.95 1752.75 785.406 1269.11 1044.64 480.345 719.362 1074.69 644.993 1329.87 923.541 715.488 1413.11 430.958 422.879 477.376 457.978 439.552 716.295 2029.3 279.827 903.167 775.468 443.066 429.697 303.452 625.285 457.857 509.944 546.801 562.929 381.728 737.371 387.45 243.771 613.575 1466.37 564.297 712.703 484.232 753.671 417.302 285.982 311.419 349.921 202.967 266.173 263.265 195.304 452.505
internal_count=40000 22814 17186 14414 17892 10964 11407 4922 7484 3450 6089 3923 4875 2368 3499 2822 1393 2772 4625 2619 3606 3385 2561 6485 1423 1269 1936 1469 1686 2034 4873 1207 4295 2859 1216 2006 1082 2339 1677 2190 1519 1428 1373 3571 1811 1105 1572 3445 1429 1720 1190 1725 1049 1390 1109 1760 1007 1085 1246 994 1023
shrinkage=0.03


Tree=12
num_leaves=59
num_cat=0
split_feature=7 9 7 11 13 5 4 5 4 0 9 2 9 11 4 13 5 5 4 1 5 5 5 5 0 5 5 0 8 3 5 5 4 3 6 8 3 0 5 3 5 5 1 8 5 8 3 5 3 6 4 0 1 8 1 5 6 8
split_gain=2438.45 1575.81 868.524 371.672 369.772 192.019 143.649 125.655 116.699 115.419 108.339 94.1752 88.8986 83.9919 73.6996 71.2293 66.1263 138.204 55.8224 54.449 51.6649 89.5638 48.098 67.3643 47.4579 43.34 95.9049 43.1749 32.0891 27.4159 26.3325 67.0646 25.7617 24.609 24.0745 23.9677 20.9958 19.5648 17.0679 15.0949 14.6199 20.5038 13.8997 12.9978 12.4039 12.1736 10.0574 9.2927 5.39592 5.36674 2.46059 1.97225 1.81496 1.49869 1.03713 0.760006 0.689179 0.591316
threshold=0.38305881959638605 1.0000000180025095e-35 -1.6187292025072715 1.0000000180025095e-35 1.0000000180025095e-35 1.0420104322762469 1.0000000180025095e-35 -1.0894184219508549 1.0000000180025095e-35 -0.46646390518270142 1.0000000180025095e-35 -0.31458323369321833 1.0000000180025095e-35 1.0000000180025095e-35 1.0000000180025095e-35 1.0000000180025095e-35 1.0420104322762469 -1.5852248810883856 1.0000000180025095e-35 0.61856499682357047 1.0420104322762469 -1.0894184219508549 1.0420104322762469 -0.9169640013812792 -0.46646390518270142 -0.90079639945288148 1.0420104322762469 -0.46646390518270142 1.0000000180025095e-35 -0.33630262175776499 1.0420104322762469 -1.3346270511982208 1.0000000180025095e-35 -0.41665048173879721 -0.61875536748820115 1.0000000180025095e-35 -0.43171570548524069 -0.20551237645192386 0.77928690093978359 -0.25595476177673276 1.0420104322762469 -0.48043874931454028 0.61856499682357047 1.0000000180025095e-35 0.63108388326280429 1.0000000180025095e-35 -0.070150335570595829 -0.19076921476408082 -0.37647655174828104 -0.46113725873926387 1.0000000180025095e-35 -0.20551237645192386 0.26403315646158459 1.0000000180025095e-35 1.0000000180025095e-35 0.10563682058987771 0.067759061729392486 1.0000000180025095e-35
decision_type=2 2 2 2 2 2 2 2 2 2 2 2 2 2 2 2 2 2 2 2 2 2 2 2 2 2 2 2 2 2 2 2 2 2 2 2 2 2 2 2 2 2 2 2 2 2 2 2 2 2 2 2 2 2 2 2 2 2
left_child=2 4 15 5 27 7 9 -4 13 35 18 24 14 22 19 55 17 54 28 34 21 -17 23 -3 43 -26 -27 38 29 -5 31 57 -7 47 -9 44 -20 52 53 -19 41 -10 -33 -8 -6 -40 -35 -16 -14 -37 -50 56 -18 -2 -11 -1 -32 -29
right_child=1 8 3 10 6 32 11 12 40 16 -12 -13 48 -15 33 20 37 39 36 -21 -22 -23 -24 -25 25 26 -28 30 -30 -31 51 42 -34 46 -36 49 -38 -39 45 -41 -42 -43 -44 -45 -46 -47 -48 -49 50 -51 -52 -53 -54 -55 -56 -57 -58 -59
leaf_value=-0.015887214070262536 -0.012147657170065884 0.01457223498238127 0.017081083781839364 0.0026114682660714973 0.0094615580342773935 0.0091464498688921762 0.014165001347508874 0.024644442566052582 0.029742984974426897 -0.02784451229508916 0.03516166636030324 0.024370081666506369 0.043182922843572696 0.0033487524981772898 0.03054740793336664 -0.0065198044470272014 -0.031242948956641769 -0.0026831391461262281 0.013368441523030745 0.019621154034472062 -0.0092255953491802278 0.026949567818624599 0.013474103840244884 0.038232688850198954 -0.019894609097577207 0.016273441629859855 -0.013148529907825689 -0.032130810607945155 -0.0059925966285696818 0.019399280666274939 -0.032238146568162186 -0.0055574218648286678 0.023998881924034897 0.049194817252297622 0.036441277069597454 -0.010792834260831392 0.027941786890602501 -0.015146573376187435 -0.015049332950795401 0.0093480944701377806 0.028375794016726307 0.04301301884734713 -0.018956784016818658 0.0031999174356958809 -0.00059497912999813816 -0.028674155003054945 0.042051062660095694 0.038946127655100672 0.046686854788568127 -0.0029253107266116723 0.050653524049471231 -0.028767245410274825 -0.026280598206842708 -0.0075837345535349036 -0.023876075534181116 -0.019468857937660681 -0.035631427940628929 -0.035505282006304859
leaf_weight=115.9951601177454 137.43984273076057 176.17859788239002 257.36342379450798 202.85156080126762 235.15670949220657 227.27361215651035 207.07607319951057 190.5759532302618 183.86659273505211 126.92120181024075 205.95517422258854 188.02859584987164 211.96971347928047 261.67135488986969 183.13064688444138 140.08029881119728 143.04836373031139 216.52828781306744 192.87438796460629 287.72955338656902 198.67811225354671 147.80882662534714 287.24511650204659 282.2552836984396 128.92772087454796 181.22614181041718 221.60468935966492 132.70482736825943 168.99342986941338 154.31664472818375 153.35975582897663 148.54304458200932 196.29538618028164 267.22808840870857 878.32731242477894 126.09580625593662 166.2096142321825 142.8422050178051 136.25037054717541 165.46712082624435 264.99447384476662 248.03695127367973 131.91201028227806 184.28335520625114 207.54524590075016 105.27217194437981 559.537019059062 352.26907193660736 283.74020585417747 206.57084193825722 335.0023413002491 111.37462863326073 139.09520706534386 127.73904356360435 133.26832213997841 115.31924812495708 112.09967660903931 102.15514007210732
leaf_count=473 575 537 769 722 801 733 673 531 494 618 537 538 517 922 491 533 719 807 614 832 789 480 890 741 543 578 934 672 645 464 774 604 568 609 2262 508 468 616 587 566 724 614 582 657 777 518 1350 880 666 773 756 551 671 510 628 497 586 526
internal_value=0 5.77925e-05 0.026997 0.0311755 -0.00951716 0.0352024 -0.00349896 0.0373346 0.0245121 -0.00863688 0.0155621 0.00501966 0.0388026 0.0179788 0.0361751 -0.00397581 -0.0150369 -0.0089578 0.0109996 0.0312198 0.00253741 0.0106602 0.0231106 0.0291443 0.00107607 -0.00475762 8.46244e-05 -0.0222233 0.00477226 0.00986959 -0.0261977 -0.0217794 0.016034 0.0411085 0.03434 0.00017015 0.0201196 -0.0242184 -0.0152218 0.00252503 0.0339528 0.0373693 -0.011866 0.00900592 0.00474402 -0.0209964 0.0443633 0.0360777 0.0473989 -0.00591231 0.048839 -0.0322339 -0.0288043 -0.00995546 -0.02582 -0.017681 -0.0336799 -0.0336086
internal_weight=0 6056.78 6039.52 5321.64 4352.54 4230.44 2953.69 3806.87 1704.25 1842.54 1091.2 1111.15 3549.51 1007.35 2718.8 717.882 1067.17 642.185 885.246 1356.63 486.567 287.889 745.679 458.434 923.118 531.759 402.831 1398.85 526.162 357.168 892.149 515.315 423.569 1362.16 1068.9 775.369 359.084 424.986 506.701 381.995 696.898 431.904 280.455 391.359 442.702 241.523 826.765 535.4 830.712 332.667 618.743 376.834 282.144 265.179 260.19 231.314 265.459 234.86
internal_count=40000 22814 17186 14414 17892 10964 11407 9663 4922 7484 3450 3923 8894 3090 6955 2772 4625 2619 2913 3625 1802 1013 2168 1278 3385 2055 1512 6485 1831 1186 4295 2384 1301 3330 2793 2859 1082 2006 2190 1373 1832 1108 1186 1330 1578 1105 1959 1371 1939 1281 1422 1911 1390 1085 1246 970 1360 1198
shrinkage=0.03


Tree=13
num_leaves=63
num_cat=0
split_feature=7 9 7 13 11 3 4 2 0 0 5 2 3 2 8 8 4 4 4 5 5 4 8 6 0 0 0 4 3 5 5 5 6 5 3 6 6 0 0 4 4 5 6 6 3 4 5 8 7 5 1 6 3 6 3 1 6 1 8 9 3 8
split_gain=2289.61 1482.8 815.373 353.471 350.506 183.793 135.683 114.334 135.817 109.829 106.438 96.923 93.5431 88.27 84.1689 78.1849 70.5312 68.5305 65.7783 63.5911 131.997 52.8046 49.9286 47.0428 44.4943 42.0153 40.6841 38.9234 37.1404 31.9712 87.852 28.5515 27.6248 27.1281 26.177 22.8249 28.7015 22.7301 19.0835 18.8755 17.8284 16.4233 15.7362 14.6192 14.2302 13.1927 18.7614 11.8497 10.1621 8.83126 4.722 4.41341 3.76628 2.72099 2.70744 2.59439 2.11721 1.79269 1.42704 1.18528 3.02468 1.04224
threshold=0.38305881959638605 1.0000000180025095e-35 -1.6187292025072715 1.0000000180025095e-35 1.0000000180025095e-35 -0.43171570548524069 1.0000000180025095e-35 -0.31458323369321833 -0.46646390518270142 -0.46646390518270142 0.95982512247355845 0.99667949954621282 1.2053719416282906 -0.31458323369321833 1.0000000180025095e-35 1.0000000180025095e-35 1.0000000180025095e-35 1.0000000180025095e-35 1.0000000180025095e-35 1.0420104322762469 -1.5852248810883856 1.0000000180025095e-35 1.0000000180025095e-35 -0.68355392330720866 -0.20551237645192386 -0.46646390518270142 -0.46646390518270142 1.0000000180025095e-35 0.38933898869593209 -1.3346270511982208 1.0420104322762469 -0.17729621315708269 -0.59423699501614424 0.77928690093978359 -0.2208025730350312 -0.65728423851571915 0.55287257421223301 -0.46646390518270142 -0.20551237645192386 1.0000000180025095e-35 1.0000000180025095e-35 0.77928690093978359 -0.17217072603287872 -0.44187282322550486 0.50232816679425862 1.0000000180025095e-35 0.80353830383238012 1.0000000180025095e-35 -0.50662474578301775 1.0420104322762469 0.61856499682357047 -0.31052439926805714 0.010197524410436342 -0.26323896664337582 0.025262748156879917 -0.090498683900401194 -0.20719697242153148 0.26403315646158459 1.0000000180025095e-35 1.0000000180025095e-35 -0.024954664331265208 1.0000000180025095e-35
decision_type=2 2 2 2 2 2 2 2 2 2 2 2 2 2 2 2 2 2 2 2 2 2 2 2 2 2 2 2 2 2 2 2 2 2 2 2 2 2 2 2 2 2 2 2 2 2 2 2 2 2 2 2 2 2 2 2 2 2 2 2 2 2
left_child=2 3 17 25 5 15 9 8 40 35 14 22 -9 23 16 21 31 26 24 20 61 32 39 -8 -10 41 -1 -17 54 -25 -31 -6 -4 -28 45 -5 49 -32 57 44 51 58 -34 -22 52 50 -47 -43 -23 -37 55 -3 -7 -52 -24 -27 -50 -21 -2 60 -41 -11
right_child=1 7 4 6 10 11 13 12 18 19 -12 -13 -14 -15 -16 27 -18 -19 -20 38 43 48 28 29 -26 34 33 -29 -30 30 37 -33 42 -35 -36 36 -38 -39 -40 59 -42 47 -44 -45 -46 46 -48 -49 56 -51 53 -53 -54 -55 -56 -57 -58 -59 -60 -61 -62 -63
leaf_value=-7.1367781042157351e-05 -0.011838813935267202 0.021241657264162935 0.01462479771760402 -0.010472202920833845 0.0063607603268452766 0.045656824463571846 -0.015542044942574475 0.047797363884338022 -0.0080952577383125411 -0.023521617728353154 -0.0082323240542505564 0.019446753837826267 0.020451681660243519 0.023569535044459859 0.0041335517707713001 0.0054781803039207402 0.035625173729219632 0.0091093540295746137 0.02065771312755782 -0.030772654610290315 -0.0050020570726519225 0.031076915967771492 0.041901458006513237 -0.007802486130965975 0.012706893885480644 -0.031870580104796882 -0.010240213147673892 0.023737152104932987 0.024272579608604593 0.020601545262709044 0.0050834809422381274 0.022750319561415426 0.032642902323350986 -0.029425502878624561 -0.014869861112861787 0.0098446024844181211 -0.0082369324078904946 -0.0097728584615668045 -0.014782676707453651 0.048809102929979288 0.035384473381032802 -0.014687069810613591 0.022248856982861283 0.0070666064818087479 0.03408348861173368 -0.014995329495135178 -0.031449127039381762 -0.028198599523097483 0.041424218685181348 0.0014314852852274121 -0.037972006222590123 0.028104505717817769 0.04080006907079705 -0.031241623449007855 0.036832378411138032 -0.025388946980331364 0.03697183396062205 -0.025808426487375975 -0.0073762753812689546 0.048626285122141878 0.043806191624403863 -0.027535220333540771
leaf_weight=197.12814019620419 136.80502489209175 163.96267485618591 181.60249575972557 147.03957538306713 161.11016337573528 285.19887638092041 131.85080026090145 271.28163909912109 205.4188557267189 140.64644406735897 151.81505315005779 201.4436864554882 192.95439429581165 188.57496584951878 255.68669983744621 191.74153715372086 287.80931447446346 242.36475722491741 272.40044333040714 140.91046036779881 146.17356918752193 196.99809178709984 208.84306383132935 167.88948167860508 168.33279196918011 101.63584661483765 166.5216518342495 233.13435749709606 227.33609712123871 252.22684381902218 185.12592273950577 236.57477778196335 307.00662592053413 110.65121692419052 163.24966026842594 277.15699876844883 161.54755319654942 185.45192413032055 141.98160496354103 215.32964147627354 251.73255413770676 135.4358946532011 231.59113292396069 236.05183926224709 217.09748974442482 134.88291645050049 116.96061417460442 103.85811340808868 227.97230952978134 189.49908231198788 104.07818877696991 181.56770053505898 320.82378920912743 125.45068199932575 194.81016752123833 134.8906834423542 190.69936053454876 137.41688850522041 127.39785146713257 348.2248515188694 252.69394026696682 116.48645417392254
leaf_count=729 575 484 547 583 532 668 524 653 744 677 551 577 556 538 891 613 763 836 773 719 547 523 509 660 548 503 677 656 624 787 637 713 821 530 724 952 624 777 616 487 648 587 666 826 562 623 606 518 562 700 536 516 782 635 492 668 487 671 510 792 596 569
internal_value=0 5.41832e-05 0.0261753 -0.00928084 0.0302181 0.0341294 -0.00340434 0.0237288 0.0189825 -0.00841458 0.0150699 0.0394071 0.0364364 0.00486834 0.0188302 0.0267191 0.0243096 -0.00386458 0.0094462 -0.0146923 -0.00872956 0.0302855 0.0411773 0.00104357 0.00127028 -0.0217826 -0.0104973 0.0155013 0.0339925 0.00381149 0.00694472 0.016115 0.0247628 -0.0179065 -0.0257353 0.000164691 0.00265697 -0.00234764 -0.023758 0.0439412 0.0292961 -0.0148613 0.0281776 0.00244754 0.0407175 -0.0282034 -0.0226449 -0.0205598 0.0367421 0.00643149 -0.0312025 0.0248539 0.04309 -0.0343038 0.0394612 -0.0281834 0.0394022 -0.0283295 -0.00969327 0.047189 0.0461137 -0.0253481
internal_weight=0 6038.33 6042.21 4330.68 5325.54 4232.55 2946.03 1707.65 1243.42 1834.91 1093 2471.8 464.236 1111.12 941.181 1760.75 685.494 716.666 646.152 1059.67 639.358 1335.87 2270.36 922.545 373.752 1384.65 474.301 424.876 630.989 790.694 622.805 397.685 720.2 277.173 881.149 775.243 628.204 370.578 420.309 1639.37 597.263 503.497 538.598 382.225 823.12 717.899 251.844 239.294 615.67 466.656 466.055 345.53 606.023 229.529 403.653 236.527 418.672 278.327 264.203 816.248 468.024 257.133
internal_count=40000 22814 17186 17892 14414 10964 11407 4922 3713 7484 3450 6089 1209 3923 2899 4875 2008 2772 2065 4625 2619 3606 5512 3385 1292 6485 1936 1269 1625 2861 2201 1245 2034 1207 4295 2859 2276 1414 2006 3887 1648 2190 1487 1373 2012 3571 1229 1105 1572 1652 2342 1000 1450 1171 1001 1171 1049 1390 1085 1875 1083 1246
shrinkage=0.03


Tree=14
num_leaves=60
num_cat=0
split_feature=7 9 7 13 11 5 4 5 13 0 9 9 2 4 13 4 5 5 5 5 1 0 6 5 5 0 5 8 0 0 5 5 5 3 4 8 6 3 0 5 5 1 1 8 5 3 5 7 6 0 6 0 0 1 8 1 6 5 8
split_gain=2151.19 1395.75 765.847 337.776 331.37 179.459 128.156 117.626 110.396 104.505 99.6641 82.9214 82.778 68.6703 67.2846 64.9411 61.1566 126.073 50.8585 59.0635 50.4165 50.2446 44.4215 43.2583 61.466 40.8351 38.9702 33.696 31.1603 39.082 30.769 25.7357 66.1464 23.1241 22.8898 22.7278 21.9906 18.7447 18.618 15.8029 15.3435 14.4578 13.2683 11.5365 11.1163 9.14517 8.9186 4.96838 4.89264 4.17505 4.07194 2.92115 1.99627 1.77175 1.35863 1.04306 0.722159 0.662362 0.604086
threshold=0.38305881959638605 1.0000000180025095e-35 -1.6187292025072715 1.0000000180025095e-35 1.0000000180025095e-35 1.0420104322762469 1.0000000180025095e-35 -1.0894184219508549 1.0000000180025095e-35 -0.46646390518270142 1.0000000180025095e-35 1.0000000180025095e-35 -0.31458323369321833 1.0000000180025095e-35 1.0000000180025095e-35 1.0000000180025095e-35 1.0420104322762469 -1.5852248810883856 0.77928690093978359 -0.73238387936540505 0.61856499682357047 -0.46646390518270142 -0.68355392330720866 1.0420104322762469 -0.9169640013812792 -0.46646390518270142 1.0420104322762469 1.0000000180025095e-35 -0.46646390518270142 -0.20551237645192386 0.82240050608217763 1.0420104322762469 -1.3346270511982208 -0.41665048173879721 1.0000000180025095e-35 1.0000000180025095e-35 -0.61875536748820115 -0.43171570548524069 -0.20551237645192386 0.77928690093978359 0.77928690093978359 0.61856499682357047 0.61856499682357047 1.0000000180025095e-35 0.63108388326280429 -0.070150335570595829 -0.19076921476408082 1.0000000180025095e-35 -0.46113725873926387 -0.46646390518270142 -0.45238069714210066 0.31639068100963136 -0.20551237645192386 0.26403315646158459 1.0000000180025095e-35 1.0000000180025095e-35 0.067759061729392486 0.10563682058987771 1.0000000180025095e-35
decision_type=2 2 2 2 2 2 2 2 2 2 2 2 2 2 2 2 2 2 2 2 2 2 2 2 2 2 2 2 2 2 2 2 2 2 2 2 2 2 2 2 2 2 2 2 2 2 2 2 2 2 2 2 2 2 2 2 2 2 2
left_child=2 3 14 25 5 7 9 -4 26 35 18 13 22 20 57 23 17 55 19 -6 36 -16 -8 24 -10 39 -3 37 40 30 -30 32 58 46 -7 44 -9 -21 53 54 -24 -19 -34 -41 -5 -35 -15 -13 -37 -17 -23 -49 56 -18 -2 -11 -33 -1 -27
right_child=1 8 4 6 10 34 12 11 15 16 -12 47 -14 33 21 49 38 41 -20 27 -22 50 28 -25 -26 31 -28 -29 29 -31 -32 52 42 45 -36 48 -38 -39 -40 43 -42 -43 -44 -45 -46 -47 -48 51 -50 -51 -52 -53 -54 -55 -56 -57 -58 -59 -60
