digraph Tree {
node [shape=box, style="filled, rounded", color="black", fontname=helvetica] ;
edge [fontname=helvetica] ;
0 [label="weekday_pct <= 1.04\ngini = 0.46\nsamples = 25251\nvalue = [25964, 14036]\nclass = t", fillcolor="#f3c5a4"] ;
1 [label="surge_pct <= -0.43\ngini = 0.49\nsamples = 16858\nvalue = [15151, 11524]\nclass = t", fillcolor="#f9e1d0"] ;
0 -> 1 [labeldistance=2.5, labelangle=45, headlabel="True"] ;
2 [label="avg_rating_by_driver <= 0.38\ngini = 0.44\nsamples = 9847\nvalue = [10443, 5051]\nclass = t", fillcolor="#f2be99"] ;
1 -> 2 ;
3 [label="phone_iPhone <= -0.41\ngini = 0.5\nsamples = 4178\nvalue = [3493, 3005]\nclass = t", fillcolor="#fbede3"] ;
2 -> 3 ;
4 [label="weekday_pct <= -0.22\ngini = 0.42\nsamples = 1223\nvalue = [1318, 573]\nclass = t", fillcolor="#f0b88f"] ;
3 -> 4 ;
5 [label="trips_in_first_30_days <= 0.32\ngini = 0.33\nsamples = 643\nvalue = [793, 205]\nclass = t", fillcolor="#eca26c"] ;
4 -> 5 ;
6 [label="avg_rating_by_driver <= -0.51\ngini = 0.31\nsamples = 549\nvalue = [696, 162]\nclass = t", fillcolor="#eb9e67"] ;
5 -> 6 ;
7 [label="ultimate_black_user <= 0.25\ngini = 0.23\nsamples = 365\nvalue = [492, 75]\nclass = t", fillcolor="#e99457"] ;
6 -> 7 ;
8 [label="avg_rating_of_driver <= -0.09\ngini = 0.15\nsamples = 243\nvalue = [338, 29]\nclass = t", fillcolor="#e78c4a"] ;
7 -> 8 ;
9 [label="avg_dist <= -0.2\ngini = 0.26\nsamples = 69\nvalue = [85, 15]\nclass = t", fillcolor="#ea975c"] ;
8 -> 9 ;
10 [label="city_King's Landing <= 0.74\ngini = 0.33\nsamples = 47\nvalue = [53, 14]\nclass = t", fillcolor="#eca26d"] ;
9 -> 10 ;
11 [label="trips_in_first_30_days <= -0.47\ngini = 0.3\nsamples = 42\nvalue = [49, 11]\nclass = t", fillcolor="#eb9d65"] ;
10 -> 11 ;
12 [label="weekday_pct <= -0.85\ngini = 0.45\nsamples = 15\nvalue = [13, 7]\nclass = t", fillcolor="#f3c5a4"] ;
11 -> 12 ;
13 [label="avg_dist <= -0.29\ngini = 0.32\nsamples = 8\nvalue = [8, 2]\nclass = t", fillcolor="#eca06a"] ;
12 -> 13 ;
14 [label="avg_rating_by_driver <= -2.51\ngini = 0.2\nsamples = 7\nvalue = [8, 1]\nclass = t", fillcolor="#e89152"] ;
13 -> 14 ;
15 [label="gini = 0.0\nsamples = 1\nvalue = [0, 1]\nclass = a", fillcolor="#399de5"] ;
14 -> 15 ;
16 [label="gini = 0.0\nsamples = 6\nvalue = [8, 0]\nclass = t", fillcolor="#e58139"] ;
14 -> 16 ;
17 [label="gini = 0.0\nsamples = 1\nvalue = [0, 1]\nclass = a", fillcolor="#399de5"] ;
13 -> 17 ;
18 [label="avg_rating_by_driver <= -0.84\ngini = 0.5\nsamples = 7\nvalue = [5, 5]\nclass = t", fillcolor="#ffffff"] ;
12 -> 18 ;
19 [label="weekday_pct <= -0.43\ngini = 0.44\nsamples = 4\nvalue = [4, 2]\nclass = t", fillcolor="#f2c09c"] ;
18 -> 19 ;
20 [label="gini = 0.0\nsamples = 2\nvalue = [3, 0]\nclass = t", fillcolor="#e58139"] ;
19 -> 20 ;
21 [label="avg_rating_by_driver <= -2.29\ngini = 0.44\nsamples = 2\nvalue = [1, 2]\nclass = a", fillcolor="#9ccef2"] ;
19 -> 21 ;
22 [label="gini = 0.0\nsamples = 1\nvalue = [1, 0]\nclass = t", fillcolor="#e58139"] ;
21 -> 22 ;
23 [label="gini = 0.0\nsamples = 1\nvalue = [0, 2]\nclass = a", fillcolor="#399de5"] ;
21 -> 23 ;
24 [label="avg_dist <= -0.27\ngini = 0.38\nsamples = 3\nvalue = [1, 3]\nclass = a", fillcolor="#7bbeee"] ;
18 -> 24 ;
25 [label="gini = 0.0\nsamples = 2\nvalue = [0, 3]\nclass = a", fillcolor="#399de5"] ;
24 -> 25 ;
26 [label="gini = 0.0\nsamples = 1\nvalue = [1, 0]\nclass = t", fillcolor="#e58139"] ;
24 -> 26 ;
27 [label="avg_dist <= -0.29\ngini = 0.18\nsamples = 27\nvalue = [36, 4]\nclass = t", fillcolor="#e88f4f"] ;
11 -> 27 ;
28 [label="avg_dist <= -0.79\ngini = 0.14\nsamples = 26\nvalue = [36, 3]\nclass = t", fillcolor="#e78c49"] ;
27 -> 28 ;
29 [label="avg_rating_of_driver <= -2.39\ngini = 0.44\nsamples = 2\nvalue = [2, 1]\nclass = t", fillcolor="#f2c09c"] ;
28 -> 29 ;
30 [label="gini = 0.0\nsamples = 1\nvalue = [2, 0]\nclass = t", fillcolor="#e58139"] ;
29 -> 30 ;
31 [label="gini = 0.0\nsamples = 1\nvalue = [0, 1]\nclass = a", fillcolor="#399de5"] ;
29 -> 31 ;
32 [label="city_Astapor <= 0.36\ngini = 0.1\nsamples = 24\nvalue = [34, 2]\nclass = t", fillcolor="#e78845"] ;
28 -> 32 ;
33 [label="avg_rating_of_driver <= -0.36\ngini = 0.12\nsamples = 21\nvalue = [29, 2]\nclass = t", fillcolor="#e78a47"] ;
32 -> 33 ;
34 [label="gini = 0.0\nsamples = 16\nvalue = [22, 0]\nclass = t", fillcolor="#e58139"] ;
33 -> 34 ;
35 [label="avg_rating_by_driver <= -1.51\ngini = 0.35\nsamples = 5\nvalue = [7, 2]\nclass = t", fillcolor="#eca572"] ;
33 -> 35 ;
36 [label="gini = 0.0\nsamples = 3\nvalue = [6, 0]\nclass = t", fillcolor="#e58139"] ;
35 -> 36 ;
37 [label="trips_in_first_30_days <= 0.06\ngini = 0.44\nsamples = 2\nvalue = [1, 2]\nclass = a", fillcolor="#9ccef2"] ;
35 -> 37 ;
38 [label="gini = 0.0\nsamples = 1\nvalue = [0, 2]\nclass = a", fillcolor="#399de5"] ;
37 -> 38 ;
39 [label="gini = 0.0\nsamples = 1\nvalue = [1, 0]\nclass = t", fillcolor="#e58139"] ;
37 -> 39 ;
40 [label="gini = 0.0\nsamples = 3\nvalue = [5, 0]\nclass = t", fillcolor="#e58139"] ;
32 -> 40 ;
41 [label="gini = 0.0\nsamples = 1\nvalue = [0, 1]\nclass = a", fillcolor="#399de5"] ;
27 -> 41 ;
42 [label="avg_dist <= -0.23\ngini = 0.49\nsamples = 5\nvalue = [4, 3]\nclass = t", fillcolor="#f8e0ce"] ;
10 -> 42 ;
43 [label="avg_rating_of_driver <= -1.33\ngini = 0.44\nsamples = 4\nvalue = [4, 2]\nclass = t", fillcolor="#f2c09c"] ;
42 -> 43 ;
44 [label="avg_dist <= -0.67\ngini = 0.44\nsamples = 2\nvalue = [1, 2]\nclass = a", fillcolor="#9ccef2"] ;
43 -> 44 ;
45 [label="gini = 0.0\nsamples = 1\nvalue = [1, 0]\nclass = t", fillcolor="#e58139"] ;
44 -> 45 ;
46 [label="gini = 0.0\nsamples = 1\nvalue = [0, 2]\nclass = a", fillcolor="#399de5"] ;
44 -> 46 ;
47 [label="gini = 0.0\nsamples = 2\nvalue = [3, 0]\nclass = t", fillcolor="#e58139"] ;
43 -> 47 ;
48 [label="gini = 0.0\nsamples = 1\nvalue = [0, 1]\nclass = a", fillcolor="#399de5"] ;
42 -> 48 ;
49 [label="avg_dist <= 0.37\ngini = 0.06\nsamples = 22\nvalue = [32, 1]\nclass = t", fillcolor="#e6853f"] ;
9 -> 49 ;
50 [label="gini = 0.0\nsamples = 13\nvalue = [22, 0]\nclass = t", fillcolor="#e58139"] ;
49 -> 50 ;
51 [label="city_Winterfell <= 0.07\ngini = 0.17\nsamples = 9\nvalue = [10, 1]\nclass = t", fillcolor="#e88e4d"] ;
49 -> 51 ;
52 [label="gini = 0.0\nsamples = 4\nvalue = [5, 0]\nclass = t", fillcolor="#e58139"] ;
51 -> 52 ;
53 [label="weekday_pct <= -1.04\ngini = 0.28\nsamples = 5\nvalue = [5, 1]\nclass = t", fillcolor="#ea9a61"] ;
51 -> 53 ;
54 [label="gini = 0.0\nsamples = 3\nvalue = [4, 0]\nclass = t", fillcolor="#e58139"] ;
53 -> 54 ;
55 [label="avg_rating_of_driver <= -0.8\ngini = 0.5\nsamples = 2\nvalue = [1, 1]\nclass = t", fillcolor="#ffffff"] ;
53 -> 55 ;
56 [label="gini = 0.0\nsamples = 1\nvalue = [1, 0]\nclass = t", fillcolor="#e58139"] ;
55 -> 56 ;
57 [label="gini = 0.0\nsamples = 1\nvalue = [0, 1]\nclass = a", fillcolor="#399de5"] ;
55 -> 57 ;
58 [label="avg_rating_by_driver <= -1.4\ngini = 0.1\nsamples = 174\nvalue = [253, 14]\nclass = t", fillcolor="#e68844"] ;
8 -> 58 ;
59 [label="city_Winterfell <= 0.07\ngini = 0.14\nsamples = 120\nvalue = [168, 14]\nclass = t", fillcolor="#e78c49"] ;
58 -> 59 ;
60 [label="city_King's Landing <= 0.74\ngini = 0.22\nsamples = 47\nvalue = [61, 9]\nclass = t", fillcolor="#e99456"] ;
59 -> 60 ;
61 [label="trips_in_first_30_days <= -0.21\ngini = 0.18\nsamples = 35\nvalue = [44, 5]\nclass = t", fillcolor="#e88f50"] ;
60 -> 61 ;
62 [label="weekday_pct <= -1.19\ngini = 0.1\nsamples = 29\nvalue = [37, 2]\nclass = t", fillcolor="#e68844"] ;
61 -> 62 ;
63 [label="trips_in_first_30_days <= -0.47\ngini = 0.11\nsamples = 24\nvalue = [31, 2]\nclass = t", fillcolor="#e78946"] ;
62 -> 63 ;
64 [label="avg_rating_by_driver <= -5.07\ngini = 0.17\nsamples = 16\nvalue = [20, 2]\nclass = t", fillcolor="#e88e4d"] ;
63 -> 64 ;
65 [label="gini = 0.0\nsamples = 1\nvalue = [1, 0]\nclass = t", fillcolor="#e58139"] ;
64 -> 65 ;
66 [label="avg_rating_of_driver <= 0.35\ngini = 0.17\nsamples = 15\nvalue = [19, 2]\nclass = t", fillcolor="#e88e4e"] ;
64 -> 66 ;
67 [label="avg_dist <= -0.2\ngini = 0.26\nsamples = 9\nvalue = [11, 2]\nclass = t", fillcolor="#ea985d"] ;
66 -> 67 ;
68 [label="avg_rating_by_driver <= -2.84\ngini = 0.41\nsamples = 5\nvalue = [5, 2]\nclass = t", fillcolor="#efb388"] ;
67 -> 68 ;
69 [label="avg_dist <= -0.84\ngini = 0.38\nsamples = 2\nvalue = [3, 1]\nclass = t", fillcolor="#eeab7b"] ;
68 -> 69 ;
70 [label="gini = 0.0\nsamples = 1\nvalue = [3, 0]\nclass = t", fillcolor="#e58139"] ;
69 -> 70 ;
71 [label="gini = 0.0\nsamples = 1\nvalue = [0, 1]\nclass = a", fillcolor="#399de5"] ;
69 -> 71 ;
72 [label="avg_dist <= -0.37\ngini = 0.44\nsamples = 3\nvalue = [2, 1]\nclass = t", fillcolor="#f2c09c"] ;
68 -> 72 ;
73 [label="gini = 0.0\nsamples = 2\nvalue = [2, 0]\nclass = t", fillcolor="#e58139"] ;
72 -> 73 ;
74 [label="gini = 0.0\nsamples = 1\nvalue = [0, 1]\nclass = a", fillcolor="#399de5"] ;
72 -> 74 ;
75 [label="gini = 0.0\nsamples = 4\nvalue = [6, 0]\nclass = t", fillcolor="#e58139"] ;
67 -> 75 ;
76 [label="gini = 0.0\nsamples = 6\nvalue = [8, 0]\nclass = t", fillcolor="#e58139"] ;
66 -> 76 ;
77 [label="gini = 0.0\nsamples = 8\nvalue = [11, 0]\nclass = t", fillcolor="#e58139"] ;
63 -> 77 ;
78 [label="gini = 0.0\nsamples = 5\nvalue = [6, 0]\nclass = t", fillcolor="#e58139"] ;
62 -> 78 ;
79 [label="weekday_pct <= -1.06\ngini = 0.42\nsamples = 6\nvalue = [7, 3]\nclass = t", fillcolor="#f0b78e"] ;
61 -> 79 ;
80 [label="gini = 0.0\nsamples = 3\nvalue = [4, 0]\nclass = t", fillcolor="#e58139"] ;
79 -> 80 ;
81 [label="avg_dist <= -0.48\ngini = 0.5\nsamples = 3\nvalue = [3, 3]\nclass = t", fillcolor="#ffffff"] ;
79 -> 81 ;
82 [label="gini = 0.0\nsamples = 2\nvalue = [3, 0]\nclass = t", fillcolor="#e58139"] ;
81 -> 82 ;
83 [label="gini = 0.0\nsamples = 1\nvalue = [0, 3]\nclass = a", fillcolor="#399de5"] ;
81 -> 83 ;
84 [label="avg_rating_of_driver <= 0.35\ngini = 0.31\nsamples = 12\nvalue = [17, 4]\nclass = t", fillcolor="#eb9f68"] ;
60 -> 84 ;
85 [label="trips_in_first_30_days <= -0.47\ngini = 0.41\nsamples = 5\nvalue = [5, 2]\nclass = t", fillcolor="#efb388"] ;
84 -> 85 ;
86 [label="gini = 0.0\nsamples = 2\nvalue = [2, 0]\nclass = t", fillcolor="#e58139"] ;
85 -> 86 ;
87 [label="avg_rating_by_driver <= -2.29\ngini = 0.48\nsamples = 3\nvalue = [3, 2]\nclass = t", fillcolor="#f6d5bd"] ;
85 -> 87 ;
88 [label="gini = 0.0\nsamples = 1\nvalue = [0, 2]\nclass = a", fillcolor="#399de5"] ;
87 -> 88 ;
89 [label="gini = 0.0\nsamples = 2\nvalue = [3, 0]\nclass = t", fillcolor="#e58139"] ;
87 -> 89 ;
90 [label="trips_in_first_30_days <= -0.21\ngini = 0.24\nsamples = 7\nvalue = [12, 2]\nclass = t", fillcolor="#e9965a"] ;
84 -> 90 ;
91 [label="trips_in_first_30_days <= -0.47\ngini = 0.35\nsamples = 5\nvalue = [7, 2]\nclass = t", fillcolor="#eca572"] ;
90 -> 91 ;
92 [label="gini = 0.0\nsamples = 1\nvalue = [2, 0]\nclass = t", fillcolor="#e58139"] ;
91 -> 92 ;
93 [label="avg_dist <= -0.77\ngini = 0.41\nsamples = 4\nvalue = [5, 2]\nclass = t", fillcolor="#efb388"] ;
91 -> 93 ;
94 [label="gini = 0.0\nsamples = 2\nvalue = [4, 0]\nclass = t", fillcolor="#e58139"] ;
93 -> 94 ;
95 [label="avg_dist <= -0.62\ngini = 0.44\nsamples = 2\nvalue = [1, 2]\nclass = a", fillcolor="#9ccef2"] ;
93 -> 95 ;
96 [label="gini = 0.0\nsamples = 1\nvalue = [0, 2]\nclass = a", fillcolor="#399de5"] ;
95 -> 96 ;
97 [label="gini = 0.0\nsamples = 1\nvalue = [1, 0]\nclass = t", fillcolor="#e58139"] ;
95 -> 97 ;
98 [label="gini = 0.0\nsamples = 2\nvalue = [5, 0]\nclass = t", fillcolor="#e58139"] ;
90 -> 98 ;
99 [label="avg_rating_of_driver <= 0.09\ngini = 0.09\nsamples = 73\nvalue = [107, 5]\nclass = t", fillcolor="#e68742"] ;
59 -> 99 ;
100 [label="avg_dist <= -0.46\ngini = 0.11\nsamples = 34\nvalue = [46, 3]\nclass = t", fillcolor="#e78946"] ;
99 -> 100 ;
101 [label="gini = 0.0\nsamples = 15\nvalue = [23, 0]\nclass = t", fillcolor="#e58139"] ;
100 -> 101 ;
102 [label="avg_rating_by_driver <= -2.06\ngini = 0.2\nsamples = 19\nvalue = [23, 3]\nclass = t", fillcolor="#e89153"] ;
100 -> 102 ;
103 [label="avg_rating_by_driver <= -3.18\ngini = 0.26\nsamples = 8\nvalue = [11, 2]\nclass = t", fillcolor="#ea985d"] ;
102 -> 103 ;
104 [label="trips_in_first_30_days <= -0.47\ngini = 0.15\nsamples = 7\nvalue = [11, 1]\nclass = t", fillcolor="#e78c4b"] ;
103 -> 104 ;
105 [label="avg_dist <= -0.27\ngini = 0.44\nsamples = 2\nvalue = [2, 1]\nclass = t", fillcolor="#f2c09c"] ;
104 -> 105 ;
106 [label="gini = 0.0\nsamples = 1\nvalue = [0, 1]\nclass = a", fillcolor="#399de5"] ;
105 -> 106 ;
107 [label="gini = 0.0\nsamples = 1\nvalue = [2, 0]\nclass = t", fillcolor="#e58139"] ;
105 -> 107 ;
108 [label="gini = 0.0\nsamples = 5\nvalue = [9, 0]\nclass = t", fillcolor="#e58139"] ;
104 -> 108 ;
109 [label="gini = 0.0\nsamples = 1\nvalue = [0, 1]\nclass = a", fillcolor="#399de5"] ;
103 -> 109 ;
110 [label="avg_dist <= -0.36\ngini = 0.14\nsamples = 11\nvalue = [12, 1]\nclass = t", fillcolor="#e78c49"] ;
102 -> 110 ;
111 [label="gini = 0.0\nsamples = 1\nvalue = [0, 1]\nclass = a", fillcolor="#399de5"] ;
110 -> 111 ;
112 [label="gini = 0.0\nsamples = 10\nvalue = [12, 0]\nclass = t", fillcolor="#e58139"] ;
110 -> 112 ;
113 [label="trips_in_first_30_days <= -0.47\ngini = 0.06\nsamples = 39\nvalue = [61, 2]\nclass = t", fillcolor="#e6853f"] ;
99 -> 113 ;
114 [label="avg_dist <= -0.51\ngini = 0.16\nsamples = 16\nvalue = [21, 2]\nclass = t", fillcolor="#e78d4c"] ;
113 -> 114 ;
115 [label="weekday_pct <= -1.3\ngini = 0.3\nsamples = 7\nvalue = [9, 2]\nclass = t", fillcolor="#eb9d65"] ;
114 -> 115 ;
116 [label="avg_rating_by_driver <= -2.06\ngini = 0.35\nsamples = 5\nvalue = [7, 2]\nclass = t", fillcolor="#eca572"] ;
115 -> 116 ;
117 [label="avg_rating_by_driver <= -3.18\ngini = 0.48\nsamples = 3\nvalue = [3, 2]\nclass = t", fillcolor="#f6d5bd"] ;
116 -> 117 ;
118 [label="gini = 0.0\nsamples = 1\nvalue = [2, 0]\nclass = t", fillcolor="#e58139"] ;
117 -> 118 ;
119 [label="avg_dist <= -0.58\ngini = 0.44\nsamples = 2\nvalue = [1, 2]\nclass = a", fillcolor="#9ccef2"] ;
117 -> 119 ;
120 [label="gini = 0.0\nsamples = 1\nvalue = [1, 0]\nclass = t", fillcolor="#e58139"] ;
119 -> 120 ;
121 [label="gini = 0.0\nsamples = 1\nvalue = [0, 2]\nclass = a", fillcolor="#399de5"] ;
119 -> 121 ;
122 [label="gini = 0.0\nsamples = 2\nvalue = [4, 0]\nclass = t", fillcolor="#e58139"] ;
116 -> 122 ;
123 [label="gini = 0.0\nsamples = 2\nvalue = [2, 0]\nclass = t", fillcolor="#e58139"] ;
115 -> 123 ;
124 [label="gini = 0.0\nsamples = 9\nvalue = [12, 0]\nclass = t", fillcolor="#e58139"] ;
114 -> 124 ;
125 [label="gini = 0.0\nsamples = 23\nvalue = [40, 0]\nclass = t", fillcolor="#e58139"] ;
113 -> 125 ;
126 [label="gini = 0.0\nsamples = 54\nvalue = [85, 0]\nclass = t", fillcolor="#e58139"] ;
58 -> 126 ;
127 [label="avg_dist <= -0.55\ngini = 0.35\nsamples = 122\nvalue = [154, 46]\nclass = t", fillcolor="#eda774"] ;
7 -> 127 ;
128 [label="phone_Android <= 0.43\ngini = 0.12\nsamples = 48\nvalue = [70, 5]\nclass = t", fillcolor="#e78a47"] ;
127 -> 128 ;
129 [label="gini = 0.0\nsamples = 3\nvalue = [7, 0]\nclass = t", fillcolor="#e58139"] ;
128 -> 129 ;
130 [label="city_Astapor <= 0.36\ngini = 0.14\nsamples = 45\nvalue = [63, 5]\nclass = t", fillcolor="#e78b49"] ;
128 -> 130 ;
131 [label="trips_in_first_30_days <= 0.06\ngini = 0.16\nsamples = 27\nvalue = [41, 4]\nclass = t", fillcolor="#e88d4c"] ;
130 -> 131 ;
132 [label="avg_dist <= -0.59\ngini = 0.13\nsamples = 24\nvalue = [39, 3]\nclass = t", fillcolor="#e78b48"] ;
131 -> 132 ;
133 [label="avg_dist <= -0.82\ngini = 0.1\nsamples = 22\nvalue = [36, 2]\nclass = t", fillcolor="#e68844"] ;
132 -> 133 ;
134 [label="gini = 0.0\nsamples = 7\nvalue = [14, 0]\nclass = t", fillcolor="#e58139"] ;
133 -> 134 ;
135 [label="avg_dist <= -0.81\ngini = 0.15\nsamples = 15\nvalue = [22, 2]\nclass = t", fillcolor="#e78c4b"] ;
133 -> 135 ;
136 [label="gini = 0.0\nsamples = 1\nvalue = [0, 1]\nclass = a", fillcolor="#399de5"] ;
135 -> 136 ;
137 [label="trips_in_first_30_days <= -0.47\ngini = 0.08\nsamples = 14\nvalue = [22, 1]\nclass = t", fillcolor="#e68742"] ;
135 -> 137 ;
138 [label="avg_dist <= -0.75\ngini = 0.14\nsamples = 8\nvalue = [12, 1]\nclass = t", fillcolor="#e78c49"] ;
137 -> 138 ;
139 [label="avg_rating_of_driver <= 0.35\ngini = 0.38\nsamples = 3\nvalue = [3, 1]\nclass = t", fillcolor="#eeab7b"] ;
138 -> 139 ;
140 [label="avg_rating_by_driver <= -1.17\ngini = 0.44\nsamples = 2\nvalue = [2, 1]\nclass = t", fillcolor="#f2c09c"] ;
139 -> 140 ;
141 [label="gini = 0.0\nsamples = 1\nvalue = [2, 0]\nclass = t", fillcolor="#e58139"] ;
140 -> 141 ;
142 [label="gini = 0.0\nsamples = 1\nvalue = [0, 1]\nclass = a", fillcolor="#399de5"] ;
140 -> 142 ;
143 [label="gini = 0.0\nsamples = 1\nvalue = [1, 0]\nclass = t", fillcolor="#e58139"] ;
139 -> 143 ;
144 [label="gini = 0.0\nsamples = 5\nvalue = [9, 0]\nclass = t", fillcolor="#e58139"] ;
138 -> 144 ;
145 [label="gini = 0.0\nsamples = 6\nvalue = [10, 0]\nclass = t", fillcolor="#e58139"] ;
137 -> 145 ;
146 [label="avg_rating_of_driver <= -0.18\ngini = 0.38\nsamples = 2\nvalue = [3, 1]\nclass = t", fillcolor="#eeab7b"] ;
132 -> 146 ;
147 [label="gini = 0.0\nsamples = 1\nvalue = [3, 0]\nclass = t", fillcolor="#e58139"] ;
146 -> 147 ;
148 [label="gini = 0.0\nsamples = 1\nvalue = [0, 1]\nclass = a", fillcolor="#399de5"] ;
146 -> 148 ;
149 [label="avg_dist <= -0.73\ngini = 0.44\nsamples = 3\nvalue = [2, 1]\nclass = t", fillcolor="#f2c09c"] ;
131 -> 149 ;
150 [label="gini = 0.0\nsamples = 1\nvalue = [0, 1]\nclass = a", fillcolor="#399de5"] ;
149 -> 150 ;
151 [label="gini = 0.0\nsamples = 2\nvalue = [2, 0]\nclass = t", fillcolor="#e58139"] ;
149 -> 151 ;
152 [label="avg_rating_of_driver <= 0.44\ngini = 0.08\nsamples = 18\nvalue = [22, 1]\nclass = t", fillcolor="#e68742"] ;
130 -> 152 ;
153 [label="avg_dist <= -0.66\ngini = 0.17\nsamples = 9\nvalue = [10, 1]\nclass = t", fillcolor="#e88e4d"] ;
152 -> 153 ;
154 [label="avg_rating_of_driver <= 0.09\ngini = 0.44\nsamples = 3\nvalue = [2, 1]\nclass = t", fillcolor="#f2c09c"] ;
153 -> 154 ;
155 [label="gini = 0.0\nsamples = 2\nvalue = [2, 0]\nclass = t", fillcolor="#e58139"] ;
154 -> 155 ;
156 [label="gini = 0.0\nsamples = 1\nvalue = [0, 1]\nclass = a", fillcolor="#399de5"] ;
154 -> 156 ;
157 [label="gini = 0.0\nsamples = 6\nvalue = [8, 0]\nclass = t", fillcolor="#e58139"] ;
153 -> 157 ;
158 [label="gini = 0.0\nsamples = 9\nvalue = [12, 0]\nclass = t", fillcolor="#e58139"] ;
152 -> 158 ;
159 [label="avg_rating_by_driver <= -7.29\ngini = 0.44\nsamples = 74\nvalue = [84, 41]\nclass = t", fillcolor="#f2be9a"] ;
127 -> 159 ;
160 [label="gini = 0.0\nsamples = 2\nvalue = [4, 0]\nclass = t", fillcolor="#e58139"] ;
159 -> 160 ;
161 [label="city_Winterfell <= 0.07\ngini = 0.45\nsamples = 72\nvalue = [80, 41]\nclass = t", fillcolor="#f2c29e"] ;
159 -> 161 ;
162 [label="city_Astapor <= 0.36\ngini = 0.49\nsamples = 25\nvalue = [24, 17]\nclass = t", fillcolor="#f7dac5"] ;
161 -> 162 ;
163 [label="avg_dist <= 1.67\ngini = 0.44\nsamples = 6\nvalue = [4, 8]\nclass = a", fillcolor="#9ccef2"] ;
162 -> 163 ;
164 [label="trips_in_first_30_days <= -0.47\ngini = 0.2\nsamples = 4\nvalue = [1, 8]\nclass = a", fillcolor="#52a9e8"] ;
163 -> 164 ;
165 [label="avg_dist <= 0.33\ngini = 0.38\nsamples = 2\nvalue = [1, 3]\nclass = a", fillcolor="#7bbeee"] ;
164 -> 165 ;
166 [label="gini = 0.0\nsamples = 1\nvalue = [1, 0]\nclass = t", fillcolor="#e58139"] ;
165 -> 166 ;
167 [label="gini = 0.0\nsamples = 1\nvalue = [0, 3]\nclass = a", fillcolor="#399de5"] ;
165 -> 167 ;
168 [label="gini = 0.0\nsamples = 2\nvalue = [0, 5]\nclass = a", fillcolor="#399de5"] ;
164 -> 168 ;
169 [label="gini = 0.0\nsamples = 2\nvalue = [3, 0]\nclass = t", fillcolor="#e58139"] ;
163 -> 169 ;
170 [label="avg_rating_of_driver <= 0.35\ngini = 0.43\nsamples = 19\nvalue = [20, 9]\nclass = t", fillcolor="#f1ba92"] ;
162 -> 170 ;
171 [label="avg_dist <= -0.17\ngini = 0.5\nsamples = 9\nvalue = [8, 7]\nclass = t", fillcolor="#fcefe6"] ;
170 -> 171 ;
172 [label="weekday_pct <= -0.97\ngini = 0.38\nsamples = 4\nvalue = [6, 2]\nclass = t", fillcolor="#eeab7b"] ;
171 -> 172 ;
173 [label="trips_in_first_30_days <= -0.47\ngini = 0.44\nsamples = 3\nvalue = [4, 2]\nclass = t", fillcolor="#f2c09c"] ;
172 -> 173 ;
174 [label="gini = 0.0\nsamples = 1\nvalue = [0, 2]\nclass = a", fillcolor="#399de5"] ;
173 -> 174 ;
175 [label="gini = 0.0\nsamples = 2\nvalue = [4, 0]\nclass = t", fillcolor="#e58139"] ;
173 -> 175 ;
176 [label="gini = 0.0\nsamples = 1\nvalue = [2, 0]\nclass = t", fillcolor="#e58139"] ;
172 -> 176 ;
177 [label="trips_in_first_30_days <= -0.47\ngini = 0.41\nsamples = 5\nvalue = [2, 5]\nclass = a", fillcolor="#88c4ef"] ;
171 -> 177 ;
178 [label="weekday_pct <= -0.97\ngini = 0.38\nsamples = 3\nvalue = [1, 3]\nclass = a", fillcolor="#7bbeee"] ;
177 -> 178 ;
179 [label="avg_rating_of_driver <= -0.53\ngini = 0.44\nsamples = 2\nvalue = [1, 2]\nclass = a", fillcolor="#9ccef2"] ;
178 -> 179 ;
180 [label="gini = 0.0\nsamples = 1\nvalue = [1, 0]\nclass = t", fillcolor="#e58139"] ;
179 -> 180 ;
181 [label="gini = 0.0\nsamples = 1\nvalue = [0, 2]\nclass = a", fillcolor="#399de5"] ;
179 -> 181 ;
182 [label="gini = 0.0\nsamples = 1\nvalue = [0, 1]\nclass = a", fillcolor="#399de5"] ;
178 -> 182 ;
183 [label="avg_rating_by_driver <= -1.95\ngini = 0.44\nsamples = 2\nvalue = [1, 2]\nclass = a", fillcolor="#9ccef2"] ;
177 -> 183 ;
184 [label="gini = 0.0\nsamples = 1\nvalue = [1, 0]\nclass = t", fillcolor="#e58139"] ;
183 -> 184 ;
185 [label="gini = 0.0\nsamples = 1\nvalue = [0, 2]\nclass = a", fillcolor="#399de5"] ;
183 -> 185 ;
186 [label="trips_in_first_30_days <= -0.47\ngini = 0.24\nsamples = 10\nvalue = [12, 2]\nclass = t", fillcolor="#e9965a"] ;
170 -> 186 ;
187 [label="gini = 0.0\nsamples = 4\nvalue = [6, 0]\nclass = t", fillcolor="#e58139"] ;
186 -> 187 ;
188 [label="avg_dist <= 1.25\ngini = 0.38\nsamples = 6\nvalue = [6, 2]\nclass = t", fillcolor="#eeab7b"] ;
186 -> 188 ;
189 [label="gini = 0.0\nsamples = 4\nvalue = [5, 0]\nclass = t", fillcolor="#e58139"] ;
188 -> 189 ;
190 [label="avg_dist <= 2.37\ngini = 0.44\nsamples = 2\nvalue = [1, 2]\nclass = a", fillcolor="#9ccef2"] ;
188 -> 190 ;
191 [label="gini = 0.0\nsamples = 1\nvalue = [0, 2]\nclass = a", fillcolor="#399de5"] ;
190 -> 191 ;
192 [label="gini = 0.0\nsamples = 1\nvalue = [1, 0]\nclass = t", fillcolor="#e58139"] ;
190 -> 192 ;
193 [label="avg_dist <= -0.52\ngini = 0.42\nsamples = 47\nvalue = [56, 24]\nclass = t", fillcolor="#f0b78e"] ;
161 -> 193 ;
194 [label="avg_rating_of_driver <= -1.07\ngini = 0.24\nsamples = 3\nvalue = [1, 6]\nclass = a", fillcolor="#5aade9"] ;
193 -> 194 ;
195 [label="avg_dist <= -0.53\ngini = 0.38\nsamples = 2\nvalue = [1, 3]\nclass = a", fillcolor="#7bbeee"] ;
194 -> 195 ;
196 [label="gini = 0.0\nsamples = 1\nvalue = [1, 0]\nclass = t", fillcolor="#e58139"] ;
195 -> 196 ;
197 [label="gini = 0.0\nsamples = 1\nvalue = [0, 3]\nclass = a", fillcolor="#399de5"] ;
195 -> 197 ;
198 [label="gini = 0.0\nsamples = 1\nvalue = [0, 3]\nclass = a", fillcolor="#399de5"] ;
194 -> 198 ;
199 [label="phone_Android <= 0.43\ngini = 0.37\nsamples = 44\nvalue = [55, 18]\nclass = t", fillcolor="#eeaa7a"] ;
193 -> 199 ;
200 [label="gini = 0.0\nsamples = 2\nvalue = [3, 0]\nclass = t", fillcolor="#e58139"] ;
199 -> 200 ;
201 [label="avg_rating_of_driver <= -0.89\ngini = 0.38\nsamples = 42\nvalue = [52, 18]\nclass = t", fillcolor="#eead7e"] ;
199 -> 201 ;
202 [label="avg_rating_by_driver <= -0.84\ngini = 0.12\nsamples = 10\nvalue = [14, 1]\nclass = t", fillcolor="#e78a47"] ;
201 -> 202 ;
203 [label="gini = 0.0\nsamples = 6\nvalue = [6, 0]\nclass = t", fillcolor="#e58139"] ;
202 -> 203 ;
204 [label="avg_dist <= -0.11\ngini = 0.2\nsamples = 4\nvalue = [8, 1]\nclass = t", fillcolor="#e89152"] ;
202 -> 204 ;
205 [label="gini = 0.0\nsamples = 1\nvalue = [0, 1]\nclass = a", fillcolor="#399de5"] ;
204 -> 205 ;
206 [label="gini = 0.0\nsamples = 3\nvalue = [8, 0]\nclass = t", fillcolor="#e58139"] ;
204 -> 206 ;
207 [label="avg_dist <= -0.41\ngini = 0.43\nsamples = 32\nvalue = [38, 17]\nclass = t", fillcolor="#f1b992"] ;
201 -> 207 ;
208 [label="gini = 0.0\nsamples = 5\nvalue = [9, 0]\nclass = t", fillcolor="#e58139"] ;
207 -> 208 ;
209 [label="avg_dist <= -0.34\ngini = 0.47\nsamples = 27\nvalue = [29, 17]\nclass = t", fillcolor="#f4cbad"] ;
207 -> 209 ;
210 [label="gini = 0.0\nsamples = 2\nvalue = [0, 3]\nclass = a", fillcolor="#399de5"] ;
209 -> 210 ;
211 [label="avg_rating_of_driver <= -0.09\ngini = 0.44\nsamples = 25\nvalue = [29, 14]\nclass = t", fillcolor="#f2be99"] ;
209 -> 211 ;
212 [label="gini = 0.0\nsamples = 2\nvalue = [0, 4]\nclass = a", fillcolor="#399de5"] ;
211 -> 212 ;
213 [label="weekday_pct <= -0.72\ngini = 0.38\nsamples = 23\nvalue = [29, 10]\nclass = t", fillcolor="#eeac7d"] ;
211 -> 213 ;
214 [label="avg_dist <= -0.26\ngini = 0.31\nsamples = 12\nvalue = [17, 4]\nclass = t", fillcolor="#eb9f68"] ;
213 -> 214 ;
215 [label="avg_rating_by_driver <= -3.18\ngini = 0.5\nsamples = 2\nvalue = [2, 2]\nclass = t", fillcolor="#ffffff"] ;
214 -> 215 ;
216 [label="gini = 0.0\nsamples = 1\nvalue = [2, 0]\nclass = t", fillcolor="#e58139"] ;
215 -> 216 ;
217 [label="gini = 0.0\nsamples = 1\nvalue = [0, 2]\nclass = a", fillcolor="#399de5"] ;
215 -> 217 ;
218 [label="avg_dist <= -0.05\ngini = 0.21\nsamples = 10\nvalue = [15, 2]\nclass = t", fillcolor="#e89253"] ;
214 -> 218 ;
219 [label="gini = 0.0\nsamples = 4\nvalue = [8, 0]\nclass = t", fillcolor="#e58139"] ;
218 -> 219 ;
220 [label="avg_rating_by_driver <= -1.4\ngini = 0.35\nsamples = 6\nvalue = [7, 2]\nclass = t", fillcolor="#eca572"] ;
218 -> 220 ;
221 [label="avg_dist <= 1.38\ngini = 0.48\nsamples = 3\nvalue = [3, 2]\nclass = t", fillcolor="#f6d5bd"] ;
220 -> 221 ;
222 [label="gini = 0.0\nsamples = 1\nvalue = [0, 2]\nclass = a", fillcolor="#399de5"] ;
221 -> 222 ;
223 [label="gini = 0.0\nsamples = 2\nvalue = [3, 0]\nclass = t", fillcolor="#e58139"] ;
221 -> 223 ;
224 [label="gini = 0.0\nsamples = 3\nvalue = [4, 0]\nclass = t", fillcolor="#e58139"] ;
220 -> 224 ;
225 [label="avg_rating_of_driver <= 0.09\ngini = 0.44\nsamples = 11\nvalue = [12, 6]\nclass = t", fillcolor="#f2c09c"] ;
213 -> 225 ;
226 [label="gini = 0.0\nsamples = 1\nvalue = [0, 2]\nclass = a", fillcolor="#399de5"] ;
225 -> 226 ;
227 [label="avg_rating_by_driver <= -1.51\ngini = 0.38\nsamples = 10\nvalue = [12, 4]\nclass = t", fillcolor="#eeab7b"] ;
225 -> 227 ;
228 [label="gini = 0.0\nsamples = 6\nvalue = [10, 0]\nclass = t", fillcolor="#e58139"] ;
227 -> 228 ;
229 [label="avg_rating_of_driver <= 0.44\ngini = 0.44\nsamples = 4\nvalue = [2, 4]\nclass = a", fillcolor="#9ccef2"] ;
227 -> 229 ;
230 [label="gini = 0.0\nsamples = 1\nvalue = [0, 1]\nclass = a", fillcolor="#399de5"] ;
229 -> 230 ;
231 [label="avg_rating_by_driver <= -0.73\ngini = 0.48\nsamples = 3\nvalue = [2, 3]\nclass = a", fillcolor="#bddef6"] ;
229 -> 231 ;
232 [label="gini = 0.0\nsamples = 2\nvalue = [0, 3]\nclass = a", fillcolor="#399de5"] ;
231 -> 232 ;
233 [label="gini = 0.0\nsamples = 1\nvalue = [2, 0]\nclass = t", fillcolor="#e58139"] ;
231 -> 233 ;
234 [label="avg_rating_by_driver <= 0.16\ngini = 0.42\nsamples = 184\nvalue = [204, 87]\nclass = t", fillcolor="#f0b78d"] ;
6 -> 234 ;
235 [label="weekday_pct <= -0.7\ngini = 0.4\nsamples = 168\nvalue = [192, 73]\nclass = t", fillcolor="#efb184"] ;
234 -> 235 ;
236 [label="avg_dist <= 0.26\ngini = 0.36\nsamples = 110\nvalue = [130, 41]\nclass = t", fillcolor="#eda977"] ;
235 -> 236 ;
237 [label="weekday_pct <= -1.22\ngini = 0.4\nsamples = 86\nvalue = [97, 38]\nclass = t", fillcolor="#efb287"] ;
236 -> 237 ;
238 [label="city_King's Landing <= 0.74\ngini = 0.31\nsamples = 34\nvalue = [42, 10]\nclass = t", fillcolor="#eb9f68"] ;
237 -> 238 ;
239 [label="trips_in_first_30_days <= 0.06\ngini = 0.24\nsamples = 28\nvalue = [36, 6]\nclass = t", fillcolor="#e9965a"] ;
238 -> 239 ;
240 [label="avg_rating_by_driver <= -0.06\ngini = 0.19\nsamples = 24\nvalue = [33, 4]\nclass = t", fillcolor="#e89051"] ;
239 -> 240 ;
241 [label="city_Astapor <= 0.36\ngini = 0.09\nsamples = 13\nvalue = [20, 1]\nclass = t", fillcolor="#e68743"] ;
240 -> 241 ;
242 [label="trips_in_first_30_days <= -0.47\ngini = 0.17\nsamples = 7\nvalue = [10, 1]\nclass = t", fillcolor="#e88e4d"] ;
241 -> 242 ;
243 [label="avg_rating_by_driver <= -0.28\ngini = 0.24\nsamples = 4\nvalue = [6, 1]\nclass = t", fillcolor="#e9965a"] ;
242 -> 243 ;
244 [label="gini = 0.0\nsamples = 1\nvalue = [2, 0]\nclass = t", fillcolor="#e58139"] ;
243 -> 244 ;
245 [label="avg_rating_of_driver <= 0.44\ngini = 0.32\nsamples = 3\nvalue = [4, 1]\nclass = t", fillcolor="#eca06a"] ;
243 -> 245 ;
246 [label="gini = 0.0\nsamples = 1\nvalue = [2, 0]\nclass = t", fillcolor="#e58139"] ;
245 -> 246 ;
247 [label="avg_dist <= -0.36\ngini = 0.44\nsamples = 2\nvalue = [2, 1]\nclass = t", fillcolor="#f2c09c"] ;
245 -> 247 ;
248 [label="gini = 0.0\nsamples = 1\nvalue = [0, 1]\nclass = a", fillcolor="#399de5"] ;
247 -> 248 ;
249 [label="gini = 0.0\nsamples = 1\nvalue = [2, 0]\nclass = t", fillcolor="#e58139"] ;
247 -> 249 ;
250 [label="gini = 0.0\nsamples = 3\nvalue = [4, 0]\nclass = t", fillcolor="#e58139"] ;
242 -> 250 ;
251 [label="gini = 0.0\nsamples = 6\nvalue = [10, 0]\nclass = t", fillcolor="#e58139"] ;
241 -> 251 ;
252 [label="avg_dist <= 0.03\ngini = 0.3\nsamples = 11\nvalue = [13, 3]\nclass = t", fillcolor="#eb9e67"] ;
240 -> 252 ;
253 [label="avg_dist <= -0.71\ngini = 0.13\nsamples = 9\nvalue = [13, 1]\nclass = t", fillcolor="#e78b48"] ;
252 -> 253 ;
254 [label="gini = 0.0\nsamples = 1\nvalue = [0, 1]\nclass = a", fillcolor="#399de5"] ;
253 -> 254 ;
255 [label="gini = 0.0\nsamples = 8\nvalue = [13, 0]\nclass = t", fillcolor="#e58139"] ;
253 -> 255 ;
256 [label="gini = 0.0\nsamples = 2\nvalue = [0, 2]\nclass = a", fillcolor="#399de5"] ;
252 -> 256 ;
257 [label="city_Winterfell <= 0.07\ngini = 0.48\nsamples = 4\nvalue = [3, 2]\nclass = t", fillcolor="#f6d5bd"] ;
239 -> 257 ;
258 [label="phone_Android <= 0.43\ngini = 0.44\nsamples = 2\nvalue = [1, 2]\nclass = a", fillcolor="#9ccef2"] ;
257 -> 258 ;
259 [label="gini = 0.0\nsamples = 1\nvalue = [0, 2]\nclass = a", fillcolor="#399de5"] ;
258 -> 259 ;
260 [label="gini = 0.0\nsamples = 1\nvalue = [1, 0]\nclass = t", fillcolor="#e58139"] ;
258 -> 260 ;
261 [label="gini = 0.0\nsamples = 2\nvalue = [2, 0]\nclass = t", fillcolor="#e58139"] ;
257 -> 261 ;
262 [label="avg_dist <= -0.4\ngini = 0.48\nsamples = 6\nvalue = [6, 4]\nclass = t", fillcolor="#f6d5bd"] ;
238 -> 262 ;
263 [label="ultimate_black_user <= 0.25\ngini = 0.32\nsamples = 4\nvalue = [4, 1]\nclass = t", fillcolor="#eca06a"] ;
262 -> 263 ;
264 [label="gini = 0.0\nsamples = 2\nvalue = [3, 0]\nclass = t", fillcolor="#e58139"] ;
263 -> 264 ;
265 [label="weekday_pct <= -1.49\ngini = 0.5\nsamples = 2\nvalue = [1, 1]\nclass = t", fillcolor="#ffffff"] ;
263 -> 265 ;
266 [label="gini = 0.0\nsamples = 1\nvalue = [0, 1]\nclass = a", fillcolor="#399de5"] ;
265 -> 266 ;
267 [label="gini = 0.0\nsamples = 1\nvalue = [1, 0]\nclass = t", fillcolor="#e58139"] ;
265 -> 267 ;
268 [label="trips_in_first_30_days <= -0.47\ngini = 0.48\nsamples = 2\nvalue = [2, 3]\nclass = a", fillcolor="#bddef6"] ;
262 -> 268 ;
269 [label="gini = 0.0\nsamples = 1\nvalue = [0, 3]\nclass = a", fillcolor="#399de5"] ;
268 -> 269 ;
270 [label="gini = 0.0\nsamples = 1\nvalue = [2, 0]\nclass = t", fillcolor="#e58139"] ;
268 -> 270 ;
271 [label="weekday_pct <= -1.17\ngini = 0.45\nsamples = 52\nvalue = [55, 28]\nclass = t", fillcolor="#f2c19e"] ;
237 -> 271 ;
272 [label="gini = 0.0\nsamples = 2\nvalue = [0, 2]\nclass = a", fillcolor="#399de5"] ;
271 -> 272 ;
273 [label="avg_rating_by_driver <= -0.28\ngini = 0.44\nsamples = 50\nvalue = [55, 26]\nclass = t", fillcolor="#f1bd97"] ;
271 -> 273 ;
274 [label="weekday_pct <= -1.03\ngini = 0.44\nsamples = 4\nvalue = [3, 6]\nclass = a", fillcolor="#9ccef2"] ;
273 -> 274 ;
275 [label="avg_dist <= -0.28\ngini = 0.38\nsamples = 3\nvalue = [2, 6]\nclass = a", fillcolor="#7bbeee"] ;
274 -> 275 ;
276 [label="gini = 0.0\nsamples = 1\nvalue = [0, 4]\nclass = a", fillcolor="#399de5"] ;
275 -> 276 ;
277 [label="avg_dist <= 0.04\ngini = 0.5\nsamples = 2\nvalue = [2, 2]\nclass = t", fillcolor="#ffffff"] ;
275 -> 277 ;
278 [label="gini = 0.0\nsamples = 1\nvalue = [2, 0]\nclass = t", fillcolor="#e58139"] ;
277 -> 278 ;
279 [label="gini = 0.0\nsamples = 1\nvalue = [0, 2]\nclass = a", fillcolor="#399de5"] ;
277 -> 279 ;
280 [label="gini = 0.0\nsamples = 1\nvalue = [1, 0]\nclass = t", fillcolor="#e58139"] ;
274 -> 280 ;
281 [label="avg_rating_by_driver <= -0.06\ngini = 0.4\nsamples = 46\nvalue = [52, 20]\nclass = t", fillcolor="#efb185"] ;
273 -> 281 ;
282 [label="trips_in_first_30_days <= -0.21\ngini = 0.37\nsamples = 29\nvalue = [34, 11]\nclass = t", fillcolor="#edaa79"] ;
281 -> 282 ;
283 [label="avg_dist <= -0.28\ngini = 0.32\nsamples = 18\nvalue = [24, 6]\nclass = t", fillcolor="#eca06a"] ;
282 -> 283 ;
284 [label="avg_dist <= -0.46\ngini = 0.17\nsamples = 12\nvalue = [19, 2]\nclass = t", fillcolor="#e88e4e"] ;
283 -> 284 ;
285 [label="gini = 0.0\nsamples = 6\nvalue = [10, 0]\nclass = t", fillcolor="#e58139"] ;
284 -> 285 ;
286 [label="trips_in_first_30_days <= -0.47\ngini = 0.3\nsamples = 6\nvalue = [9, 2]\nclass = t", fillcolor="#eb9d65"] ;
284 -> 286 ;
287 [label="avg_dist <= -0.35\ngini = 0.44\nsamples = 4\nvalue = [4, 2]\nclass = t", fillcolor="#f2c09c"] ;
286 -> 287 ;
288 [label="gini = 0.0\nsamples = 2\nvalue = [0, 2]\nclass = a", fillcolor="#399de5"] ;
287 -> 288 ;
289 [label="gini = 0.0\nsamples = 2\nvalue = [4, 0]\nclass = t", fillcolor="#e58139"] ;
287 -> 289 ;
290 [label="gini = 0.0\nsamples = 2\nvalue = [5, 0]\nclass = t", fillcolor="#e58139"] ;
286 -> 290 ;
291 [label="city_Winterfell <= 0.07\ngini = 0.49\nsamples = 6\nvalue = [5, 4]\nclass = t", fillcolor="#fae6d7"] ;
283 -> 291 ;
292 [label="gini = 0.0\nsamples = 1\nvalue = [1, 0]\nclass = t", fillcolor="#e58139"] ;
291 -> 292 ;
293 [label="ultimate_black_user <= 0.25\ngini = 0.5\nsamples = 5\nvalue = [4, 4]\nclass = t", fillcolor="#ffffff"] ;
291 -> 293 ;
294 [label="gini = 0.0\nsamples = 2\nvalue = [2, 0]\nclass = t", fillcolor="#e58139"] ;
293 -> 294 ;
295 [label="avg_rating_of_driver <= 0.35\ngini = 0.44\nsamples = 3\nvalue = [2, 4]\nclass = a", fillcolor="#9ccef2"] ;
293 -> 295 ;
296 [label="avg_dist <= -0.14\ngini = 0.5\nsamples = 2\nvalue = [2, 2]\nclass = t", fillcolor="#ffffff"] ;
295 -> 296 ;
297 [label="gini = 0.0\nsamples = 1\nvalue = [2, 0]\nclass = t", fillcolor="#e58139"] ;
296 -> 297 ;
298 [label="gini = 0.0\nsamples = 1\nvalue = [0, 2]\nclass = a", fillcolor="#399de5"] ;
296 -> 298 ;
299 [label="gini = 0.0\nsamples = 1\nvalue = [0, 2]\nclass = a", fillcolor="#399de5"] ;
295 -> 299 ;
300 [label="trips_in_first_30_days <= 0.06\ngini = 0.44\nsamples = 11\nvalue = [10, 5]\nclass = t", fillcolor="#f2c09c"] ;
282 -> 300 ;
301 [label="city_Winterfell <= 0.07\ngini = 0.44\nsamples = 3\nvalue = [1, 2]\nclass = a", fillcolor="#9ccef2"] ;
300 -> 301 ;
302 [label="gini = 0.0\nsamples = 1\nvalue = [1, 0]\nclass = t", fillcolor="#e58139"] ;
301 -> 302 ;
303 [label="gini = 0.0\nsamples = 2\nvalue = [0, 2]\nclass = a", fillcolor="#399de5"] ;
301 -> 303 ;
304 [label="avg_rating_of_driver <= 0.26\ngini = 0.38\nsamples = 8\nvalue = [9, 3]\nclass = t", fillcolor="#eeab7b"] ;
300 -> 304 ;
305 [label="gini = 0.0\nsamples = 5\nvalue = [7, 0]\nclass = t", fillcolor="#e58139"] ;
304 -> 305 ;
306 [label="avg_dist <= -0.23\ngini = 0.48\nsamples = 3\nvalue = [2, 3]\nclass = a", fillcolor="#bddef6"] ;
304 -> 306 ;
307 [label="gini = 0.0\nsamples = 2\nvalue = [0, 3]\nclass = a", fillcolor="#399de5"] ;
306 -> 307 ;
308 [label="gini = 0.0\nsamples = 1\nvalue = [2, 0]\nclass = t", fillcolor="#e58139"] ;
306 -> 308 ;
309 [label="trips_in_first_30_days <= -0.47\ngini = 0.44\nsamples = 17\nvalue = [18, 9]\nclass = t", fillcolor="#f2c09c"] ;
281 -> 309 ;
310 [label="city_Winterfell <= 0.07\ngini = 0.28\nsamples = 6\nvalue = [10, 2]\nclass = t", fillcolor="#ea9a61"] ;
309 -> 310 ;
311 [label="weekday_pct <= -0.85\ngini = 0.48\nsamples = 2\nvalue = [3, 2]\nclass = t", fillcolor="#f6d5bd"] ;
310 -> 311 ;
312 [label="gini = 0.0\nsamples = 1\nvalue = [3, 0]\nclass = t", fillcolor="#e58139"] ;
311 -> 312 ;
313 [label="gini = 0.0\nsamples = 1\nvalue = [0, 2]\nclass = a", fillcolor="#399de5"] ;
311 -> 313 ;
314 [label="gini = 0.0\nsamples = 4\nvalue = [7, 0]\nclass = t", fillcolor="#e58139"] ;
310 -> 314 ;
315 [label="avg_dist <= -0.34\ngini = 0.5\nsamples = 11\nvalue = [8, 7]\nclass = t", fillcolor="#fcefe6"] ;
309 -> 315 ;
316 [label="gini = 0.0\nsamples = 5\nvalue = [6, 0]\nclass = t", fillcolor="#e58139"] ;
315 -> 316 ;
317 [label="weekday_pct <= -1.12\ngini = 0.35\nsamples = 6\nvalue = [2, 7]\nclass = a", fillcolor="#72b9ec"] ;
315 -> 317 ;
318 [label="gini = 0.0\nsamples = 1\nvalue = [1, 0]\nclass = t", fillcolor="#e58139"] ;
317 -> 318 ;
319 [label="avg_rating_of_driver <= 0.26\ngini = 0.22\nsamples = 5\nvalue = [1, 7]\nclass = a", fillcolor="#55abe9"] ;
317 -> 319 ;
320 [label="city_King's Landing <= 0.74\ngini = 0.44\nsamples = 2\nvalue = [1, 2]\nclass = a", fillcolor="#9ccef2"] ;
319 -> 320 ;
321 [label="gini = 0.0\nsamples = 1\nvalue = [0, 2]\nclass = a", fillcolor="#399de5"] ;
320 -> 321 ;
322 [label="gini = 0.0\nsamples = 1\nvalue = [1, 0]\nclass = t", fillcolor="#e58139"] ;
320 -> 322 ;
323 [label="gini = 0.0\nsamples = 3\nvalue = [0, 5]\nclass = a", fillcolor="#399de5"] ;
319 -> 323 ;
324 [label="trips_in_first_30_days <= -0.47\ngini = 0.15\nsamples = 24\nvalue = [33, 3]\nclass = t", fillcolor="#e78c4b"] ;
236 -> 324 ;
325 [label="gini = 0.0\nsamples = 9\nvalue = [16, 0]\nclass = t", fillcolor="#e58139"] ;
324 -> 325 ;
326 [label="weekday_pct <= -1.37\ngini = 0.26\nsamples = 15\nvalue = [17, 3]\nclass = t", fillcolor="#ea975c"] ;
324 -> 326 ;
327 [label="city_Winterfell <= 0.07\ngini = 0.44\nsamples = 6\nvalue = [6, 3]\nclass = t", fillcolor="#f2c09c"] ;
326 -> 327 ;
328 [label="gini = 0.0\nsamples = 2\nvalue = [2, 0]\nclass = t", fillcolor="#e58139"] ;
327 -> 328 ;
329 [label="avg_rating_of_driver <= -0.53\ngini = 0.49\nsamples = 4\nvalue = [4, 3]\nclass = t", fillcolor="#f8e0ce"] ;
327 -> 329 ;
330 [label="avg_rating_of_driver <= -1.95\ngini = 0.38\nsamples = 2\nvalue = [1, 3]\nclass = a", fillcolor="#7bbeee"] ;
329 -> 330 ;
331 [label="gini = 0.0\nsamples = 1\nvalue = [1, 0]\nclass = t", fillcolor="#e58139"] ;
330 -> 331 ;
332 [label="gini = 0.0\nsamples = 1\nvalue = [0, 3]\nclass = a", fillcolor="#399de5"] ;
330 -> 332 ;
333 [label="gini = 0.0\nsamples = 2\nvalue = [3, 0]\nclass = t", fillcolor="#e58139"] ;
329 -> 333 ;
334 [label="gini = 0.0\nsamples = 9\nvalue = [11, 0]\nclass = t", fillcolor="#e58139"] ;
326 -> 334 ;
335 [label="avg_dist <= 0.68\ngini = 0.45\nsamples = 58\nvalue = [62, 32]\nclass = t", fillcolor="#f2c29f"] ;
235 -> 335 ;
336 [label="avg_dist <= -0.38\ngini = 0.41\nsamples = 54\nvalue = [61, 24]\nclass = t", fillcolor="#efb387"] ;
335 -> 336 ;
337 [label="avg_rating_of_driver <= -0.0\ngini = 0.5\nsamples = 31\nvalue = [25, 21]\nclass = t", fillcolor="#fbebdf"] ;
336 -> 337 ;
338 [label="avg_dist <= -0.51\ngini = 0.49\nsamples = 13\nvalue = [10, 14]\nclass = a", fillcolor="#c6e3f8"] ;
337 -> 338 ;
339 [label="gini = 0.0\nsamples = 6\nvalue = [0, 7]\nclass = a", fillcolor="#399de5"] ;
338 -> 339 ;
340 [label="weekday_pct <= -0.52\ngini = 0.48\nsamples = 7\nvalue = [10, 7]\nclass = t", fillcolor="#f7d9c4"] ;
338 -> 340 ;
341 [label="gini = 0.0\nsamples = 2\nvalue = [4, 0]\nclass = t", fillcolor="#e58139"] ;
340 -> 341 ;
342 [label="avg_dist <= -0.41\ngini = 0.5\nsamples = 5\nvalue = [6, 7]\nclass = a", fillcolor="#e3f1fb"] ;
340 -> 342 ;
343 [label="trips_in_first_30_days <= -0.21\ngini = 0.38\nsamples = 3\nvalue = [2, 6]\nclass = a", fillcolor="#7bbeee"] ;
342 -> 343 ;
344 [label="gini = 0.0\nsamples = 2\nvalue = [0, 6]\nclass = a", fillcolor="#399de5"] ;
343 -> 344 ;
345 [label="gini = 0.0\nsamples = 1\nvalue = [2, 0]\nclass = t", fillcolor="#e58139"] ;
343 -> 345 ;
346 [label="avg_rating_by_driver <= -0.06\ngini = 0.32\nsamples = 2\nvalue = [4, 1]\nclass = t", fillcolor="#eca06a"] ;
342 -> 346 ;
347 [label="gini = 0.0\nsamples = 1\nvalue = [0, 1]\nclass = a", fillcolor="#399de5"] ;
346 -> 347 ;
348 [label="gini = 0.0\nsamples = 1\nvalue = [4, 0]\nclass = t", fillcolor="#e58139"] ;
346 -> 348 ;
349 [label="avg_dist <= -0.56\ngini = 0.43\nsamples = 18\nvalue = [15, 7]\nclass = t", fillcolor="#f1bc95"] ;
337 -> 349 ;
350 [label="trips_in_first_30_days <= -0.21\ngini = 0.23\nsamples = 11\nvalue = [13, 2]\nclass = t", fillcolor="#e99457"] ;
349 -> 350 ;
351 [label="city_Astapor <= 0.36\ngini = 0.44\nsamples = 3\nvalue = [2, 1]\nclass = t", fillcolor="#f2c09c"] ;
350 -> 351 ;
352 [label="gini = 0.0\nsamples = 1\nvalue = [1, 0]\nclass = t", fillcolor="#e58139"] ;
351 -> 352 ;
353 [label="avg_rating_by_driver <= -0.06\ngini = 0.5\nsamples = 2\nvalue = [1, 1]\nclass = t", fillcolor="#ffffff"] ;
351 -> 353 ;
354 [label="gini = 0.0\nsamples = 1\nvalue = [0, 1]\nclass = a", fillcolor="#399de5"] ;
353 -> 354 ;
355 [label="gini = 0.0\nsamples = 1\nvalue = [1, 0]\nclass = t", fillcolor="#e58139"] ;
353 -> 355 ;
356 [label="avg_dist <= -0.74\ngini = 0.15\nsamples = 8\nvalue = [11, 1]\nclass = t", fillcolor="#e78c4b"] ;
350 -> 356 ;
357 [label="gini = 0.0\nsamples = 1\nvalue = [0, 1]\nclass = a", fillcolor="#399de5"] ;
356 -> 357 ;
358 [label="gini = 0.0\nsamples = 7\nvalue = [11, 0]\nclass = t", fillcolor="#e58139"] ;
356 -> 358 ;
359 [label="city_King's Landing <= 0.74\ngini = 0.41\nsamples = 7\nvalue = [2, 5]\nclass = a", fillcolor="#88c4ef"] ;
349 -> 359 ;
360 [label="trips_in_first_30_days <= -0.21\ngini = 0.44\nsamples = 3\nvalue = [2, 1]\nclass = t", fillcolor="#f2c09c"] ;
359 -> 360 ;
361 [label="gini = 0.0\nsamples = 1\nvalue = [1, 0]\nclass = t", fillcolor="#e58139"] ;
360 -> 361 ;
362 [label="avg_dist <= -0.51\ngini = 0.5\nsamples = 2\nvalue = [1, 1]\nclass = t", fillcolor="#ffffff"] ;
360 -> 362 ;
363 [label="gini = 0.0\nsamples = 1\nvalue = [0, 1]\nclass = a", fillcolor="#399de5"] ;
362 -> 363 ;
364 [label="gini = 0.0\nsamples = 1\nvalue = [1, 0]\nclass = t", fillcolor="#e58139"] ;
362 -> 364 ;
365 [label="gini = 0.0\nsamples = 4\nvalue = [0, 4]\nclass = a", fillcolor="#399de5"] ;
359 -> 365 ;
366 [label="avg_rating_of_driver <= -0.27\ngini = 0.14\nsamples = 23\nvalue = [36, 3]\nclass = t", fillcolor="#e78c49"] ;
336 -> 366 ;
367 [label="gini = 0.0\nsamples = 10\nvalue = [18, 0]\nclass = t", fillcolor="#e58139"] ;
366 -> 367 ;
368 [label="ultimate_black_user <= 0.25\ngini = 0.24\nsamples = 13\nvalue = [18, 3]\nclass = t", fillcolor="#e9965a"] ;
366 -> 368 ;
369 [label="gini = 0.0\nsamples = 6\nvalue = [8, 0]\nclass = t", fillcolor="#e58139"] ;
368 -> 369 ;
370 [label="avg_dist <= -0.15\ngini = 0.36\nsamples = 7\nvalue = [10, 3]\nclass = t", fillcolor="#eda774"] ;
368 -> 370 ;
371 [label="avg_dist <= -0.26\ngini = 0.22\nsamples = 4\nvalue = [7, 1]\nclass = t", fillcolor="#e99355"] ;
370 -> 371 ;
372 [label="city_Winterfell <= 0.07\ngini = 0.44\nsamples = 2\nvalue = [2, 1]\nclass = t", fillcolor="#f2c09c"] ;
371 -> 372 ;
373 [label="gini = 0.0\nsamples = 1\nvalue = [2, 0]\nclass = t", fillcolor="#e58139"] ;
372 -> 373 ;
374 [label="gini = 0.0\nsamples = 1\nvalue = [0, 1]\nclass = a", fillcolor="#399de5"] ;
372 -> 374 ;
375 [label="gini = 0.0\nsamples = 2\nvalue = [5, 0]\nclass = t", fillcolor="#e58139"] ;
371 -> 375 ;
376 [label="trips_in_first_30_days <= -0.47\ngini = 0.48\nsamples = 3\nvalue = [3, 2]\nclass = t", fillcolor="#f6d5bd"] ;
370 -> 376 ;
377 [label="gini = 0.0\nsamples = 1\nvalue = [2, 0]\nclass = t", fillcolor="#e58139"] ;
376 -> 377 ;
378 [label="weekday_pct <= -0.48\ngini = 0.44\nsamples = 2\nvalue = [1, 2]\nclass = a", fillcolor="#9ccef2"] ;
376 -> 378 ;
379 [label="gini = 0.0\nsamples = 1\nvalue = [0, 2]\nclass = a", fillcolor="#399de5"] ;
378 -> 379 ;
380 [label="gini = 0.0\nsamples = 1\nvalue = [1, 0]\nclass = t", fillcolor="#e58139"] ;
378 -> 380 ;
381 [label="weekday_pct <= -0.41\ngini = 0.2\nsamples = 4\nvalue = [1, 8]\nclass = a", fillcolor="#52a9e8"] ;
335 -> 381 ;
382 [label="gini = 0.0\nsamples = 2\nvalue = [0, 6]\nclass = a", fillcolor="#399de5"] ;
381 -> 382 ;
383 [label="avg_dist <= 1.05\ngini = 0.44\nsamples = 2\nvalue = [1, 2]\nclass = a", fillcolor="#9ccef2"] ;
381 -> 383 ;
384 [label="gini = 0.0\nsamples = 1\nvalue = [1, 0]\nclass = t", fillcolor="#e58139"] ;
383 -> 384 ;
385 [label="gini = 0.0\nsamples = 1\nvalue = [0, 2]\nclass = a", fillcolor="#399de5"] ;
383 -> 385 ;
386 [label="avg_dist <= -0.36\ngini = 0.5\nsamples = 16\nvalue = [12, 14]\nclass = a", fillcolor="#e3f1fb"] ;
234 -> 386 ;
387 [label="trips_in_first_30_days <= 0.06\ngini = 0.24\nsamples = 9\nvalue = [2, 12]\nclass = a", fillcolor="#5aade9"] ;
386 -> 387 ;
388 [label="ultimate_black_user <= 0.25\ngini = 0.14\nsamples = 8\nvalue = [1, 12]\nclass = a", fillcolor="#49a5e7"] ;
387 -> 388 ;
389 [label="gini = 0.0\nsamples = 4\nvalue = [0, 4]\nclass = a", fillcolor="#399de5"] ;
388 -> 389 ;
390 [label="avg_dist <= -0.5\ngini = 0.2\nsamples = 4\nvalue = [1, 8]\nclass = a", fillcolor="#52a9e8"] ;
388 -> 390 ;
391 [label="gini = 0.0\nsamples = 2\nvalue = [0, 6]\nclass = a", fillcolor="#399de5"] ;
390 -> 391 ;
392 [label="weekday_pct <= -0.63\ngini = 0.44\nsamples = 2\nvalue = [1, 2]\nclass = a", fillcolor="#9ccef2"] ;
390 -> 392 ;
393 [label="gini = 0.0\nsamples = 1\nvalue = [0, 2]\nclass = a", fillcolor="#399de5"] ;
392 -> 393 ;
394 [label="gini = 0.0\nsamples = 1\nvalue = [1, 0]\nclass = t", fillcolor="#e58139"] ;
392 -> 394 ;
395 [label="gini = 0.0\nsamples = 1\nvalue = [1, 0]\nclass = t", fillcolor="#e58139"] ;
387 -> 395 ;
396 [label="weekday_pct <= -1.32\ngini = 0.28\nsamples = 7\nvalue = [10, 2]\nclass = t", fillcolor="#ea9a61"] ;
386 -> 396 ;
397 [label="gini = 0.0\nsamples = 1\nvalue = [0, 1]\nclass = a", fillcolor="#399de5"] ;
396 -> 397 ;
398 [label="city_Astapor <= 0.36\ngini = 0.17\nsamples = 6\nvalue = [10, 1]\nclass = t", fillcolor="#e88e4d"] ;
396 -> 398 ;
399 [label="gini = 0.0\nsamples = 2\nvalue = [4, 0]\nclass = t", fillcolor="#e58139"] ;
398 -> 399 ;
400 [label="avg_rating_of_driver <= 0.53\ngini = 0.24\nsamples = 4\nvalue = [6, 1]\nclass = t", fillcolor="#e9965a"] ;
398 -> 400 ;
401 [label="gini = 0.0\nsamples = 3\nvalue = [6, 0]\nclass = t", fillcolor="#e58139"] ;
400 -> 401 ;
402 [label="gini = 0.0\nsamples = 1\nvalue = [0, 1]\nclass = a", fillcolor="#399de5"] ;
400 -> 402 ;
403 [label="phone_Other <= 5.49\ngini = 0.43\nsamples = 94\nvalue = [97, 43]\nclass = t", fillcolor="#f1b991"] ;
5 -> 403 ;
404 [label="avg_rating_by_driver <= -0.06\ngini = 0.41\nsamples = 90\nvalue = [96, 38]\nclass = t", fillcolor="#efb387"] ;
403 -> 404 ;
405 [label="avg_dist <= -0.44\ngini = 0.48\nsamples = 60\nvalue = [53, 34]\nclass = t", fillcolor="#f6d2b8"] ;
404 -> 405 ;
406 [label="city_Winterfell <= 0.07\ngini = 0.5\nsamples = 35\nvalue = [26, 27]\nclass = a", fillcolor="#f8fbfe"] ;
405 -> 406 ;
407 [label="weekday_pct <= -0.39\ngini = 0.49\nsamples = 6\nvalue = [4, 3]\nclass = t", fillcolor="#f8e0ce"] ;
406 -> 407 ;
408 [label="trips_in_first_30_days <= 0.58\ngini = 0.48\nsamples = 4\nvalue = [2, 3]\nclass = a", fillcolor="#bddef6"] ;
407 -> 408 ;
409 [label="gini = 0.0\nsamples = 2\nvalue = [0, 3]\nclass = a", fillcolor="#399de5"] ;
408 -> 409 ;
410 [label="gini = 0.0\nsamples = 2\nvalue = [2, 0]\nclass = t", fillcolor="#e58139"] ;
408 -> 410 ;
411 [label="gini = 0.0\nsamples = 2\nvalue = [2, 0]\nclass = t", fillcolor="#e58139"] ;
407 -> 411 ;
412 [label="ultimate_black_user <= 0.25\ngini = 0.5\nsamples = 29\nvalue = [22, 24]\nclass = a", fillcolor="#eff7fd"] ;
406 -> 412 ;
413 [label="avg_dist <= -0.73\ngini = 0.5\nsamples = 18\nvalue = [16, 14]\nclass = t", fillcolor="#fcefe6"] ;
412 -> 413 ;
414 [label="gini = 0.0\nsamples = 3\nvalue = [7, 0]\nclass = t", fillcolor="#e58139"] ;
413 -> 414 ;
415 [label="avg_dist <= -0.63\ngini = 0.48\nsamples = 15\nvalue = [9, 14]\nclass = a", fillcolor="#b8dcf6"] ;
413 -> 415 ;
416 [label="avg_rating_by_driver <= -1.17\ngini = 0.5\nsamples = 7\nvalue = [6, 5]\nclass = t", fillcolor="#fbeade"] ;
415 -> 416 ;
417 [label="gini = 0.0\nsamples = 1\nvalue = [0, 2]\nclass = a", fillcolor="#399de5"] ;
416 -> 417 ;
418 [label="trips_in_first_30_days <= 0.58\ngini = 0.44\nsamples = 6\nvalue = [6, 3]\nclass = t", fillcolor="#f2c09c"] ;
416 -> 418 ;
419 [label="gini = 0.0\nsamples = 1\nvalue = [2, 0]\nclass = t", fillcolor="#e58139"] ;
418 -> 419 ;
420 [label="avg_dist <= -0.65\ngini = 0.49\nsamples = 5\nvalue = [4, 3]\nclass = t", fillcolor="#f8e0ce"] ;
418 -> 420 ;
421 [label="avg_dist <= -0.69\ngini = 0.38\nsamples = 3\nvalue = [1, 3]\nclass = a", fillcolor="#7bbeee"] ;
420 -> 421 ;
422 [label="gini = 0.0\nsamples = 1\nvalue = [1, 0]\nclass = t", fillcolor="#e58139"] ;
421 -> 422 ;
423 [label="gini = 0.0\nsamples = 2\nvalue = [0, 3]\nclass = a", fillcolor="#399de5"] ;
421 -> 423 ;
424 [label="gini = 0.0\nsamples = 2\nvalue = [3, 0]\nclass = t", fillcolor="#e58139"] ;
420 -> 424 ;
425 [label="avg_rating_by_driver <= -0.28\ngini = 0.38\nsamples = 8\nvalue = [3, 9]\nclass = a", fillcolor="#7bbeee"] ;
415 -> 425 ;
426 [label="avg_rating_of_driver <= 0.62\ngini = 0.2\nsamples = 6\nvalue = [1, 8]\nclass = a", fillcolor="#52a9e8"] ;
425 -> 426 ;
427 [label="gini = 0.0\nsamples = 4\nvalue = [0, 7]\nclass = a", fillcolor="#399de5"] ;
426 -> 427 ;
428 [label="avg_dist <= -0.57\ngini = 0.5\nsamples = 2\nvalue = [1, 1]\nclass = t", fillcolor="#ffffff"] ;
426 -> 428 ;
429 [label="gini = 0.0\nsamples = 1\nvalue = [0, 1]\nclass = a", fillcolor="#399de5"] ;
428 -> 429 ;
430 [label="gini = 0.0\nsamples = 1\nvalue = [1, 0]\nclass = t", fillcolor="#e58139"] ;
428 -> 430 ;
431 [label="avg_dist <= -0.53\ngini = 0.44\nsamples = 2\nvalue = [2, 1]\nclass = t", fillcolor="#f2c09c"] ;
425 -> 431 ;
432 [label="gini = 0.0\nsamples = 1\nvalue = [0, 1]\nclass = a", fillcolor="#399de5"] ;
431 -> 432 ;
433 [label="gini = 0.0\nsamples = 1\nvalue = [2, 0]\nclass = t", fillcolor="#e58139"] ;
431 -> 433 ;
434 [label="avg_rating_of_driver <= -1.77\ngini = 0.47\nsamples = 11\nvalue = [6, 10]\nclass = a", fillcolor="#b0d8f5"] ;
412 -> 434 ;
435 [label="gini = 0.0\nsamples = 1\nvalue = [1, 0]\nclass = t", fillcolor="#e58139"] ;
434 -> 435 ;
436 [label="weekday_pct <= -0.79\ngini = 0.44\nsamples = 10\nvalue = [5, 10]\nclass = a", fillcolor="#9ccef2"] ;
434 -> 436 ;
437 [label="avg_dist <= -0.67\ngini = 0.49\nsamples = 5\nvalue = [4, 3]\nclass = t", fillcolor="#f8e0ce"] ;
436 -> 437 ;
438 [label="gini = 0.0\nsamples = 2\nvalue = [3, 0]\nclass = t", fillcolor="#e58139"] ;
437 -> 438 ;
439 [label="avg_dist <= -0.61\ngini = 0.38\nsamples = 3\nvalue = [1, 3]\nclass = a", fillcolor="#7bbeee"] ;
437 -> 439 ;
440 [label="avg_dist <= -0.63\ngini = 0.5\nsamples = 2\nvalue = [1, 1]\nclass = t", fillcolor="#ffffff"] ;
439 -> 440 ;
441 [label="gini = 0.0\nsamples = 1\nvalue = [0, 1]\nclass = a", fillcolor="#399de5"] ;
440 -> 441 ;
442 [label="gini = 0.0\nsamples = 1\nvalue = [1, 0]\nclass = t", fillcolor="#e58139"] ;
440 -> 442 ;
443 [label="gini = 0.0\nsamples = 1\nvalue = [0, 2]\nclass = a", fillcolor="#399de5"] ;
439 -> 443 ;
444 [label="trips_in_first_30_days <= 0.58\ngini = 0.22\nsamples = 5\nvalue = [1, 7]\nclass = a", fillcolor="#55abe9"] ;
436 -> 444 ;
445 [label="avg_dist <= -0.52\ngini = 0.5\nsamples = 2\nvalue = [1, 1]\nclass = t", fillcolor="#ffffff"] ;
444 -> 445 ;
446 [label="gini = 0.0\nsamples = 1\nvalue = [1, 0]\nclass = t", fillcolor="#e58139"] ;
445 -> 446 ;
447 [label="gini = 0.0\nsamples = 1\nvalue = [0, 1]\nclass = a", fillcolor="#399de5"] ;
445 -> 447 ;
448 [label="gini = 0.0\nsamples = 3\nvalue = [0, 6]\nclass = a", fillcolor="#399de5"] ;
444 -> 448 ;
449 [label="ultimate_black_user <= 0.25\ngini = 0.33\nsamples = 25\nvalue = [27, 7]\nclass = t", fillcolor="#eca26c"] ;
405 -> 449 ;
450 [label="avg_rating_of_driver <= 0.09\ngini = 0.24\nsamples = 16\nvalue = [19, 3]\nclass = t", fillcolor="#e99558"] ;
449 -> 450 ;
451 [label="gini = 0.0\nsamples = 7\nvalue = [13, 0]\nclass = t", fillcolor="#e58139"] ;
450 -> 451 ;
452 [label="city_Winterfell <= 0.07\ngini = 0.44\nsamples = 9\nvalue = [6, 3]\nclass = t", fillcolor="#f2c09c"] ;
450 -> 452 ;
453 [label="gini = 0.0\nsamples = 3\nvalue = [3, 0]\nclass = t", fillcolor="#e58139"] ;
452 -> 453 ;
454 [label="weekday_pct <= -0.61\ngini = 0.5\nsamples = 6\nvalue = [3, 3]\nclass = t", fillcolor="#ffffff"] ;
452 -> 454 ;
455 [label="gini = 0.0\nsamples = 3\nvalue = [0, 3]\nclass = a", fillcolor="#399de5"] ;
454 -> 455 ;
456 [label="gini = 0.0\nsamples = 3\nvalue = [3, 0]\nclass = t", fillcolor="#e58139"] ;
454 -> 456 ;
457 [label="avg_rating_by_driver <= -0.51\ngini = 0.44\nsamples = 9\nvalue = [8, 4]\nclass = t", fillcolor="#f2c09c"] ;
449 -> 457 ;
458 [label="weekday_pct <= -0.85\ngini = 0.22\nsamples = 6\nvalue = [7, 1]\nclass = t", fillcolor="#e99355"] ;
457 -> 458 ;
459 [label="gini = 0.0\nsamples = 4\nvalue = [6, 0]\nclass = t", fillcolor="#e58139"] ;
458 -> 459 ;
460 [label="city_Winterfell <= 0.07\ngini = 0.5\nsamples = 2\nvalue = [1, 1]\nclass = t", fillcolor="#ffffff"] ;
458 -> 460 ;
461 [label="gini = 0.0\nsamples = 1\nvalue = [0, 1]\nclass = a", fillcolor="#399de5"] ;
460 -> 461 ;
462 [label="gini = 0.0\nsamples = 1\nvalue = [1, 0]\nclass = t", fillcolor="#e58139"] ;
460 -> 462 ;
463 [label="weekday_pct <= -0.52\ngini = 0.38\nsamples = 3\nvalue = [1, 3]\nclass = a", fillcolor="#7bbeee"] ;
457 -> 463 ;
464 [label="gini = 0.0\nsamples = 1\nvalue = [1, 0]\nclass = t", fillcolor="#e58139"] ;
463 -> 464 ;
465 [label="gini = 0.0\nsamples = 2\nvalue = [0, 3]\nclass = a", fillcolor="#399de5"] ;
463 -> 465 ;
466 [label="weekday_pct <= -1.12\ngini = 0.16\nsamples = 30\nvalue = [43, 4]\nclass = t", fillcolor="#e78d4b"] ;
404 -> 466 ;
467 [label="avg_dist <= -0.19\ngini = 0.5\nsamples = 6\nvalue = [4, 4]\nclass = t", fillcolor="#ffffff"] ;
466 -> 467 ;
468 [label="city_Astapor <= 0.36\ngini = 0.44\nsamples = 5\nvalue = [4, 2]\nclass = t", fillcolor="#f2c09c"] ;
467 -> 468 ;
469 [label="avg_dist <= -0.73\ngini = 0.48\nsamples = 4\nvalue = [3, 2]\nclass = t", fillcolor="#f6d5bd"] ;
468 -> 469 ;
470 [label="gini = 0.0\nsamples = 1\nvalue = [0, 1]\nclass = a", fillcolor="#399de5"] ;
469 -> 470 ;
471 [label="avg_dist <= -0.52\ngini = 0.38\nsamples = 3\nvalue = [3, 1]\nclass = t", fillcolor="#eeab7b"] ;
469 -> 471 ;
472 [label="gini = 0.0\nsamples = 1\nvalue = [2, 0]\nclass = t", fillcolor="#e58139"] ;
471 -> 472 ;
473 [label="ultimate_black_user <= 0.25\ngini = 0.5\nsamples = 2\nvalue = [1, 1]\nclass = t", fillcolor="#ffffff"] ;
471 -> 473 ;
474 [label="gini = 0.0\nsamples = 1\nvalue = [1, 0]\nclass = t", fillcolor="#e58139"] ;
473 -> 474 ;
475 [label="gini = 0.0\nsamples = 1\nvalue = [0, 1]\nclass = a", fillcolor="#399de5"] ;
473 -> 475 ;
476 [label="gini = 0.0\nsamples = 1\nvalue = [1, 0]\nclass = t", fillcolor="#e58139"] ;
468 -> 476 ;
477 [label="gini = 0.0\nsamples = 1\nvalue = [0, 2]\nclass = a", fillcolor="#399de5"] ;
467 -> 477 ;
478 [label="gini = 0.0\nsamples = 24\nvalue = [39, 0]\nclass = t", fillcolor="#e58139"] ;
466 -> 478 ;
479 [label="city_Winterfell <= 0.07\ngini = 0.28\nsamples = 4\nvalue = [1, 5]\nclass = a", fillcolor="#61b1ea"] ;
403 -> 479 ;
480 [label="gini = 0.0\nsamples = 1\nvalue = [0, 3]\nclass = a", fillcolor="#399de5"] ;
479 -> 480 ;
481 [label="avg_dist <= -0.29\ngini = 0.44\nsamples = 3\nvalue = [1, 2]\nclass = a", fillcolor="#9ccef2"] ;
479 -> 481 ;
482 [label="gini = 0.0\nsamples = 2\nvalue = [0, 2]\nclass = a", fillcolor="#399de5"] ;
481 -> 482 ;
483 [label="gini = 0.0\nsamples = 1\nvalue = [1, 0]\nclass = t", fillcolor="#e58139"] ;
481 -> 483 ;
484 [label="phone_Android <= 0.43\ngini = 0.48\nsamples = 580\nvalue = [525, 368]\nclass = t", fillcolor="#f7d9c4"] ;
4 -> 484 ;
485 [label="city_King's Landing <= 0.74\ngini = 0.33\nsamples = 20\nvalue = [7, 26]\nclass = a", fillcolor="#6eb7ec"] ;
484 -> 485 ;
486 [label="avg_rating_by_driver <= -0.28\ngini = 0.35\nsamples = 18\nvalue = [7, 24]\nclass = a", fillcolor="#73baed"] ;
485 -> 486 ;
487 [label="gini = 0.0\nsamples = 6\nvalue = [0, 15]\nclass = a", fillcolor="#399de5"] ;
486 -> 487 ;
488 [label="avg_rating_by_driver <= 0.16\ngini = 0.49\nsamples = 12\nvalue = [7, 9]\nclass = a", fillcolor="#d3e9f9"] ;
486 -> 488 ;
489 [label="avg_rating_of_driver <= -1.15\ngini = 0.44\nsamples = 8\nvalue = [6, 3]\nclass = t", fillcolor="#f2c09c"] ;
488 -> 489 ;
490 [label="gini = 0.0\nsamples = 1\nvalue = [0, 1]\nclass = a", fillcolor="#399de5"] ;
489 -> 490 ;
491 [label="weekday_pct <= 0.01\ngini = 0.38\nsamples = 7\nvalue = [6, 2]\nclass = t", fillcolor="#eeab7b"] ;
489 -> 491 ;
492 [label="gini = 0.0\nsamples = 1\nvalue = [0, 1]\nclass = a", fillcolor="#399de5"] ;
491 -> 492 ;
493 [label="city_Astapor <= 0.36\ngini = 0.24\nsamples = 6\nvalue = [6, 1]\nclass = t", fillcolor="#e9965a"] ;
491 -> 493 ;
494 [label="avg_rating_by_driver <= -0.06\ngini = 0.32\nsamples = 4\nvalue = [4, 1]\nclass = t", fillcolor="#eca06a"] ;
493 -> 494 ;
495 [label="gini = 0.0\nsamples = 1\nvalue = [1, 0]\nclass = t", fillcolor="#e58139"] ;
494 -> 495 ;
496 [label="avg_rating_of_driver <= 0.35\ngini = 0.38\nsamples = 3\nvalue = [3, 1]\nclass = t", fillcolor="#eeab7b"] ;
494 -> 496 ;
497 [label="gini = 0.0\nsamples = 2\nvalue = [3, 0]\nclass = t", fillcolor="#e58139"] ;
496 -> 497 ;
498 [label="gini = 0.0\nsamples = 1\nvalue = [0, 1]\nclass = a", fillcolor="#399de5"] ;
496 -> 498 ;
499 [label="gini = 0.0\nsamples = 2\nvalue = [2, 0]\nclass = t", fillcolor="#e58139"] ;
493 -> 499 ;
500 [label="avg_dist <= 0.55\ngini = 0.24\nsamples = 4\nvalue = [1, 6]\nclass = a", fillcolor="#5aade9"] ;
488 -> 500 ;
501 [label="gini = 0.0\nsamples = 3\nvalue = [0, 6]\nclass = a", fillcolor="#399de5"] ;
500 -> 501 ;
502 [label="gini = 0.0\nsamples = 1\nvalue = [1, 0]\nclass = t", fillcolor="#e58139"] ;
500 -> 502 ;
503 [label="gini = 0.0\nsamples = 2\nvalue = [0, 2]\nclass = a", fillcolor="#399de5"] ;
485 -> 503 ;
504 [label="city_King's Landing <= 0.74\ngini = 0.48\nsamples = 560\nvalue = [518, 342]\nclass = t", fillcolor="#f6d4bc"] ;
484 -> 504 ;
505 [label="trips_in_first_30_days <= 1.88\ngini = 0.46\nsamples = 487\nvalue = [469, 266]\nclass = t", fillcolor="#f4c8a9"] ;
504 -> 505 ;
506 [label="weekday_pct <= 0.19\ngini = 0.45\nsamples = 449\nvalue = [440, 234]\nclass = t", fillcolor="#f3c4a2"] ;
505 -> 506 ;
507 [label="avg_dist <= -0.58\ngini = 0.4\nsamples = 218\nvalue = [224, 87]\nclass = t", fillcolor="#efb286"] ;
506 -> 507 ;
508 [label="ultimate_black_user <= 0.25\ngini = 0.24\nsamples = 46\nvalue = [57, 9]\nclass = t", fillcolor="#e99558"] ;
507 -> 508 ;
509 [label="avg_rating_by_driver <= 0.16\ngini = 0.24\nsamples = 28\nvalue = [36, 6]\nclass = t", fillcolor="#e9965a"] ;
508 -> 509 ;
510 [label="avg_dist <= -0.69\ngini = 0.15\nsamples = 25\nvalue = [34, 3]\nclass = t", fillcolor="#e78c4a"] ;
509 -> 510 ;
511 [label="gini = 0.0\nsamples = 9\nvalue = [14, 0]\nclass = t", fillcolor="#e58139"] ;
510 -> 511 ;
512 [label="avg_rating_of_driver <= 0.53\ngini = 0.23\nsamples = 16\nvalue = [20, 3]\nclass = t", fillcolor="#e99457"] ;
510 -> 512 ;
513 [label="trips_in_first_30_days <= -0.21\ngini = 0.09\nsamples = 14\nvalue = [19, 1]\nclass = t", fillcolor="#e68843"] ;
512 -> 513 ;
514 [label="avg_dist <= -0.61\ngini = 0.28\nsamples = 5\nvalue = [5, 1]\nclass = t", fillcolor="#ea9a61"] ;
513 -> 514 ;
515 [label="gini = 0.0\nsamples = 3\nvalue = [4, 0]\nclass = t", fillcolor="#e58139"] ;
514 -> 515 ;
516 [label="avg_rating_by_driver <= -0.62\ngini = 0.5\nsamples = 2\nvalue = [1, 1]\nclass = t", fillcolor="#ffffff"] ;
514 -> 516 ;
517 [label="gini = 0.0\nsamples = 1\nvalue = [1, 0]\nclass = t", fillcolor="#e58139"] ;
516 -> 517 ;
518 [label="gini = 0.0\nsamples = 1\nvalue = [0, 1]\nclass = a", fillcolor="#399de5"] ;
516 -> 518 ;
519 [label="gini = 0.0\nsamples = 9\nvalue = [14, 0]\nclass = t", fillcolor="#e58139"] ;
513 -> 519 ;
520 [label="trips_in_first_30_days <= 0.58\ngini = 0.44\nsamples = 2\nvalue = [1, 2]\nclass = a", fillcolor="#9ccef2"] ;
512 -> 520 ;
521 [label="gini = 0.0\nsamples = 1\nvalue = [0, 2]\nclass = a", fillcolor="#399de5"] ;
520 -> 521 ;
522 [label="gini = 0.0\nsamples = 1\nvalue = [1, 0]\nclass = t", fillcolor="#e58139"] ;
520 -> 522 ;
523 [label="city_Winterfell <= 0.07\ngini = 0.48\nsamples = 3\nvalue = [2, 3]\nclass = a", fillcolor="#bddef6"] ;
509 -> 523 ;
524 [label="gini = 0.0\nsamples = 1\nvalue = [2, 0]\nclass = t", fillcolor="#e58139"] ;
523 -> 524 ;
525 [label="gini = 0.0\nsamples = 2\nvalue = [0, 3]\nclass = a", fillcolor="#399de5"] ;
523 -> 525 ;
526 [label="avg_rating_by_driver <= -0.95\ngini = 0.22\nsamples = 18\nvalue = [21, 3]\nclass = t", fillcolor="#e99355"] ;
508 -> 526 ;
527 [label="avg_rating_of_driver <= -0.89\ngini = 0.5\nsamples = 2\nvalue = [1, 1]\nclass = t", fillcolor="#ffffff"] ;
526 -> 527 ;
528 [label="gini = 0.0\nsamples = 1\nvalue = [0, 1]\nclass = a", fillcolor="#399de5"] ;
527 -> 528 ;
529 [label="gini = 0.0\nsamples = 1\nvalue = [1, 0]\nclass = t", fillcolor="#e58139"] ;
527 -> 529 ;
530 [label="weekday_pct <= -0.0\ngini = 0.17\nsamples = 16\nvalue = [20, 2]\nclass = t", fillcolor="#e88e4d"] ;
526 -> 530 ;
531 [label="city_Astapor <= 0.36\ngini = 0.23\nsamples = 10\nvalue = [13, 2]\nclass = t", fillcolor="#e99457"] ;
530 -> 531 ;
532 [label="gini = 0.0\nsamples = 3\nvalue = [6, 0]\nclass = t", fillcolor="#e58139"] ;
531 -> 532 ;
533 [label="weekday_pct <= -0.17\ngini = 0.35\nsamples = 7\nvalue = [7, 2]\nclass = t", fillcolor="#eca572"] ;
531 -> 533 ;
534 [label="gini = 0.0\nsamples = 1\nvalue = [1, 0]\nclass = t", fillcolor="#e58139"] ;
533 -> 534 ;
535 [label="avg_rating_by_driver <= -0.28\ngini = 0.38\nsamples = 6\nvalue = [6, 2]\nclass = t", fillcolor="#eeab7b"] ;
533 -> 535 ;
536 [label="avg_dist <= -0.61\ngini = 0.24\nsamples = 5\nvalue = [6, 1]\nclass = t", fillcolor="#e9965a"] ;
535 -> 536 ;
537 [label="gini = 0.0\nsamples = 4\nvalue = [6, 0]\nclass = t", fillcolor="#e58139"] ;
536 -> 537 ;
538 [label="gini = 0.0\nsamples = 1\nvalue = [0, 1]\nclass = a", fillcolor="#399de5"] ;
536 -> 538 ;
539 [label="gini = 0.0\nsamples = 1\nvalue = [0, 1]\nclass = a", fillcolor="#399de5"] ;
535 -> 539 ;
540 [label="gini = 0.0\nsamples = 6\nvalue = [7, 0]\nclass = t", fillcolor="#e58139"] ;
530 -> 540 ;
541 [label="ultimate_black_user <= 0.25\ngini = 0.43\nsamples = 172\nvalue = [167, 78]\nclass = t", fillcolor="#f1bc95"] ;
507 -> 541 ;
542 [label="avg_dist <= -0.57\ngini = 0.38\nsamples = 108\nvalue = [115, 39]\nclass = t", fillcolor="#eeac7c"] ;
541 -> 542 ;
543 [label="gini = 0.0\nsamples = 1\nvalue = [0, 2]\nclass = a", fillcolor="#399de5"] ;
542 -> 543 ;
544 [label="avg_rating_by_driver <= -0.28\ngini = 0.37\nsamples = 107\nvalue = [115, 37]\nclass = t", fillcolor="#edaa79"] ;
542 -> 544 ;
545 [label="avg_dist <= -0.5\ngini = 0.3\nsamples = 51\nvalue = [58, 13]\nclass = t", fillcolor="#eb9d65"] ;
544 -> 545 ;
546 [label="gini = 0.0\nsamples = 11\nvalue = [19, 0]\nclass = t", fillcolor="#e58139"] ;
545 -> 546 ;
547 [label="avg_rating_of_driver <= -1.69\ngini = 0.38\nsamples = 40\nvalue = [39, 13]\nclass = t", fillcolor="#eeab7b"] ;
545 -> 547 ;
548 [label="gini = 0.0\nsamples = 4\nvalue = [7, 0]\nclass = t", fillcolor="#e58139"] ;
547 -> 548 ;
549 [label="trips_in_first_30_days <= 1.62\ngini = 0.41\nsamples = 36\nvalue = [32, 13]\nclass = t", fillcolor="#f0b489"] ;
547 -> 549 ;
550 [label="avg_rating_of_driver <= -0.27\ngini = 0.38\nsamples = 35\nvalue = [32, 11]\nclass = t", fillcolor="#eeac7d"] ;
549 -> 550 ;
551 [label="city_Winterfell <= 0.07\ngini = 0.28\nsamples = 15\nvalue = [15, 3]\nclass = t", fillcolor="#ea9a61"] ;
550 -> 551 ;
552 [label="avg_rating_of_driver <= -0.89\ngini = 0.32\nsamples = 4\nvalue = [4, 1]\nclass = t", fillcolor="#eca06a"] ;
551 -> 552 ;
553 [label="trips_in_first_30_days <= -0.21\ngini = 0.38\nsamples = 3\nvalue = [3, 1]\nclass = t", fillcolor="#eeab7b"] ;
552 -> 553 ;
554 [label="gini = 0.0\nsamples = 1\nvalue = [1, 0]\nclass = t", fillcolor="#e58139"] ;
553 -> 554 ;
555 [label="avg_dist <= -0.34\ngini = 0.44\nsamples = 2\nvalue = [2, 1]\nclass = t", fillcolor="#f2c09c"] ;
553 -> 555 ;
556 [label="gini = 0.0\nsamples = 1\nvalue = [0, 1]\nclass = a", fillcolor="#399de5"] ;
555 -> 556 ;
557 [label="gini = 0.0\nsamples = 1\nvalue = [2, 0]\nclass = t", fillcolor="#e58139"] ;
555 -> 557 ;
558 [label="gini = 0.0\nsamples = 1\nvalue = [1, 0]\nclass = t", fillcolor="#e58139"] ;
552 -> 558 ;
559 [label="avg_dist <= -0.38\ngini = 0.26\nsamples = 11\nvalue = [11, 2]\nclass = t", fillcolor="#ea985d"] ;
551 -> 559 ;
560 [label="gini = 0.0\nsamples = 1\nvalue = [0, 1]\nclass = a", fillcolor="#399de5"] ;
559 -> 560 ;
561 [label="avg_dist <= -0.19\ngini = 0.15\nsamples = 10\nvalue = [11, 1]\nclass = t", fillcolor="#e78c4b"] ;
559 -> 561 ;
562 [label="avg_rating_of_driver <= -1.15\ngini = 0.44\nsamples = 2\nvalue = [2, 1]\nclass = t", fillcolor="#f2c09c"] ;
561 -> 562 ;
563 [label="gini = 0.0\nsamples = 1\nvalue = [0, 1]\nclass = a", fillcolor="#399de5"] ;
562 -> 563 ;
564 [label="gini = 0.0\nsamples = 1\nvalue = [2, 0]\nclass = t", fillcolor="#e58139"] ;
562 -> 564 ;
565 [label="gini = 0.0\nsamples = 8\nvalue = [9, 0]\nclass = t", fillcolor="#e58139"] ;
561 -> 565 ;
566 [label="weekday_pct <= -0.04\ngini = 0.44\nsamples = 20\nvalue = [17, 8]\nclass = t", fillcolor="#f1bc96"] ;
550 -> 566 ;
567 [label="gini = 0.0\nsamples = 3\nvalue = [4, 0]\nclass = t", fillcolor="#e58139"] ;
566 -> 567 ;
568 [label="avg_rating_of_driver <= 0.62\ngini = 0.47\nsamples = 17\nvalue = [13, 8]\nclass = t", fillcolor="#f5cfb3"] ;
566 -> 568 ;
569 [label="weekday_pct <= 0.1\ngini = 0.47\nsamples = 7\nvalue = [3, 5]\nclass = a", fillcolor="#b0d8f5"] ;
568 -> 569 ;
570 [label="gini = 0.0\nsamples = 3\nvalue = [0, 4]\nclass = a", fillcolor="#399de5"] ;
569 -> 570 ;
571 [label="trips_in_first_30_days <= 1.36\ngini = 0.38\nsamples = 4\nvalue = [3, 1]\nclass = t", fillcolor="#eeab7b"] ;
569 -> 571 ;
572 [label="gini = 0.0\nsamples = 3\nvalue = [3, 0]\nclass = t", fillcolor="#e58139"] ;
571 -> 572 ;
573 [label="gini = 0.0\nsamples = 1\nvalue = [0, 1]\nclass = a", fillcolor="#399de5"] ;
571 -> 573 ;
574 [label="city_Winterfell <= 0.07\ngini = 0.36\nsamples = 10\nvalue = [10, 3]\nclass = t", fillcolor="#eda774"] ;
568 -> 574 ;
575 [label="gini = 0.0\nsamples = 1\nvalue = [2, 0]\nclass = t", fillcolor="#e58139"] ;
574 -> 575 ;
576 [label="trips_in_first_30_days <= -0.47\ngini = 0.4\nsamples = 9\nvalue = [8, 3]\nclass = t", fillcolor="#efb083"] ;
574 -> 576 ;
577 [label="gini = 0.0\nsamples = 2\nvalue = [2, 0]\nclass = t", fillcolor="#e58139"] ;
576 -> 577 ;
578 [label="trips_in_first_30_days <= 0.19\ngini = 0.44\nsamples = 7\nvalue = [6, 3]\nclass = t", fillcolor="#f2c09c"] ;
576 -> 578 ;
579 [label="avg_dist <= -0.19\ngini = 0.49\nsamples = 5\nvalue = [4, 3]\nclass = t", fillcolor="#f8e0ce"] ;
578 -> 579 ;
580 [label="gini = 0.0\nsamples = 2\nvalue = [0, 2]\nclass = a", fillcolor="#399de5"] ;
579 -> 580 ;
581 [label="avg_rating_by_driver <= -1.06\ngini = 0.32\nsamples = 3\nvalue = [4, 1]\nclass = t", fillcolor="#eca06a"] ;
579 -> 581 ;
582 [label="gini = 0.0\nsamples = 1\nvalue = [0, 1]\nclass = a", fillcolor="#399de5"] ;
581 -> 582 ;
583 [label="gini = 0.0\nsamples = 2\nvalue = [4, 0]\nclass = t", fillcolor="#e58139"] ;
581 -> 583 ;
584 [label="gini = 0.0\nsamples = 2\nvalue = [2, 0]\nclass = t", fillcolor="#e58139"] ;
578 -> 584 ;
585 [label="gini = 0.0\nsamples = 1\nvalue = [0, 2]\nclass = a", fillcolor="#399de5"] ;
549 -> 585 ;
586 [label="trips_in_first_30_days <= 1.62\ngini = 0.42\nsamples = 56\nvalue = [57, 24]\nclass = t", fillcolor="#f0b68c"] ;
544 -> 586 ;
587 [label="city_Winterfell <= 0.07\ngini = 0.41\nsamples = 55\nvalue = [57, 23]\nclass = t", fillcolor="#efb489"] ;
586 -> 587 ;
588 [label="avg_dist <= -0.49\ngini = 0.21\nsamples = 17\nvalue = [22, 3]\nclass = t", fillcolor="#e99254"] ;
587 -> 588 ;
589 [label="gini = 0.0\nsamples = 1\nvalue = [0, 1]\nclass = a", fillcolor="#399de5"] ;
588 -> 589 ;
590 [label="avg_rating_of_driver <= -0.36\ngini = 0.15\nsamples = 16\nvalue = [22, 2]\nclass = t", fillcolor="#e78c4b"] ;
588 -> 590 ;
591 [label="avg_dist <= -0.28\ngini = 0.44\nsamples = 5\nvalue = [4, 2]\nclass = t", fillcolor="#f2c09c"] ;
590 -> 591 ;
592 [label="gini = 0.0\nsamples = 1\nvalue = [0, 2]\nclass = a", fillcolor="#399de5"] ;
591 -> 592 ;
593 [label="gini = 0.0\nsamples = 4\nvalue = [4, 0]\nclass = t", fillcolor="#e58139"] ;
591 -> 593 ;
594 [label="gini = 0.0\nsamples = 11\nvalue = [18, 0]\nclass = t", fillcolor="#e58139"] ;
590 -> 594 ;
595 [label="avg_dist <= -0.3\ngini = 0.46\nsamples = 38\nvalue = [35, 20]\nclass = t", fillcolor="#f4c9aa"] ;
587 -> 595 ;
596 [label="avg_dist <= -0.54\ngini = 0.27\nsamples = 14\nvalue = [16, 3]\nclass = t", fillcolor="#ea995e"] ;
595 -> 596 ;
597 [label="weekday_pct <= -0.01\ngini = 0.44\nsamples = 2\nvalue = [1, 2]\nclass = a", fillcolor="#9ccef2"] ;
596 -> 597 ;
598 [label="gini = 0.0\nsamples = 1\nvalue = [1, 0]\nclass = t", fillcolor="#e58139"] ;
597 -> 598 ;
599 [label="gini = 0.0\nsamples = 1\nvalue = [0, 2]\nclass = a", fillcolor="#399de5"] ;
597 -> 599 ;
600 [label="avg_rating_of_driver <= -0.09\ngini = 0.12\nsamples = 12\nvalue = [15, 1]\nclass = t", fillcolor="#e78946"] ;
596 -> 600 ;
601 [label="gini = 0.0\nsamples = 7\nvalue = [10, 0]\nclass = t", fillcolor="#e58139"] ;
600 -> 601 ;
602 [label="avg_rating_of_driver <= 0.09\ngini = 0.28\nsamples = 5\nvalue = [5, 1]\nclass = t", fillcolor="#ea9a61"] ;
600 -> 602 ;
603 [label="gini = 0.0\nsamples = 1\nvalue = [0, 1]\nclass = a", fillcolor="#399de5"] ;
602 -> 603 ;
604 [label="gini = 0.0\nsamples = 4\nvalue = [5, 0]\nclass = t", fillcolor="#e58139"] ;
602 -> 604 ;
605 [label="weekday_pct <= -0.19\ngini = 0.5\nsamples = 24\nvalue = [19, 17]\nclass = t", fillcolor="#fcf2ea"] ;
595 -> 605 ;
606 [label="gini = 0.0\nsamples = 1\nvalue = [0, 2]\nclass = a", fillcolor="#399de5"] ;
605 -> 606 ;
607 [label="avg_dist <= -0.23\ngini = 0.49\nsamples = 23\nvalue = [19, 15]\nclass = t", fillcolor="#fae4d5"] ;
605 -> 607 ;
608 [label="gini = 0.0\nsamples = 2\nvalue = [0, 3]\nclass = a", fillcolor="#399de5"] ;
607 -> 608 ;
609 [label="avg_dist <= -0.04\ngini = 0.47\nsamples = 21\nvalue = [19, 12]\nclass = t", fillcolor="#f5d1b6"] ;
607 -> 609 ;
610 [label="trips_in_first_30_days <= -0.47\ngini = 0.22\nsamples = 7\nvalue = [7, 1]\nclass = t", fillcolor="#e99355"] ;
609 -> 610 ;
611 [label="gini = 0.0\nsamples = 1\nvalue = [0, 1]\nclass = a", fillcolor="#399de5"] ;
610 -> 611 ;
612 [label="gini = 0.0\nsamples = 6\nvalue = [7, 0]\nclass = t", fillcolor="#e58139"] ;
610 -> 612 ;
613 [label="avg_dist <= 0.09\ngini = 0.5\nsamples = 14\nvalue = [12, 11]\nclass = t", fillcolor="#fdf5ef"] ;
609 -> 613 ;
614 [label="trips_in_first_30_days <= 0.84\ngini = 0.24\nsamples = 4\nvalue = [1, 6]\nclass = a", fillcolor="#5aade9"] ;
613 -> 614 ;
615 [label="gini = 0.0\nsamples = 3\nvalue = [0, 6]\nclass = a", fillcolor="#399de5"] ;
614 -> 615 ;
616 [label="gini = 0.0\nsamples = 1\nvalue = [1, 0]\nclass = t", fillcolor="#e58139"] ;
614 -> 616 ;
617 [label="avg_rating_of_driver <= -0.8\ngini = 0.43\nsamples = 10\nvalue = [11, 5]\nclass = t", fillcolor="#f1ba93"] ;
613 -> 617 ;
618 [label="trips_in_first_30_days <= -0.08\ngini = 0.41\nsamples = 4\nvalue = [2, 5]\nclass = a", fillcolor="#88c4ef"] ;
617 -> 618 ;
619 [label="gini = 0.0\nsamples = 1\nvalue = [2, 0]\nclass = t", fillcolor="#e58139"] ;
618 -> 619 ;
620 [label="gini = 0.0\nsamples = 3\nvalue = [0, 5]\nclass = a", fillcolor="#399de5"] ;
618 -> 620 ;
621 [label="gini = 0.0\nsamples = 6\nvalue = [9, 0]\nclass = t", fillcolor="#e58139"] ;
617 -> 621 ;
622 [label="gini = 0.0\nsamples = 1\nvalue = [0, 1]\nclass = a", fillcolor="#399de5"] ;
586 -> 622 ;
623 [label="trips_in_first_30_days <= 1.49\ngini = 0.49\nsamples = 64\nvalue = [52, 39]\nclass = t", fillcolor="#f8e0ce"] ;
541 -> 623 ;
624 [label="weekday_pct <= -0.16\ngini = 0.49\nsamples = 62\nvalue = [49, 39]\nclass = t", fillcolor="#fae5d7"] ;
623 -> 624 ;
625 [label="gini = 0.0\nsamples = 3\nvalue = [0, 5]\nclass = a", fillcolor="#399de5"] ;
624 -> 625 ;
626 [label="weekday_pct <= 0.13\ngini = 0.48\nsamples = 59\nvalue = [49, 34]\nclass = t", fillcolor="#f7d8c2"] ;
624 -> 626 ;
627 [label="avg_rating_by_driver <= -0.95\ngini = 0.5\nsamples = 37\nvalue = [25, 25]\nclass = t", fillcolor="#ffffff"] ;
626 -> 627 ;
628 [label="trips_in_first_30_days <= -0.21\ngini = 0.38\nsamples = 4\nvalue = [1, 3]\nclass = a", fillcolor="#7bbeee"] ;
627 -> 628 ;
629 [label="avg_rating_of_driver <= -0.89\ngini = 0.44\nsamples = 3\nvalue = [1, 2]\nclass = a", fillcolor="#9ccef2"] ;
628 -> 629 ;
630 [label="gini = 0.0\nsamples = 1\nvalue = [1, 0]\nclass = t", fillcolor="#e58139"] ;
629 -> 630 ;
631 [label="gini = 0.0\nsamples = 2\nvalue = [0, 2]\nclass = a", fillcolor="#399de5"] ;
629 -> 631 ;
632 [label="gini = 0.0\nsamples = 1\nvalue = [0, 1]\nclass = a", fillcolor="#399de5"] ;
628 -> 632 ;
633 [label="weekday_pct <= -0.07\ngini = 0.5\nsamples = 33\nvalue = [24, 22]\nclass = t", fillcolor="#fdf5ef"] ;
627 -> 633 ;
634 [label="city_Astapor <= 0.36\ngini = 0.24\nsamples = 11\nvalue = [12, 2]\nclass = t", fillcolor="#e9965a"] ;
633 -> 634 ;
635 [label="avg_dist <= -0.48\ngini = 0.38\nsamples = 7\nvalue = [6, 2]\nclass = t", fillcolor="#eeab7b"] ;
634 -> 635 ;
636 [label="gini = 0.0\nsamples = 1\nvalue = [0, 1]\nclass = a", fillcolor="#399de5"] ;
635 -> 636 ;
637 [label="avg_rating_of_driver <= 0.62\ngini = 0.24\nsamples = 6\nvalue = [6, 1]\nclass = t", fillcolor="#e9965a"] ;
635 -> 637 ;
638 [label="gini = 0.0\nsamples = 3\nvalue = [3, 0]\nclass = t", fillcolor="#e58139"] ;
637 -> 638 ;
639 [label="weekday_pct <= -0.11\ngini = 0.38\nsamples = 3\nvalue = [3, 1]\nclass = t", fillcolor="#eeab7b"] ;
637 -> 639 ;
640 [label="gini = 0.0\nsamples = 1\nvalue = [0, 1]\nclass = a", fillcolor="#399de5"] ;
639 -> 640 ;
641 [label="gini = 0.0\nsamples = 2\nvalue = [3, 0]\nclass = t", fillcolor="#e58139"] ;
639 -> 641 ;
642 [label="gini = 0.0\nsamples = 4\nvalue = [6, 0]\nclass = t", fillcolor="#e58139"] ;
634 -> 642 ;
643 [label="trips_in_first_30_days <= 0.58\ngini = 0.47\nsamples = 22\nvalue = [12, 20]\nclass = a", fillcolor="#b0d8f5"] ;
633 -> 643 ;
644 [label="avg_dist <= -0.36\ngini = 0.44\nsamples = 20\nvalue = [10, 20]\nclass = a", fillcolor="#9ccef2"] ;
643 -> 644 ;
645 [label="gini = 0.0\nsamples = 4\nvalue = [0, 7]\nclass = a", fillcolor="#399de5"] ;
644 -> 645 ;
646 [label="avg_rating_of_driver <= -0.09\ngini = 0.49\nsamples = 16\nvalue = [10, 13]\nclass = a", fillcolor="#d1e8f9"] ;
644 -> 646 ;
647 [label="weekday_pct <= 0.03\ngini = 0.44\nsamples = 4\nvalue = [4, 2]\nclass = t", fillcolor="#f2c09c"] ;
646 -> 647 ;
648 [label="avg_rating_of_driver <= -1.07\ngini = 0.5\nsamples = 2\nvalue = [2, 2]\nclass = t", fillcolor="#ffffff"] ;
647 -> 648 ;
649 [label="gini = 0.0\nsamples = 1\nvalue = [0, 2]\nclass = a", fillcolor="#399de5"] ;
648 -> 649 ;
650 [label="gini = 0.0\nsamples = 1\nvalue = [2, 0]\nclass = t", fillcolor="#e58139"] ;
648 -> 650 ;
651 [label="gini = 0.0\nsamples = 2\nvalue = [2, 0]\nclass = t", fillcolor="#e58139"] ;
647 -> 651 ;
652 [label="avg_rating_by_driver <= 0.16\ngini = 0.46\nsamples = 12\nvalue = [6, 11]\nclass = a", fillcolor="#a5d2f3"] ;
646 -> 652 ;
653 [label="city_Astapor <= 0.36\ngini = 0.49\nsamples = 10\nvalue = [6, 8]\nclass = a", fillcolor="#cee6f8"] ;
652 -> 653 ;
654 [label="avg_rating_by_driver <= -0.06\ngini = 0.47\nsamples = 9\nvalue = [5, 8]\nclass = a", fillcolor="#b5daf5"] ;
653 -> 654 ;
655 [label="avg_rating_of_driver <= 0.18\ngini = 0.41\nsamples = 5\nvalue = [2, 5]\nclass = a", fillcolor="#88c4ef"] ;
654 -> 655 ;
656 [label="avg_dist <= 0.21\ngini = 0.5\nsamples = 2\nvalue = [2, 2]\nclass = t", fillcolor="#ffffff"] ;
655 -> 656 ;
657 [label="gini = 0.0\nsamples = 1\nvalue = [0, 2]\nclass = a", fillcolor="#399de5"] ;
656 -> 657 ;
658 [label="gini = 0.0\nsamples = 1\nvalue = [2, 0]\nclass = t", fillcolor="#e58139"] ;
656 -> 658 ;
659 [label="gini = 0.0\nsamples = 3\nvalue = [0, 3]\nclass = a", fillcolor="#399de5"] ;
655 -> 659 ;
660 [label="avg_rating_of_driver <= 0.26\ngini = 0.5\nsamples = 4\nvalue = [3, 3]\nclass = t", fillcolor="#ffffff"] ;
654 -> 660 ;
661 [label="gini = 0.0\nsamples = 1\nvalue = [0, 1]\nclass = a", fillcolor="#399de5"] ;
660 -> 661 ;
662 [label="avg_rating_of_driver <= 0.62\ngini = 0.48\nsamples = 3\nvalue = [3, 2]\nclass = t", fillcolor="#f6d5bd"] ;
660 -> 662 ;
663 [label="gini = 0.0\nsamples = 1\nvalue = [1, 0]\nclass = t", fillcolor="#e58139"] ;
662 -> 663 ;
664 [label="weekday_pct <= 0.04\ngini = 0.5\nsamples = 2\nvalue = [2, 2]\nclass = t", fillcolor="#ffffff"] ;
662 -> 664 ;
665 [label="gini = 0.0\nsamples = 1\nvalue = [2, 0]\nclass = t", fillcolor="#e58139"] ;
664 -> 665 ;
666 [label="gini = 0.0\nsamples = 1\nvalue = [0, 2]\nclass = a", fillcolor="#399de5"] ;
664 -> 666 ;
667 [label="gini = 0.0\nsamples = 1\nvalue = [1, 0]\nclass = t", fillcolor="#e58139"] ;
653 -> 667 ;
668 [label="gini = 0.0\nsamples = 2\nvalue = [0, 3]\nclass = a", fillcolor="#399de5"] ;
652 -> 668 ;
669 [label="gini = 0.0\nsamples = 2\nvalue = [2, 0]\nclass = t", fillcolor="#e58139"] ;
643 -> 669 ;
670 [label="avg_rating_of_driver <= -0.8\ngini = 0.4\nsamples = 22\nvalue = [24, 9]\nclass = t", fillcolor="#efb083"] ;
626 -> 670 ;
671 [label="avg_rating_of_driver <= -2.48\ngini = 0.15\nsamples = 7\nvalue = [11, 1]\nclass = t", fillcolor="#e78c4b"] ;
670 -> 671 ;
672 [label="avg_dist <= 0.08\ngini = 0.5\nsamples = 2\nvalue = [1, 1]\nclass = t", fillcolor="#ffffff"] ;
671 -> 672 ;
673 [label="gini = 0.0\nsamples = 1\nvalue = [1, 0]\nclass = t", fillcolor="#e58139"] ;
672 -> 673 ;
674 [label="gini = 0.0\nsamples = 1\nvalue = [0, 1]\nclass = a", fillcolor="#399de5"] ;
672 -> 674 ;
675 [label="gini = 0.0\nsamples = 5\nvalue = [10, 0]\nclass = t", fillcolor="#e58139"] ;
671 -> 675 ;
676 [label="city_Winterfell <= 0.07\ngini = 0.47\nsamples = 15\nvalue = [13, 8]\nclass = t", fillcolor="#f5cfb3"] ;
670 -> 676 ;
677 [label="avg_dist <= -0.43\ngini = 0.42\nsamples = 6\nvalue = [7, 3]\nclass = t", fillcolor="#f0b78e"] ;
676 -> 677 ;
678 [label="gini = 0.0\nsamples = 3\nvalue = [5, 0]\nclass = t", fillcolor="#e58139"] ;
677 -> 678 ;
679 [label="avg_dist <= -0.33\ngini = 0.48\nsamples = 3\nvalue = [2, 3]\nclass = a", fillcolor="#bddef6"] ;
677 -> 679 ;
680 [label="gini = 0.0\nsamples = 1\nvalue = [0, 3]\nclass = a", fillcolor="#399de5"] ;
679 -> 680 ;
681 [label="gini = 0.0\nsamples = 2\nvalue = [2, 0]\nclass = t", fillcolor="#e58139"] ;
679 -> 681 ;
682 [label="trips_in_first_30_days <= 1.1\ngini = 0.5\nsamples = 9\nvalue = [6, 5]\nclass = t", fillcolor="#fbeade"] ;
676 -> 682 ;
683 [label="avg_rating_by_driver <= -0.62\ngini = 0.47\nsamples = 7\nvalue = [3, 5]\nclass = a", fillcolor="#b0d8f5"] ;
682 -> 683 ;
684 [label="avg_rating_by_driver <= -1.4\ngini = 0.48\nsamples = 4\nvalue = [3, 2]\nclass = t", fillcolor="#f6d5bd"] ;
683 -> 684 ;
685 [label="trips_in_first_30_days <= -0.21\ngini = 0.44\nsamples = 3\nvalue = [1, 2]\nclass = a", fillcolor="#9ccef2"] ;
684 -> 685 ;
686 [label="gini = 0.0\nsamples = 1\nvalue = [0, 1]\nclass = a", fillcolor="#399de5"] ;
685 -> 686 ;
687 [label="trips_in_first_30_days <= 0.06\ngini = 0.5\nsamples = 2\nvalue = [1, 1]\nclass = t", fillcolor="#ffffff"] ;
685 -> 687 ;
688 [label="gini = 0.0\nsamples = 1\nvalue = [1, 0]\nclass = t", fillcolor="#e58139"] ;
687 -> 688 ;
689 [label="gini = 0.0\nsamples = 1\nvalue = [0, 1]\nclass = a", fillcolor="#399de5"] ;
687 -> 689 ;
690 [label="gini = 0.0\nsamples = 1\nvalue = [2, 0]\nclass = t", fillcolor="#e58139"] ;
684 -> 690 ;
691 [label="gini = 0.0\nsamples = 3\nvalue = [0, 3]\nclass = a", fillcolor="#399de5"] ;
683 -> 691 ;
692 [label="gini = 0.0\nsamples = 2\nvalue = [3, 0]\nclass = t", fillcolor="#e58139"] ;
682 -> 692 ;
693 [label="gini = 0.0\nsamples = 2\nvalue = [3, 0]\nclass = t", fillcolor="#e58139"] ;
623 -> 693 ;
694 [label="avg_rating_of_driver <= -3.28\ngini = 0.48\nsamples = 231\nvalue = [216, 147]\nclass = t", fillcolor="#f7d7c0"] ;
506 -> 694 ;
695 [label="gini = 0.0\nsamples = 2\nvalue = [4, 0]\nclass = t", fillcolor="#e58139"] ;
694 -> 695 ;
696 [label="ultimate_black_user <= 0.25\ngini = 0.48\nsamples = 229\nvalue = [212, 147]\nclass = t", fillcolor="#f7d8c2"] ;
694 -> 696 ;
697 [label="city_Astapor <= 0.36\ngini = 0.43\nsamples = 137\nvalue = [148, 66]\nclass = t", fillcolor="#f1b991"] ;
696 -> 697 ;
698 [label="avg_rating_of_driver <= -2.48\ngini = 0.43\nsamples = 108\nvalue = [114, 52]\nclass = t", fillcolor="#f1ba93"] ;
697 -> 698 ;
699 [label="gini = 0.0\nsamples = 2\nvalue = [0, 3]\nclass = a", fillcolor="#399de5"] ;
698 -> 699 ;
700 [label="weekday_pct <= 0.85\ngini = 0.42\nsamples = 106\nvalue = [114, 49]\nclass = t", fillcolor="#f0b78e"] ;
698 -> 700 ;
701 [label="trips_in_first_30_days <= 0.06\ngini = 0.4\nsamples = 102\nvalue = [114, 44]\nclass = t", fillcolor="#efb285"] ;
700 -> 701 ;
702 [label="avg_rating_by_driver <= -0.95\ngini = 0.47\nsamples = 42\nvalue = [40, 25]\nclass = t", fillcolor="#f5d0b5"] ;
701 -> 702 ;
703 [label="trips_in_first_30_days <= -0.21\ngini = 0.28\nsamples = 6\nvalue = [5, 1]\nclass = t", fillcolor="#ea9a61"] ;
702 -> 703 ;
704 [label="gini = 0.0\nsamples = 2\nvalue = [2, 0]\nclass = t", fillcolor="#e58139"] ;
703 -> 704 ;
705 [label="avg_rating_of_driver <= 0.26\ngini = 0.38\nsamples = 4\nvalue = [3, 1]\nclass = t", fillcolor="#eeab7b"] ;
703 -> 705 ;
706 [label="gini = 0.0\nsamples = 2\nvalue = [2, 0]\nclass = t", fillcolor="#e58139"] ;
705 -> 706 ;
707 [label="avg_dist <= -0.16\ngini = 0.5\nsamples = 2\nvalue = [1, 1]\nclass = t", fillcolor="#ffffff"] ;
705 -> 707 ;
708 [label="gini = 0.0\nsamples = 1\nvalue = [0, 1]\nclass = a", fillcolor="#399de5"] ;
707 -> 708 ;
709 [label="gini = 0.0\nsamples = 1\nvalue = [1, 0]\nclass = t", fillcolor="#e58139"] ;
707 -> 709 ;
710 [label="avg_dist <= -0.47\ngini = 0.48\nsamples = 36\nvalue = [35, 24]\nclass = t", fillcolor="#f7d7c1"] ;
702 -> 710 ;
711 [label="weekday_pct <= 0.45\ngini = 0.26\nsamples = 8\nvalue = [2, 11]\nclass = a", fillcolor="#5dafea"] ;
710 -> 711 ;
712 [label="gini = 0.0\nsamples = 3\nvalue = [0, 6]\nclass = a", fillcolor="#399de5"] ;
711 -> 712 ;
713 [label="avg_dist <= -0.66\ngini = 0.41\nsamples = 5\nvalue = [2, 5]\nclass = a", fillcolor="#88c4ef"] ;
711 -> 713 ;
714 [label="gini = 0.0\nsamples = 2\nvalue = [2, 0]\nclass = t", fillcolor="#e58139"] ;
713 -> 714 ;
715 [label="gini = 0.0\nsamples = 3\nvalue = [0, 5]\nclass = a", fillcolor="#399de5"] ;
713 -> 715 ;
716 [label="avg_rating_by_driver <= -0.28\ngini = 0.41\nsamples = 28\nvalue = [33, 13]\nclass = t", fillcolor="#efb387"] ;
710 -> 716 ;
717 [label="avg_dist <= -0.45\ngini = 0.49\nsamples = 10\nvalue = [7, 9]\nclass = a", fillcolor="#d3e9f9"] ;
716 -> 717 ;
718 [label="gini = 0.0\nsamples = 1\nvalue = [3, 0]\nclass = t", fillcolor="#e58139"] ;
717 -> 718 ;
719 [label="weekday_pct <= 0.3\ngini = 0.43\nsamples = 9\nvalue = [4, 9]\nclass = a", fillcolor="#91c9f1"] ;
717 -> 719 ;
720 [label="gini = 0.0\nsamples = 1\nvalue = [2, 0]\nclass = t", fillcolor="#e58139"] ;
719 -> 720 ;
721 [label="trips_in_first_30_days <= -0.21\ngini = 0.3\nsamples = 8\nvalue = [2, 9]\nclass = a", fillcolor="#65b3eb"] ;
719 -> 721 ;
722 [label="avg_dist <= -0.31\ngini = 0.28\nsamples = 4\nvalue = [1, 5]\nclass = a", fillcolor="#61b1ea"] ;
721 -> 722 ;
723 [label="gini = 0.0\nsamples = 1\nvalue = [1, 0]\nclass = t", fillcolor="#e58139"] ;
722 -> 723 ;
724 [label="gini = 0.0\nsamples = 3\nvalue = [0, 5]\nclass = a", fillcolor="#399de5"] ;
722 -> 724 ;
725 [label="weekday_pct <= 0.4\ngini = 0.32\nsamples = 4\nvalue = [1, 4]\nclass = a", fillcolor="#6ab6ec"] ;
721 -> 725 ;
726 [label="gini = 0.0\nsamples = 2\nvalue = [0, 3]\nclass = a", fillcolor="#399de5"] ;
725 -> 726 ;
727 [label="avg_dist <= -0.27\ngini = 0.5\nsamples = 2\nvalue = [1, 1]\nclass = t", fillcolor="#ffffff"] ;
725 -> 727 ;
728 [label="gini = 0.0\nsamples = 1\nvalue = [0, 1]\nclass = a", fillcolor="#399de5"] ;
727 -> 728 ;
729 [label="gini = 0.0\nsamples = 1\nvalue = [1, 0]\nclass = t", fillcolor="#e58139"] ;
727 -> 729 ;
730 [label="avg_dist <= 0.39\ngini = 0.23\nsamples = 18\nvalue = [26, 4]\nclass = t", fillcolor="#e99457"] ;
716 -> 730 ;
731 [label="avg_dist <= -0.44\ngini = 0.14\nsamples = 14\nvalue = [24, 2]\nclass = t", fillcolor="#e78c49"] ;
730 -> 731 ;
732 [label="gini = 0.0\nsamples = 2\nvalue = [7, 0]\nclass = t", fillcolor="#e58139"] ;
731 -> 732 ;
733 [label="avg_rating_by_driver <= -0.06\ngini = 0.19\nsamples = 12\nvalue = [17, 2]\nclass = t", fillcolor="#e89050"] ;
731 -> 733 ;
734 [label="weekday_pct <= 0.44\ngini = 0.5\nsamples = 2\nvalue = [1, 1]\nclass = t", fillcolor="#ffffff"] ;
733 -> 734 ;
735 [label="gini = 0.0\nsamples = 1\nvalue = [0, 1]\nclass = a", fillcolor="#399de5"] ;
734 -> 735 ;
736 [label="gini = 0.0\nsamples = 1\nvalue = [1, 0]\nclass = t", fillcolor="#e58139"] ;
734 -> 736 ;
737 [label="avg_dist <= 0.06\ngini = 0.11\nsamples = 10\nvalue = [16, 1]\nclass = t", fillcolor="#e78945"] ;
733 -> 737 ;
738 [label="gini = 0.0\nsamples = 5\nvalue = [11, 0]\nclass = t", fillcolor="#e58139"] ;
737 -> 738 ;
739 [label="weekday_pct <= 0.45\ngini = 0.28\nsamples = 5\nvalue = [5, 1]\nclass = t", fillcolor="#ea9a61"] ;
737 -> 739 ;
740 [label="avg_rating_of_driver <= 0.53\ngini = 0.5\nsamples = 2\nvalue = [1, 1]\nclass = t", fillcolor="#ffffff"] ;
739 -> 740 ;
741 [label="gini = 0.0\nsamples = 1\nvalue = [0, 1]\nclass = a", fillcolor="#399de5"] ;
740 -> 741 ;
742 [label="gini = 0.0\nsamples = 1\nvalue = [1, 0]\nclass = t", fillcolor="#e58139"] ;
740 -> 742 ;
743 [label="gini = 0.0\nsamples = 3\nvalue = [4, 0]\nclass = t", fillcolor="#e58139"] ;
739 -> 743 ;
744 [label="avg_rating_of_driver <= -0.36\ngini = 0.5\nsamples = 4\nvalue = [2, 2]\nclass = t", fillcolor="#ffffff"] ;
730 -> 744 ;
745 [label="gini = 0.0\nsamples = 1\nvalue = [0, 1]\nclass = a", fillcolor="#399de5"] ;
744 -> 745 ;
746 [label="avg_dist <= 0.89\ngini = 0.44\nsamples = 3\nvalue = [2, 1]\nclass = t", fillcolor="#f2c09c"] ;
744 -> 746 ;
747 [label="gini = 0.0\nsamples = 1\nvalue = [1, 0]\nclass = t", fillcolor="#e58139"] ;
746 -> 747 ;
748 [label="weekday_pct <= 0.56\ngini = 0.5\nsamples = 2\nvalue = [1, 1]\nclass = t", fillcolor="#ffffff"] ;
746 -> 748 ;
749 [label="gini = 0.0\nsamples = 1\nvalue = [0, 1]\nclass = a", fillcolor="#399de5"] ;
748 -> 749 ;
750 [label="gini = 0.0\nsamples = 1\nvalue = [1, 0]\nclass = t", fillcolor="#e58139"] ;
748 -> 750 ;
751 [label="avg_dist <= -0.79\ngini = 0.33\nsamples = 60\nvalue = [74, 19]\nclass = t", fillcolor="#eca16c"] ;
701 -> 751 ;
752 [label="gini = 0.0\nsamples = 1\nvalue = [0, 1]\nclass = a", fillcolor="#399de5"] ;
751 -> 752 ;
753 [label="weekday_pct <= 0.24\ngini = 0.31\nsamples = 59\nvalue = [74, 18]\nclass = t", fillcolor="#eba069"] ;
751 -> 753 ;
754 [label="gini = 0.0\nsamples = 2\nvalue = [0, 4]\nclass = a", fillcolor="#399de5"] ;
753 -> 754 ;
755 [label="avg_rating_by_driver <= -0.51\ngini = 0.27\nsamples = 57\nvalue = [74, 14]\nclass = t", fillcolor="#ea995e"] ;
753 -> 755 ;
756 [label="avg_rating_by_driver <= -0.95\ngini = 0.07\nsamples = 19\nvalue = [27, 1]\nclass = t", fillcolor="#e68640"] ;
755 -> 756 ;
757 [label="gini = 0.0\nsamples = 9\nvalue = [12, 0]\nclass = t", fillcolor="#e58139"] ;
756 -> 757 ;
758 [label="avg_dist <= -0.43\ngini = 0.12\nsamples = 10\nvalue = [15, 1]\nclass = t", fillcolor="#e78946"] ;
756 -> 758 ;
759 [label="weekday_pct <= 0.49\ngini = 0.24\nsamples = 4\nvalue = [6, 1]\nclass = t", fillcolor="#e9965a"] ;
758 -> 759 ;
760 [label="gini = 0.0\nsamples = 3\nvalue = [6, 0]\nclass = t", fillcolor="#e58139"] ;
759 -> 760 ;
761 [label="gini = 0.0\nsamples = 1\nvalue = [0, 1]\nclass = a", fillcolor="#399de5"] ;
759 -> 761 ;
762 [label="gini = 0.0\nsamples = 6\nvalue = [9, 0]\nclass = t", fillcolor="#e58139"] ;
758 -> 762 ;
763 [label="avg_rating_of_driver <= 0.62\ngini = 0.34\nsamples = 38\nvalue = [47, 13]\nclass = t", fillcolor="#eca470"] ;
755 -> 763 ;
764 [label="avg_rating_of_driver <= -0.62\ngini = 0.26\nsamples = 29\nvalue = [39, 7]\nclass = t", fillcolor="#ea985d"] ;
763 -> 764 ;
765 [label="avg_rating_of_driver <= -1.33\ngini = 0.1\nsamples = 9\nvalue = [17, 1]\nclass = t", fillcolor="#e78845"] ;
764 -> 765 ;
766 [label="gini = 0.0\nsamples = 2\nvalue = [4, 0]\nclass = t", fillcolor="#e58139"] ;
765 -> 766 ;
767 [label="trips_in_first_30_days <= 0.84\ngini = 0.13\nsamples = 7\nvalue = [13, 1]\nclass = t", fillcolor="#e78b48"] ;
765 -> 767 ;
768 [label="gini = 0.0\nsamples = 5\nvalue = [11, 0]\nclass = t", fillcolor="#e58139"] ;
767 -> 768 ;
769 [label="avg_rating_of_driver <= -0.98\ngini = 0.44\nsamples = 2\nvalue = [2, 1]\nclass = t", fillcolor="#f2c09c"] ;
767 -> 769 ;
770 [label="gini = 0.0\nsamples = 1\nvalue = [0, 1]\nclass = a", fillcolor="#399de5"] ;
769 -> 770 ;
771 [label="gini = 0.0\nsamples = 1\nvalue = [2, 0]\nclass = t", fillcolor="#e58139"] ;
769 -> 771 ;
772 [label="avg_rating_by_driver <= -0.28\ngini = 0.34\nsamples = 20\nvalue = [22, 6]\nclass = t", fillcolor="#eca36f"] ;
764 -> 772 ;
773 [label="gini = 0.0\nsamples = 3\nvalue = [0, 3]\nclass = a", fillcolor="#399de5"] ;
772 -> 773 ;
774 [label="trips_in_first_30_days <= 0.32\ngini = 0.21\nsamples = 17\nvalue = [22, 3]\nclass = t", fillcolor="#e99254"] ;
772 -> 774 ;
775 [label="gini = 0.0\nsamples = 1\nvalue = [0, 1]\nclass = a", fillcolor="#399de5"] ;
774 -> 775 ;
776 [label="avg_rating_of_driver <= 0.44\ngini = 0.15\nsamples = 16\nvalue = [22, 2]\nclass = t", fillcolor="#e78c4b"] ;
774 -> 776 ;
777 [label="weekday_pct <= 0.28\ngini = 0.22\nsamples = 12\nvalue = [14, 2]\nclass = t", fillcolor="#e99355"] ;
776 -> 777 ;
778 [label="gini = 0.0\nsamples = 1\nvalue = [0, 1]\nclass = a", fillcolor="#399de5"] ;
777 -> 778 ;
779 [label="avg_dist <= -0.12\ngini = 0.12\nsamples = 11\nvalue = [14, 1]\nclass = t", fillcolor="#e78a47"] ;
777 -> 779 ;
780 [label="gini = 0.0\nsamples = 8\nvalue = [12, 0]\nclass = t", fillcolor="#e58139"] ;
779 -> 780 ;
781 [label="avg_rating_of_driver <= -0.09\ngini = 0.44\nsamples = 3\nvalue = [2, 1]\nclass = t", fillcolor="#f2c09c"] ;
779 -> 781 ;
782 [label="gini = 0.0\nsamples = 1\nvalue = [0, 1]\nclass = a", fillcolor="#399de5"] ;
781 -> 782 ;
783 [label="gini = 0.0\nsamples = 2\nvalue = [2, 0]\nclass = t", fillcolor="#e58139"] ;
781 -> 783 ;
784 [label="gini = 0.0\nsamples = 4\nvalue = [8, 0]\nclass = t", fillcolor="#e58139"] ;
776 -> 784 ;
785 [label="trips_in_first_30_days <= 0.84\ngini = 0.49\nsamples = 9\nvalue = [8, 6]\nclass = t", fillcolor="#f8e0ce"] ;
763 -> 785 ;
786 [label="weekday_pct <= 0.68\ngini = 0.32\nsamples = 7\nvalue = [8, 2]\nclass = t", fillcolor="#eca06a"] ;
785 -> 786 ;
787 [label="weekday_pct <= 0.41\ngini = 0.2\nsamples = 6\nvalue = [8, 1]\nclass = t", fillcolor="#e89152"] ;
786 -> 787 ;
788 [label="gini = 0.0\nsamples = 2\nvalue = [5, 0]\nclass = t", fillcolor="#e58139"] ;
787 -> 788 ;
789 [label="avg_rating_by_driver <= 0.16\ngini = 0.38\nsamples = 4\nvalue = [3, 1]\nclass = t", fillcolor="#eeab7b"] ;
787 -> 789 ;
790 [label="gini = 0.0\nsamples = 2\nvalue = [2, 0]\nclass = t", fillcolor="#e58139"] ;
789 -> 790 ;
791 [label="avg_dist <= 0.29\ngini = 0.5\nsamples = 2\nvalue = [1, 1]\nclass = t", fillcolor="#ffffff"] ;
789 -> 791 ;
792 [label="gini = 0.0\nsamples = 1\nvalue = [0, 1]\nclass = a", fillcolor="#399de5"] ;
791 -> 792 ;
793 [label="gini = 0.0\nsamples = 1\nvalue = [1, 0]\nclass = t", fillcolor="#e58139"] ;
791 -> 793 ;
794 [label="gini = 0.0\nsamples = 1\nvalue = [0, 1]\nclass = a", fillcolor="#399de5"] ;
786 -> 794 ;
795 [label="gini = 0.0\nsamples = 2\nvalue = [0, 4]\nclass = a", fillcolor="#399de5"] ;
785 -> 795 ;
796 [label="gini = 0.0\nsamples = 4\nvalue = [0, 5]\nclass = a", fillcolor="#399de5"] ;
700 -> 796 ;
797 [label="avg_dist <= 0.07\ngini = 0.41\nsamples = 29\nvalue = [34, 14]\nclass = t", fillcolor="#f0b58b"] ;
697 -> 797 ;
798 [label="weekday_pct <= 0.33\ngini = 0.48\nsamples = 21\nvalue = [20, 14]\nclass = t", fillcolor="#f7d9c4"] ;
797 -> 798 ;
799 [label="gini = 0.0\nsamples = 2\nvalue = [0, 3]\nclass = a", fillcolor="#399de5"] ;
798 -> 799 ;
800 [label="trips_in_first_30_days <= 0.19\ngini = 0.46\nsamples = 19\nvalue = [20, 11]\nclass = t", fillcolor="#f3c6a6"] ;
798 -> 800 ;
801 [label="weekday_pct <= 0.86\ngini = 0.5\nsamples = 12\nvalue = [9, 10]\nclass = a", fillcolor="#ebf5fc"] ;
800 -> 801 ;
802 [label="avg_rating_by_driver <= -0.06\ngini = 0.5\nsamples = 11\nvalue = [9, 8]\nclass = t", fillcolor="#fcf1e9"] ;
801 -> 802 ;
803 [label="weekday_pct <= 0.78\ngini = 0.24\nsamples = 5\nvalue = [1, 6]\nclass = a", fillcolor="#5aade9"] ;
802 -> 803 ;
804 [label="gini = 0.0\nsamples = 4\nvalue = [0, 6]\nclass = a", fillcolor="#399de5"] ;
803 -> 804 ;
805 [label="gini = 0.0\nsamples = 1\nvalue = [1, 0]\nclass = t", fillcolor="#e58139"] ;
803 -> 805 ;
806 [label="trips_in_first_30_days <= -0.21\ngini = 0.32\nsamples = 6\nvalue = [8, 2]\nclass = t", fillcolor="#eca06a"] ;
802 -> 806 ;
807 [label="weekday_pct <= 0.42\ngini = 0.2\nsamples = 5\nvalue = [8, 1]\nclass = t", fillcolor="#e89152"] ;
806 -> 807 ;
808 [label="avg_dist <= -0.27\ngini = 0.5\nsamples = 2\nvalue = [1, 1]\nclass = t", fillcolor="#ffffff"] ;
807 -> 808 ;
809 [label="gini = 0.0\nsamples = 1\nvalue = [1, 0]\nclass = t", fillcolor="#e58139"] ;
808 -> 809 ;
810 [label="gini = 0.0\nsamples = 1\nvalue = [0, 1]\nclass = a", fillcolor="#399de5"] ;
808 -> 810 ;
811 [label="gini = 0.0\nsamples = 3\nvalue = [7, 0]\nclass = t", fillcolor="#e58139"] ;
807 -> 811 ;
812 [label="gini = 0.0\nsamples = 1\nvalue = [0, 1]\nclass = a", fillcolor="#399de5"] ;
806 -> 812 ;
813 [label="gini = 0.0\nsamples = 1\nvalue = [0, 2]\nclass = a", fillcolor="#399de5"] ;
801 -> 813 ;
814 [label="avg_rating_of_driver <= -0.09\ngini = 0.15\nsamples = 7\nvalue = [11, 1]\nclass = t", fillcolor="#e78c4b"] ;
800 -> 814 ;
815 [label="gini = 0.0\nsamples = 6\nvalue = [11, 0]\nclass = t", fillcolor="#e58139"] ;
814 -> 815 ;
816 [label="gini = 0.0\nsamples = 1\nvalue = [0, 1]\nclass = a", fillcolor="#399de5"] ;
814 -> 816 ;
817 [label="gini = 0.0\nsamples = 8\nvalue = [14, 0]\nclass = t", fillcolor="#e58139"] ;
797 -> 817 ;
818 [label="weekday_pct <= 0.34\ngini = 0.49\nsamples = 92\nvalue = [64, 81]\nclass = a", fillcolor="#d5eafa"] ;
696 -> 818 ;
819 [label="trips_in_first_30_days <= 0.06\ngini = 0.37\nsamples = 21\nvalue = [7, 22]\nclass = a", fillcolor="#78bced"] ;
818 -> 819 ;
820 [label="avg_rating_of_driver <= -1.42\ngini = 0.17\nsamples = 16\nvalue = [2, 19]\nclass = a", fillcolor="#4ea7e8"] ;
819 -> 820 ;
821 [label="avg_dist <= -0.08\ngini = 0.44\nsamples = 3\nvalue = [1, 2]\nclass = a", fillcolor="#9ccef2"] ;
820 -> 821 ;
822 [label="gini = 0.0\nsamples = 2\nvalue = [0, 2]\nclass = a", fillcolor="#399de5"] ;
821 -> 822 ;
823 [label="gini = 0.0\nsamples = 1\nvalue = [1, 0]\nclass = t", fillcolor="#e58139"] ;
821 -> 823 ;
824 [label="weekday_pct <= 0.23\ngini = 0.1\nsamples = 13\nvalue = [1, 17]\nclass = a", fillcolor="#45a3e7"] ;
820 -> 824 ;
825 [label="trips_in_first_30_days <= -0.47\ngini = 0.44\nsamples = 2\nvalue = [1, 2]\nclass = a", fillcolor="#9ccef2"] ;
824 -> 825 ;
826 [label="gini = 0.0\nsamples = 1\nvalue = [1, 0]\nclass = t", fillcolor="#e58139"] ;
825 -> 826 ;
827 [label="gini = 0.0\nsamples = 1\nvalue = [0, 2]\nclass = a", fillcolor="#399de5"] ;
825 -> 827 ;
828 [label="gini = 0.0\nsamples = 11\nvalue = [0, 15]\nclass = a", fillcolor="#399de5"] ;
824 -> 828 ;
829 [label="weekday_pct <= 0.21\ngini = 0.47\nsamples = 5\nvalue = [5, 3]\nclass = t", fillcolor="#f5cdb0"] ;
819 -> 829 ;
830 [label="gini = 0.0\nsamples = 1\nvalue = [0, 1]\nclass = a", fillcolor="#399de5"] ;
829 -> 830 ;
831 [label="avg_rating_of_driver <= -0.36\ngini = 0.41\nsamples = 4\nvalue = [5, 2]\nclass = t", fillcolor="#efb388"] ;
829 -> 831 ;
832 [label="gini = 0.0\nsamples = 1\nvalue = [0, 2]\nclass = a", fillcolor="#399de5"] ;
831 -> 832 ;
833 [label="gini = 0.0\nsamples = 3\nvalue = [5, 0]\nclass = t", fillcolor="#e58139"] ;
831 -> 833 ;
834 [label="avg_rating_by_driver <= -0.51\ngini = 0.5\nsamples = 71\nvalue = [57, 59]\nclass = a", fillcolor="#f8fcfe"] ;
818 -> 834 ;
835 [label="weekday_pct <= 0.41\ngini = 0.49\nsamples = 22\nvalue = [21, 15]\nclass = t", fillcolor="#f8dbc6"] ;
834 -> 835 ;
836 [label="avg_dist <= -0.15\ngini = 0.34\nsamples = 10\nvalue = [11, 3]\nclass = t", fillcolor="#eca36f"] ;
835 -> 836 ;
837 [label="city_Winterfell <= 0.07\ngini = 0.17\nsamples = 7\nvalue = [10, 1]\nclass = t", fillcolor="#e88e4d"] ;
836 -> 837 ;
838 [label="gini = 0.0\nsamples = 2\nvalue = [4, 0]\nclass = t", fillcolor="#e58139"] ;
837 -> 838 ;
839 [label="avg_rating_of_driver <= 0.09\ngini = 0.24\nsamples = 5\nvalue = [6, 1]\nclass = t", fillcolor="#e9965a"] ;
837 -> 839 ;
840 [label="gini = 0.0\nsamples = 2\nvalue = [4, 0]\nclass = t", fillcolor="#e58139"] ;
839 -> 840 ;
841 [label="avg_dist <= -0.71\ngini = 0.44\nsamples = 3\nvalue = [2, 1]\nclass = t", fillcolor="#f2c09c"] ;
839 -> 841 ;
842 [label="gini = 0.0\nsamples = 1\nvalue = [1, 0]\nclass = t", fillcolor="#e58139"] ;
841 -> 842 ;
843 [label="avg_dist <= -0.49\ngini = 0.5\nsamples = 2\nvalue = [1, 1]\nclass = t", fillcolor="#ffffff"] ;
841 -> 843 ;
844 [label="gini = 0.0\nsamples = 1\nvalue = [0, 1]\nclass = a", fillcolor="#399de5"] ;
843 -> 844 ;
845 [label="gini = 0.0\nsamples = 1\nvalue = [1, 0]\nclass = t", fillcolor="#e58139"] ;
843 -> 845 ;
846 [label="avg_rating_of_driver <= -1.07\ngini = 0.44\nsamples = 3\nvalue = [1, 2]\nclass = a", fillcolor="#9ccef2"] ;
836 -> 846 ;
847 [label="gini = 0.0\nsamples = 1\nvalue = [0, 1]\nclass = a", fillcolor="#399de5"] ;
846 -> 847 ;
848 [label="trips_in_first_30_days <= -0.47\ngini = 0.5\nsamples = 2\nvalue = [1, 1]\nclass = t", fillcolor="#ffffff"] ;
846 -> 848 ;
849 [label="gini = 0.0\nsamples = 1\nvalue = [1, 0]\nclass = t", fillcolor="#e58139"] ;
848 -> 849 ;
850 [label="gini = 0.0\nsamples = 1\nvalue = [0, 1]\nclass = a", fillcolor="#399de5"] ;
848 -> 850 ;
851 [label="avg_dist <= 0.18\ngini = 0.5\nsamples = 12\nvalue = [10, 12]\nclass = a", fillcolor="#deeffb"] ;
835 -> 851 ;
852 [label="weekday_pct <= 0.71\ngini = 0.17\nsamples = 6\nvalue = [1, 10]\nclass = a", fillcolor="#4da7e8"] ;
851 -> 852 ;
853 [label="gini = 0.0\nsamples = 4\nvalue = [0, 9]\nclass = a", fillcolor="#399de5"] ;
852 -> 853 ;
854 [label="avg_dist <= -0.31\ngini = 0.5\nsamples = 2\nvalue = [1, 1]\nclass = t", fillcolor="#ffffff"] ;
852 -> 854 ;
855 [label="gini = 0.0\nsamples = 1\nvalue = [1, 0]\nclass = t", fillcolor="#e58139"] ;
854 -> 855 ;
856 [label="gini = 0.0\nsamples = 1\nvalue = [0, 1]\nclass = a", fillcolor="#399de5"] ;
854 -> 856 ;
857 [label="avg_rating_of_driver <= -0.8\ngini = 0.3\nsamples = 6\nvalue = [9, 2]\nclass = t", fillcolor="#eb9d65"] ;
851 -> 857 ;
858 [label="gini = 0.0\nsamples = 1\nvalue = [0, 2]\nclass = a", fillcolor="#399de5"] ;
857 -> 858 ;
859 [label="gini = 0.0\nsamples = 5\nvalue = [9, 0]\nclass = t", fillcolor="#e58139"] ;
857 -> 859 ;
860 [label="trips_in_first_30_days <= 0.06\ngini = 0.5\nsamples = 49\nvalue = [36, 44]\nclass = a", fillcolor="#dbedfa"] ;
834 -> 860 ;
861 [label="city_Winterfell <= 0.07\ngini = 0.37\nsamples = 23\nvalue = [9, 28]\nclass = a", fillcolor="#79bced"] ;
860 -> 861 ;
862 [label="avg_rating_of_driver <= 0.44\ngini = 0.43\nsamples = 10\nvalue = [4, 9]\nclass = a", fillcolor="#91c9f1"] ;
861 -> 862 ;
863 [label="weekday_pct <= 0.82\ngini = 0.35\nsamples = 7\nvalue = [2, 7]\nclass = a", fillcolor="#72b9ec"] ;
862 -> 863 ;
864 [label="avg_rating_of_driver <= -1.69\ngini = 0.22\nsamples = 6\nvalue = [1, 7]\nclass = a", fillcolor="#55abe9"] ;
863 -> 864 ;
865 [label="trips_in_first_30_days <= -0.47\ngini = 0.44\nsamples = 3\nvalue = [1, 2]\nclass = a", fillcolor="#9ccef2"] ;
864 -> 865 ;
866 [label="gini = 0.0\nsamples = 1\nvalue = [0, 1]\nclass = a", fillcolor="#399de5"] ;
865 -> 866 ;
867 [label="avg_dist <= -0.15\ngini = 0.5\nsamples = 2\nvalue = [1, 1]\nclass = t", fillcolor="#ffffff"] ;
865 -> 867 ;
868 [label="gini = 0.0\nsamples = 1\nvalue = [0, 1]\nclass = a", fillcolor="#399de5"] ;
867 -> 868 ;
869 [label="gini = 0.0\nsamples = 1\nvalue = [1, 0]\nclass = t", fillcolor="#e58139"] ;
867 -> 869 ;
870 [label="gini = 0.0\nsamples = 3\nvalue = [0, 5]\nclass = a", fillcolor="#399de5"] ;
864 -> 870 ;
